<?xml version="1.0"?>
<opencv_storage>
<cascade>
  <stageType>BOOST</stageType>
  <featureType>LBP</featureType>
  <height>37</height>
  <width>37</width>
  <stageParams>
    <boostType>GAB</boostType>
    <minHitRate>9.9900001287460327e-01</minHitRate>
    <maxFalseAlarm>2.5000000000000000e-01</maxFalseAlarm>
    <weightTrimRate>9.4999999999999996e-01</weightTrimRate>
    <maxDepth>1</maxDepth>
    <maxWeakCount>100</maxWeakCount></stageParams>
  <featureParams>
    <maxCatCount>256</maxCatCount>
    <featSize>1</featSize></featureParams>
  <stageNum>15</stageNum>
  <stages>
    <!-- stage 0 -->
    <_>
      <maxWeakCount>6</maxWeakCount>
      <stageThreshold>-5.3126174211502075e-01</stageThreshold>
      <weakClassifiers>
        <_>
          <internalNodes>
            0 -1 21 -77899297 -782564207 -1068416885 -82639843
            -1073545010 -888995838 1233208063 1594576963</internalNodes>
          <leafValues>
            -8.2753401994705200e-01 8.1520694494247437e-01</leafValues></_>
        <_>
          <internalNodes>
            0 -1 28 1359237336 1493258564 1359433945 1507004821
            134744218 1241528362 1351254779 1536937183</internalNodes>
          <leafValues>
            -8.2338362932205200e-01 5.6926923990249634e-01</leafValues></_>
        <_>
          <internalNodes>
            0 -1 40 -89960995 -1791786621 1092620305 -750305081
            -938980712 -1727512567 -804634389 -7646895</internalNodes>
          <leafValues>
            -6.7498677968978882e-01 6.7732673883438110e-01</leafValues></_>
        <_>
          <internalNodes>
            0 -1 42 -779030056 -587186172 -788484011 -720302079
            -2113885527 -1433829248 -1971287833 -653262511</internalNodes>
          <leafValues>
            -8.0080342292785645e-01 5.7854771614074707e-01</leafValues></_>
        <_>
          <internalNodes>
            0 -1 129 -1694363389 -2029846336 -754872293 1330828049
            1226348701 193101833 -2012692229 -124024615</internalNodes>
          <leafValues>
            -6.6198205947875977e-01 6.8320775032043457e-01</leafValues></_>
        <_>
          <internalNodes>
            0 -1 117 -708586283 18460689 -2146418604 1074860292
            -2004713333 -787545984 -2013009269 1615780059</internalNodes>
          <leafValues>
            -8.0088496208190918e-01 5.3288727998733521e-01</leafValues></_></weakClassifiers></_>
    <!-- stage 1 -->
    <_>
      <maxWeakCount>7</maxWeakCount>
      <stageThreshold>-8.5455042123794556e-01</stageThreshold>
      <weakClassifiers>
        <_>
          <internalNodes>
            0 -1 35 391238655 -741490640 -1342160685 1498530821
            -846110006 1784668306 1241744639 993000447</internalNodes>
          <leafValues>
            -7.5451260805130005e-01 6.2652707099914551e-01</leafValues></_>
        <_>
          <internalNodes>
            0 -1 25 -136885507 -715423475 1078476803 -556679129
            -762839008 1241710602 -938131390 -112243945</internalNodes>
          <leafValues>
            -7.0957100391387939e-01 5.6933295726776123e-01</leafValues></_>
        <_>
          <internalNodes>
            0 -1 52 -1253019667 -721420020 1073849173 -772009651
            -1440995669 -99643132 -525809921 -1740617407</internalNodes>
          <leafValues>
            -7.2270625829696655e-01 5.2933019399642944e-01</leafValues></_>
        <_>
          <internalNodes>
            0 -1 63 807951995 1061027832 2130706431 2012952565
            1827954398 -536936449 -1073840129 -308363268</internalNodes>
          <leafValues>
            -5.5066555738449097e-01 6.9185507297515869e-01</leafValues></_>
        <_>
          <internalNodes>
            0 -1 0 -997883776 -867495756 1073758400 -520023798
            -2147311205 -935308288 -1744614567 -121676985</internalNodes>
          <leafValues>
            -6.5358233451843262e-01 5.8305919170379639e-01</leafValues></_>
        <_>
          <internalNodes>
            0 -1 80 297524473 194711208 -1 -771752065 -33554561
            -1967128577 -33554945 -872415233</internalNodes>
          <leafValues>
            -5.9794086217880249e-01 6.5093266963958740e-01</leafValues></_>
        <_>
          <internalNodes>
            0 -1 116 -2096940767 -1137508095 18042969 -1908338157
            -401991071 -1642528767 -1992244581 1589283455</internalNodes>
          <leafValues>
            -6.3315367698669434e-01 6.1351311206817627e-01</leafValues></_></weakClassifiers></_>
    <!-- stage 2 -->
    <_>
      <maxWeakCount>8</maxWeakCount>
      <stageThreshold>-7.0137923955917358e-01</stageThreshold>
      <weakClassifiers>
        <_>
          <internalNodes>
            0 -1 24 -246033234 1086439580 1140949295 -779118317
            453148557 1905819659 -2002544129 1912598447</internalNodes>
          <leafValues>
            -8.5263156890869141e-01 5.7551020383834839e-01</leafValues></_>
        <_>
          <internalNodes>
            0 -1 112 -1344572873 -213302817 1157730565 1967182101
            -158426757 -1174302077 -165021037 169540235</internalNodes>
          <leafValues>
            -6.9004213809967041e-01 4.7623652219772339e-01</leafValues></_>
        <_>
          <internalNodes>
            0 -1 37 -78678565 1197592855 -1063298782 -596555769
            1930127395 1929937009 -1793481913 1743775461</internalNodes>
          <leafValues>
            -6.1121511459350586e-01 5.3778570890426636e-01</leafValues></_>
        <_>
          <internalNodes>
            0 -1 31 -606124055 -675216957 1344292907 -732839144
            -1029173755 -259981174 -420752893 -1118050153</internalNodes>
          <leafValues>
            -5.6612634658813477e-01 6.0166454315185547e-01</leafValues></_>
        <_>
          <internalNodes>
            0 -1 90 -704643189 25923745 -2012381023 227000587 1218103035
            463175828 -1069236083 -1680869393</internalNodes>
          <leafValues>
            -5.9142100811004639e-01 5.8936440944671631e-01</leafValues></_>
        <_>
          <internalNodes>
            0 -1 86 890460148 940610757 29970842 130667401 1863054645
            -1458450296 1510039632 246397659</internalNodes>
          <leafValues>
            -8.0433970689773560e-01 3.8241574168205261e-01</leafValues></_>
        <_>
          <internalNodes>
            0 -1 120 -2108919713 -804429510 335679834 -804466295
            -964580849 1722454028 25540527 1789717327</internalNodes>
          <leafValues>
            -6.9168978929519653e-01 4.5595815777778625e-01</leafValues></_>
        <_>
          <internalNodes>
            0 -1 155 2013244879 653258479 -1343226148 1756360367
            -36217777 -848297987 -268443796 -815075337</internalNodes>
          <leafValues>
            -5.7609027624130249e-01 6.0405153036117554e-01</leafValues></_></weakClassifiers></_>
    <!-- stage 3 -->
    <_>
      <maxWeakCount>8</maxWeakCount>
      <stageThreshold>-2.9201629757881165e-01</stageThreshold>
      <weakClassifiers>
        <_>
          <internalNodes>
            0 -1 46 -16824971 -40961 -37505 -32769 -268542603 -1
            -1073914401 -32773</internalNodes>
          <leafValues>
            -4.7567567229270935e-01 6.7916667461395264e-01</leafValues></_>
        <_>
          <internalNodes>
            0 -1 134 -1684308161 1356278134 352542723 -171223529
            -265124413 -661061472 629469227 787410551</internalNodes>
          <leafValues>
            -6.1851352453231812e-01 5.4818445444107056e-01</leafValues></_>
        <_>
          <internalNodes>
            0 -1 154 -2027966817 -1572536225 -1711202253 140918875
            1789387615 -758545275 -259907021 -1908606237</internalNodes>
          <leafValues>
            -5.6406748294830322e-01 5.4690319299697876e-01</leafValues></_>
        <_>
          <internalNodes>
            0 -1 99 845116787 897138970 52748187 398712075 1493563627
            -1702788210 -650659153 42791873</internalNodes>
          <leafValues>
            -7.1214848756790161e-01 4.5706132054328918e-01</leafValues></_>
        <_>
          <internalNodes>
            0 -1 44 -2095670359 -1757363947 268648791 1973469205
            1758120479 1120706690 153694899 -542060415</internalNodes>
          <leafValues>
            -5.5201393365859985e-01 6.0391646623611450e-01</leafValues></_>
        <_>
          <internalNodes>
            0 -1 128 -1105527299 -1145774496 -1073741825 -166153
            1073709055 -1912602625 402464244 -33562627</internalNodes>
          <leafValues>
            -5.4563820362091064e-01 6.1714947223663330e-01</leafValues></_>
        <_>
          <internalNodes>
            0 -1 29 -762981091 -261013495 1075331936 -853999481
            -535770554 -695566296 -1987917294 2026623114</internalNodes>
          <leafValues>
            -7.2650843858718872e-01 4.6460285782814026e-01</leafValues></_>
        <_>
          <internalNodes>
            0 -1 105 -9207543 -115802027 -2126430069 945381633
            -1576353202 -1448378285 320507931 781745053</internalNodes>
          <leafValues>
            -6.8840372562408447e-01 4.9990221858024597e-01</leafValues></_></weakClassifiers></_>
    <!-- stage 4 -->
    <_>
      <maxWeakCount>10</maxWeakCount>
      <stageThreshold>-6.3220113515853882e-01</stageThreshold>
      <weakClassifiers>
        <_>
          <internalNodes>
            0 -1 106 -678167629 -1848044797 -2146369257 -463517309
            -905803885 -267837415 -1332043346 211603985</internalNodes>
          <leafValues>
            -6.3738316297531128e-01 5.5021458864212036e-01</leafValues></_>
        <_>
          <internalNodes>
            0 -1 61 1008227453 1573060929 100729239 -50249663 1755859610
            -74970934 -1736307985 2134566913</internalNodes>
          <leafValues>
            -6.2617939710617065e-01 4.6464610099792480e-01</leafValues></_>
        <_>
          <internalNodes>
            0 -1 4 -913142753 -1029978556 -2146843891 -654212607
            -1073716337 -2004303677 -1962622901 1910468439</internalNodes>
          <leafValues>
            -6.0616886615753174e-01 4.3540978431701660e-01</leafValues></_>
        <_>
          <internalNodes>
            0 -1 95 889307352 88904832 1359063441 1574748305 8423673
            -2011101046 536909961 -2038398821</internalNodes>
          <leafValues>
            -5.4125738143920898e-01 4.8473772406578064e-01</leafValues></_>
        <_>
          <internalNodes>
            0 -1 73 -718610060 -639913311 -1056620263 1595081989
            -535224277 -1191042893 51119019 519834913</internalNodes>
          <leafValues>
            -6.0246807336807251e-01 4.1158404946327209e-01</leafValues></_>
        <_>
          <internalNodes>
            0 -1 132 -594896419 -553416167 -1858060143 -746422261
            -786254676 -603783099 -371095165 -88933879</internalNodes>
          <leafValues>
            -5.3461968898773193e-01 4.7025677561759949e-01</leafValues></_>
        <_>
          <internalNodes>
            0 -1 103 336624341 -2082893360 286605704 -854781696
            -528244095 -2088744832 276824197 764231714</internalNodes>
          <leafValues>
            -6.4538854360580444e-01 4.3519869446754456e-01</leafValues></_>
        <_>
          <internalNodes>
            0 -1 150 -2037645129 864882971 1342833459 -1340767711
            -2138338934 -1996277248 186255369 -1963048414</internalNodes>
          <leafValues>
            -5.6259602308273315e-01 4.8386505246162415e-01</leafValues></_>
        <_>
          <internalNodes>
            0 -1 1 412009354 -989789948 -1929082099 1439695719
            -1610491745 -924385141 -2080208381 -966407069</internalNodes>
          <leafValues>
            -5.8649855852127075e-01 4.4044470787048340e-01</leafValues></_>
        <_>
          <internalNodes>
            0 -1 81 859361713 1038729145 1979709428 401207280 872160479
            -805306370 2113878522 -1422067972</internalNodes>
          <leafValues>
            -4.8913997411727905e-01 5.9364366531372070e-01</leafValues></_></weakClassifiers></_>
    <!-- stage 5 -->
    <_>
      <maxWeakCount>9</maxWeakCount>
      <stageThreshold>-1.0351294279098511e+00</stageThreshold>
      <weakClassifiers>
        <_>
          <internalNodes>
            0 -1 27 -712781604 -637465984 49300 -754925568 -41890645
            1350672513 -1952415544 2073792640</internalNodes>
          <leafValues>
            -5.5434781312942505e-01 5.2787458896636963e-01</leafValues></_>
        <_>
          <internalNodes>
            0 -1 18 -715601778 -804253675 1409306955 37120 -384827384
            -90633909 -1593803109 -87375461</internalNodes>
          <leafValues>
            -5.0554108619689941e-01 4.6570885181427002e-01</leafValues></_>
        <_>
          <internalNodes>
            0 -1 107 -1858643532 -1308258203 1082151425 33886233
            -1811849183 939561088 1258295783 116381851</internalNodes>
          <leafValues>
            -7.8615254163742065e-01 2.8101503849029541e-01</leafValues></_>
        <_>
          <internalNodes>
            0 -1 3 -900921745 -805175232 1073790985 159416385
            -1073117045 -1064793943 537577513 2009559923</internalNodes>
          <leafValues>
            -6.3109827041625977e-01 3.4914529323577881e-01</leafValues></_>
        <_>
          <internalNodes>
            0 -1 47 -218120449 -285999112 1073737395 -83886091
            1971146301 -2030862465 1417565394 -616573195</internalNodes>
          <leafValues>
            -4.7897613048553467e-01 5.2023684978485107e-01</leafValues></_>
        <_>
          <internalNodes>
            0 -1 146 -1078542154 -1425489895 -2147418089 -2121691064
            -671088496 159514624 -2128396157 -10032444</internalNodes>
          <leafValues>
            -5.6059467792510986e-01 4.1401621699333191e-01</leafValues></_>
        <_>
          <internalNodes>
            0 -1 49 805835976 -1674051446 1073762305 -1723326455
            554254527 -66584574 -1878949702 276861579</internalNodes>
          <leafValues>
            -7.4511551856994629e-01 3.4810829162597656e-01</leafValues></_>
        <_>
          <internalNodes>
            0 -1 64 1479383229 430505976 2063597501 -33721857 1324773356
            -67960834 1853783038 -1083041922</internalNodes>
          <leafValues>
            -4.2013299465179443e-01 5.9745687246322632e-01</leafValues></_>
        <_>
          <internalNodes>
            0 -1 22 -2146727722 -1052639231 -2147483629 1342373890
            -1601011526 -2147450744 -2146728481 -364295933</internalNodes>
          <leafValues>
            -5.4541945457458496e-01 4.4029632210731506e-01</leafValues></_></weakClassifiers></_>
    <!-- stage 6 -->
    <_>
      <maxWeakCount>11</maxWeakCount>
      <stageThreshold>-7.5859570503234863e-01</stageThreshold>
      <weakClassifiers>
        <_>
          <internalNodes>
            0 -1 93 -1458476237 1459978497 -1056882401 17138049
            -247232101 413237376 -1459502922 135576201</internalNodes>
          <leafValues>
            -6.2046909332275391e-01 4.8009747266769409e-01</leafValues></_>
        <_>
          <internalNodes>
            0 -1 123 -666831781 -1794813163 -1073709028 1649737753
            -234816633 1883541522 -1073487238 1660599004</internalNodes>
          <leafValues>
            -6.8203783035278320e-01 3.4398868680000305e-01</leafValues></_>
        <_>
          <internalNodes>
            0 -1 32 -644886053 -968719999 -502791152 -1120862188
            -1945468901 1107831176 562702416 -221798235</internalNodes>
          <leafValues>
            -5.4025202989578247e-01 4.3496829271316528e-01</leafValues></_>
        <_>
          <internalNodes>
            0 -1 119 -1562891939 1875988 -1067388732 -1114992512
            303288478 -1065287680 -528227937 1859050970</internalNodes>
          <leafValues>
            -6.9406688213348389e-01 3.2324257493019104e-01</leafValues></_>
        <_>
          <internalNodes>
            0 -1 19 -397784926 1368981505 -1064775201 1615872001
            1442842778 -662175232 404483756 -1367185224</internalNodes>
          <leafValues>
            -5.6345582008361816e-01 4.0476071834564209e-01</leafValues></_>
        <_>
          <internalNodes>
            0 -1 83 -1022951397 425001311 229377 -392314087 545718330
            160071688 562659579 344490237</internalNodes>
          <leafValues>
            -6.1379152536392212e-01 3.9807784557342529e-01</leafValues></_>
        <_>
          <internalNodes>
            0 -1 39 -213110731 -1048543093 -1610460651 -179961775
            17320232 -1735786367 280776 -917876221</internalNodes>
          <leafValues>
            -6.4743947982788086e-01 3.7328961491584778e-01</leafValues></_>
        <_>
          <internalNodes>
            0 -1 41 285230146 98432 16879635 -782696154 1879526023
            176201893 1183793893 -1074861279</internalNodes>
          <leafValues>
            -5.2976173162460327e-01 4.6723845601081848e-01</leafValues></_>
        <_>
          <internalNodes>
            0 -1 111 -1102637103 -1752460281 -1056844479 -1207831936
            1208311047 -1172037503 -528137491 775579849</internalNodes>
          <leafValues>
            -6.6840982437133789e-01 3.6137777566909790e-01</leafValues></_>
        <_>
          <internalNodes>
            0 -1 34 -669725747 2038497281 -2129587109 1342177296
            1745506379 -805175040 41114 405465228</internalNodes>
          <leafValues>
            -6.1407107114791870e-01 3.9431223273277283e-01</leafValues></_>
        <_>
          <internalNodes>
            0 -1 6 -481833156 -1056931838 1090521160 -2013200384
            -2145245158 38947 -1073741606 -422837438</internalNodes>
          <leafValues>
            -5.8934253454208374e-01 4.4930818676948547e-01</leafValues></_></weakClassifiers></_>
    <!-- stage 7 -->
    <_>
      <maxWeakCount>12</maxWeakCount>
      <stageThreshold>-5.9332126379013062e-01</stageThreshold>
      <weakClassifiers>
        <_>
          <internalNodes>
            0 -1 92 -545136777 289506059 209814292 1678770434 1360036233
            -738185079 -1065315564 1154994331</internalNodes>
          <leafValues>
            -5.7142859697341919e-01 4.6732026338577271e-01</leafValues></_>
        <_>
          <internalNodes>
            0 -1 9 -16781569 1862270716 -1342198402 -16785540 -45921
            -37001 -8426452 -671134050</internalNodes>
          <leafValues>
            -4.5890587568283081e-01 4.6892526745796204e-01</leafValues></_>
        <_>
          <internalNodes>
            0 -1 97 1900120354 487129925 236299 379652145 319336751
            454156418 1132503531 551868585</internalNodes>
          <leafValues>
            -7.9585695266723633e-01 2.7416449785232544e-01</leafValues></_>
        <_>
          <internalNodes>
            0 -1 113 -1724549165 -1451130872 671287572 -418987836
            -125611264 -1723578239 1375777424 730685572</internalNodes>
          <leafValues>
            -5.9275466203689575e-01 3.2906639575958252e-01</leafValues></_>
        <_>
          <internalNodes>
            0 -1 71 2053894618 438382370 -16777857 -138546827 -33554742
            -1895890947 -956367106 -1426260487</internalNodes>
          <leafValues>
            -4.2307567596435547e-01 5.2480328083038330e-01</leafValues></_>
        <_>
          <internalNodes>
            0 -1 160 1226260648 -1609559935 250004 1385382105
            -1073643510 -1073594368 -931102569 -1706411573</internalNodes>
          <leafValues>
            -4.6219691634178162e-01 4.7963228821754456e-01</leafValues></_>
        <_>
          <internalNodes>
            0 -1 108 -1056705268 -2147364864 -1728053239 894019780
            -519842902 -662470263 -1040006424 1852805816</internalNodes>
          <leafValues>
            -5.3067588806152344e-01 4.4596707820892334e-01</leafValues></_>
        <_>
          <internalNodes>
            0 -1 8 -1539117142 -398409276 85246852 -120552878 1955177123
            -1727295355 -770842525 -1771077421</internalNodes>
          <leafValues>
            -5.3960758447647095e-01 4.4119065999984741e-01</leafValues></_>
        <_>
          <internalNodes>
            0 -1 15 -537148837 -453137539 2130506978 -231559576 -4817887
            -161120412 1996307475 -1766130697</internalNodes>
          <leafValues>
            -4.1787943243980408e-01 5.7430237531661987e-01</leafValues></_>
        <_>
          <internalNodes>
            0 -1 138 1536961550 -143917703 -286263491 -713064451
            -1803661881 2147442682 -184781731 -89462947</internalNodes>
          <leafValues>
            -4.2265579104423523e-01 5.8244973421096802e-01</leafValues></_>
        <_>
          <internalNodes>
            0 -1 136 -1320184942 -752516073 1627472148 -837099502
            272632224 688147 -251588094 1311690895</internalNodes>
          <leafValues>
            -6.9707649946212769e-01 3.5086607933044434e-01</leafValues></_>
        <_>
          <internalNodes>
            0 -1 59 -1592553131 -1056308770 -2126446206 1608056832
            302547129 -938835838 1757938245 -1121693659</internalNodes>
          <leafValues>
            -5.3690302371978760e-01 4.7459703683853149e-01</leafValues></_></weakClassifiers></_>
    <!-- stage 8 -->
    <_>
      <maxWeakCount>12</maxWeakCount>
      <stageThreshold>-5.7232183218002319e-01</stageThreshold>
      <weakClassifiers>
        <_>
          <internalNodes>
            0 -1 101 -1303178992 285393152 1090605716 289616009
            -654164391 -536633344 -931132213 127961</internalNodes>
          <leafValues>
            -7.4110031127929688e-01 3.8030195236206055e-01</leafValues></_>
        <_>
          <internalNodes>
            0 -1 13 -861016702 -1363939616 -352389578 -1498763608
            1038535936 1164410484 -671775246 -776221933</internalNodes>
          <leafValues>
            -4.2971581220626831e-01 4.7473463416099548e-01</leafValues></_>
        <_>
          <internalNodes>
            0 -1 133 -890242305 -4098 -1073760260 -1091633474 -353374616
            -1109463041 -486690961 -489689857</internalNodes>
          <leafValues>
            -3.3518397808074951e-01 5.6959968805313110e-01</leafValues></_>
        <_>
          <internalNodes>
            0 -1 55 466712734 1497563416 474010013 1895923735
            -1676523192 65536 -1878725718 1938572291</internalNodes>
          <leafValues>
            -6.2618029117584229e-01 3.3404889702796936e-01</leafValues></_>
        <_>
          <internalNodes>
            0 -1 14 -1059422008 -1065189233 272630816 1391052802
            -854519264 573442 268517568 -208932654</internalNodes>
          <leafValues>
            -5.0259327888488770e-01 4.3088835477828979e-01</leafValues></_>
        <_>
          <internalNodes>
            0 -1 161 -50599394 -154273111 1875803894 1357889534
            2139050805 215349111 -50676306 -1775243593</internalNodes>
          <leafValues>
            -3.4964570403099060e-01 6.4686155319213867e-01</leafValues></_>
        <_>
          <internalNodes>
            0 -1 11 -1731493362 -1878941259 21053878 -200961920 8716326
            -2139095028 -2105538541 -252841422</internalNodes>
          <leafValues>
            -5.3127187490463257e-01 4.1578698158264160e-01</leafValues></_>
        <_>
          <internalNodes>
            0 -1 100 -1302365422 1196080 1212256543 486543492
            -1064792001 -623214584 828477578 1154236685</internalNodes>
          <leafValues>
            -7.1104931831359863e-01 3.0866995453834534e-01</leafValues></_>
        <_>
          <internalNodes>
            0 -1 145 -1752739109 -1593458677 1114257 -1584787453
            -1610497623 -1069547520 17580097 -804405120</internalNodes>
          <leafValues>
            -5.0088304281234741e-01 4.6712720394134521e-01</leafValues></_>
        <_>
          <internalNodes>
            0 -1 43 671898072 922800144 29380637 -11206079 -1610301143
            -1920360320 -1048051573 -1097267116</internalNodes>
          <leafValues>
            -4.8505729436874390e-01 4.8459786176681519e-01</leafValues></_>
        <_>
          <internalNodes>
            0 -1 58 -42380069 -795769844 1610633245 -514703360
            -469537729 -1593750520 -796137282 1996681394</internalNodes>
          <leafValues>
            -5.2438360452651978e-01 4.5532134175300598e-01</leafValues></_>
        <_>
          <internalNodes>
            0 -1 158 -1869643608 -2147196927 1073807363 541819138
            1611170825 65536 -1073740992 -972963264</internalNodes>
          <leafValues>
            -6.1444443464279175e-01 4.0183612704277039e-01</leafValues></_></weakClassifiers></_>
    <!-- stage 9 -->
    <_>
      <maxWeakCount>11</maxWeakCount>
      <stageThreshold>-5.3345847129821777e-01</stageThreshold>
      <weakClassifiers>
        <_>
          <internalNodes>
            0 -1 110 51971039 1392723009 1342178073 1883622217
            -1073717240 8487298 -626869015 1554969439</internalNodes>
          <leafValues>
            -5.6899809837341309e-01 5.1323652267456055e-01</leafValues></_>
        <_>
          <internalNodes>
            0 -1 50 1843288788 -125369593 -2147418112 268517888
            -1450878833 8458370 -903877662 1808759435</internalNodes>
          <leafValues>
            -6.3421219587326050e-01 3.7177875638008118e-01</leafValues></_>
        <_>
          <internalNodes>
            0 -1 139 810799779 -2113322021 840175617 -354861056
            1897611777 1661010080 -1014363135 1682895290</internalNodes>
          <leafValues>
            -7.3818594217300415e-01 3.3867686986923218e-01</leafValues></_>
        <_>
          <internalNodes>
            0 -1 87 390160373 -1154121121 1417788373 -1624407934
            -926858532 -1559683038 -351729656 261339296</internalNodes>
          <leafValues>
            -6.4572387933731079e-01 3.2671341300010681e-01</leafValues></_>
        <_>
          <internalNodes>
            0 -1 85 -1604985045 -1610114807 -2063592382 1933101458
            -1338907911 -1047877238 -670444159 682528960</internalNodes>
          <leafValues>
            -5.9656888246536255e-01 3.6551079154014587e-01</leafValues></_>
        <_>
          <internalNodes>
            0 -1 91 1533498673 -2129538975 16777493 1607971089
            -1727379358 302549130 -1467774807 407552170</internalNodes>
          <leafValues>
            -6.0334897041320801e-01 3.7088096141815186e-01</leafValues></_>
        <_>
          <internalNodes>
            0 -1 76 -1613757767 -1755626451 -2059401147 -41795391
            151558395 522947202 -1604830453 -1128727663</internalNodes>
          <leafValues>
            -5.2958089113235474e-01 4.1748410463333130e-01</leafValues></_>
        <_>
          <internalNodes>
            0 -1 140 1594865828 -102891617 -74519 -553883661 -822096181
            1290797046 2130134181 -18317697</internalNodes>
          <leafValues>
            -4.5430129766464233e-01 5.2402216196060181e-01</leafValues></_>
        <_>
          <internalNodes>
            0 -1 122 286496881 595597710 285512192 1472921923 -536824390
            -1383825272 -494247788 1978466374</internalNodes>
          <leafValues>
            -5.8460307121276855e-01 3.8104012608528137e-01</leafValues></_>
        <_>
          <internalNodes>
            0 -1 57 1626555083 45205780 -1877933948 337445293
            -1073120709 1224837131 -1476155769 2072167217</internalNodes>
          <leafValues>
            -6.2650018930435181e-01 3.5676181316375732e-01</leafValues></_>
        <_>
          <internalNodes>
            0 -1 142 1862684170 -402939906 -1090536196 -85360921
            1476251487 1458438119 1575974378 -88410746</internalNodes>
          <leafValues>
            -4.6594953536987305e-01 5.1229470968246460e-01</leafValues></_></weakClassifiers></_>
    <!-- stage 10 -->
    <_>
      <maxWeakCount>13</maxWeakCount>
      <stageThreshold>-5.5327379703521729e-01</stageThreshold>
      <weakClassifiers>
        <_>
          <internalNodes>
            0 -1 38 -922402577 -530542528 33603975 -662667253 1665142110
            1879064584 1614826055 1919107682</internalNodes>
          <leafValues>
            -6.8350166082382202e-01 3.5851746797561646e-01</leafValues></_>
        <_>
          <internalNodes>
            0 -1 54 -1358788635 -954028168 1693958133 -1100759051
            -1225490524 -671338497 402126838 -1079032191</internalNodes>
          <leafValues>
            -3.4497395157814026e-01 4.4596678018569946e-01</leafValues></_>
        <_>
          <internalNodes>
            0 -1 109 -1597480675 -738197487 1224786716 -1761095424
            -1861696921 402690048 556368030 2114083464</internalNodes>
          <leafValues>
            -5.2845233678817749e-01 3.5363775491714478e-01</leafValues></_>
        <_>
          <internalNodes>
            0 -1 124 -1195816815 -68670124 -805339587 1404432127
            -440550822 90464095 -1343456561 -98904103</internalNodes>
          <leafValues>
            -3.3778005838394165e-01 5.4157817363739014e-01</leafValues></_>
        <_>
          <internalNodes>
            0 -1 159 -83694922 -1417691154 -402718925 -236097628
            -419785058 -1052443042 376755543 -183063723</internalNodes>
          <leafValues>
            -3.9481696486473083e-01 4.9789762496948242e-01</leafValues></_>
        <_>
          <internalNodes>
            0 -1 26 183199622 -840025174 805289570 1592757820 922615632
            99942247 558299121 -208946725</internalNodes>
          <leafValues>
            -3.4489068388938904e-01 5.0384157896041870e-01</leafValues></_>
        <_>
          <internalNodes>
            0 -1 135 -912456923 -241827816 -2130706088 1947029836 163872
            -1986854646 -1568010086 2048586653</internalNodes>
          <leafValues>
            -6.1811465024948120e-01 2.7858120203018188e-01</leafValues></_>
        <_>
          <internalNodes>
            0 -1 153 -1784354332 -1610641749 1470877358 394230259
            -2034641542 -1778581569 -1103956506 -1256472897</internalNodes>
          <leafValues>
            -3.1253018975257874e-01 6.2079340219497681e-01</leafValues></_>
        <_>
          <internalNodes>
            0 -1 141 -1161847893 -1955860816 -1346783663 1508372146
            1341620157 -857866250 1610314868 -76646932</internalNodes>
          <leafValues>
            -3.9426732063293457e-01 4.8782303929328918e-01</leafValues></_>
        <_>
          <internalNodes>
            0 -1 66 -1943394552 768573408 1320418900 -1149376540
            -1423517840 1878917119 -1786824984 -72669984</internalNodes>
          <leafValues>
            -4.0841102600097656e-01 5.1872146129608154e-01</leafValues></_>
        <_>
          <internalNodes>
            0 -1 62 836326640 1963085828 33220 403701784 1778600036
            -2012610559 -2147450749 620773384</internalNodes>
          <leafValues>
            -7.2032517194747925e-01 2.8542721271514893e-01</leafValues></_>
        <_>
          <internalNodes>
            0 -1 23 -1740573919 29393040 -1308516288 1208652864
            -1870593846 -2079813504 8814800 733991906</internalNodes>
          <leafValues>
            -4.7599580883979797e-01 3.9848768711090088e-01</leafValues></_>
        <_>
          <internalNodes>
            0 -1 163 -218701105 -1342792129 -1090757522 -731943686
            -680134819 -1994457225 1073086364 -238062049</internalNodes>
          <leafValues>
            -3.1746241450309753e-01 6.4437586069107056e-01</leafValues></_></weakClassifiers></_>
    <!-- stage 11 -->
    <_>
      <maxWeakCount>15</maxWeakCount>
      <stageThreshold>-9.0495109558105469e-01</stageThreshold>
      <weakClassifiers>
        <_>
          <internalNodes>
            0 -1 67 1360069840 1065390096 -1006497664 134259205
            -1744272237 448839714 -1073733496 431678091</internalNodes>
          <leafValues>
            -6.6013073921203613e-01 3.6011478304862976e-01</leafValues></_>
        <_>
          <internalNodes>
            0 -1 152 1108148225 -1273982702 103829506 -662503423
            -1608314833 -2013151230 143786009 -285714367</internalNodes>
          <leafValues>
            -4.8809322714805603e-01 3.1585705280303955e-01</leafValues></_>
        <_>
          <internalNodes>
            0 -1 48 5254794 -787397631 -654293612 -1744830336 -800563187
            -1610088440 536919277 -1105543167</internalNodes>
          <leafValues>
            -4.6091413497924805e-01 3.5195946693420410e-01</leafValues></_>
        <_>
          <internalNodes>
            0 -1 121 -1391845114 -1056927517 16781336 -1743744634
            -535777126 1208229889 -1039628134 1931137418</internalNodes>
          <leafValues>
            -6.7070758342742920e-01 2.4718682467937469e-01</leafValues></_>
        <_>
          <internalNodes>
            0 -1 74 1064628624 -719564332 -2564 -218527764 2117795536
            -757846539 603914779 -927289224</internalNodes>
          <leafValues>
            -3.3622252941131592e-01 5.1965594291687012e-01</leafValues></_>
        <_>
          <internalNodes>
            0 -1 98 -1844416256 -771554240 -1056698061 -1438055680
            1191329792 1346371778 -1526167142 147374473</internalNodes>
          <leafValues>
            -8.9980018138885498e-01 1.5503132343292236e-01</leafValues></_>
        <_>
          <internalNodes>
            0 -1 148 -1582116410 -351666083 1118237 1910309121
            -1862139769 -1069498239 -2141707774 -1735649152</internalNodes>
          <leafValues>
            -4.6488669514656067e-01 3.7528607249259949e-01</leafValues></_>
        <_>
          <internalNodes>
            0 -1 144 -736374256 -1860992919 -805230569 -1776568303
            -2130526071 -769523710 67457073 -566056445</internalNodes>
          <leafValues>
            -4.0678372979164124e-01 4.2723736166954041e-01</leafValues></_>
        <_>
          <internalNodes>
            0 -1 114 -1809428455 -998141682 151577 823722057 -535248648
            -620224383 268486721 1103233154</internalNodes>
          <leafValues>
            -5.6439578533172607e-01 3.1546664237976074e-01</leafValues></_>
        <_>
          <internalNodes>
            0 -1 16 -970505646 -2061991935 -1862270429 -805093376
            404503018 -1073741684 -1425161829 -401325312</internalNodes>
          <leafValues>
            -4.5647978782653809e-01 4.0546137094497681e-01</leafValues></_>
        <_>
          <internalNodes>
            0 -1 96 -1095029033 1214496634 1811869038 -1122108492
            -1216451263 -142745644 -277430790 -483772798</internalNodes>
          <leafValues>
            -3.2296937704086304e-01 5.8600938320159912e-01</leafValues></_>
        <_>
          <internalNodes>
            0 -1 149 -1266544150 -2096445391 31461401 525701120
            -1862236015 545800330 1216356739 -1953535572</internalNodes>
          <leafValues>
            -4.0745335817337036e-01 4.3104469776153564e-01</leafValues></_>
        <_>
          <internalNodes>
            0 -1 72 -417709697 -1651208271 1862171983 -1501565059
            920624592 -51249193 1992294399 -1893442724</internalNodes>
          <leafValues>
            -3.2106226682662964e-01 5.6933850049972534e-01</leafValues></_>
        <_>
          <internalNodes>
            0 -1 10 -1038888960 5571732 8470554 1354895362 1616953779
            -401457016 1083703298 -171185401</internalNodes>
          <leafValues>
            -5.0607377290725708e-01 3.6813405156135559e-01</leafValues></_>
        <_>
          <internalNodes>
            0 -1 51 -1545495197 -421054602 268402301 -1284768003
            1450532259 -914556065 888141456 -848366121</internalNodes>
          <leafValues>
            -3.5242381691932678e-01 5.4021829366683960e-01</leafValues></_></weakClassifiers></_>
    <!-- stage 12 -->
    <_>
      <maxWeakCount>14</maxWeakCount>
      <stageThreshold>-6.3911151885986328e-01</stageThreshold>
      <weakClassifiers>
        <_>
          <internalNodes>
            0 -1 56 21959712 -1055406979 537931777 1931714587
            -1567088640 -2002874357 -2143255929 284078233</internalNodes>
          <leafValues>
            -5.5670100450515747e-01 3.9329269528388977e-01</leafValues></_>
        <_>
          <internalNodes>
            0 -1 77 -801045550 -745471975 67180561 1202045381 671647773
            -1451032427 671197451 1216645413</internalNodes>
          <leafValues>
            -6.0697257518768311e-01 2.6584607362747192e-01</leafValues></_>
        <_>
          <internalNodes>
            0 -1 7 -479318 -1073889286 -268517407 -395275 1610567678
            -690189 2138570622 -956344457</internalNodes>
          <leafValues>
            -3.3070886135101318e-01 4.5675888657569885e-01</leafValues></_>
        <_>
          <internalNodes>
            0 -1 70 2064898427 831094803 -1991245810 365281344
            1090601609 277356549 -1857768855 -1345485821</internalNodes>
          <leafValues>
            -4.8040413856506348e-01 3.2528433203697205e-01</leafValues></_>
        <_>
          <internalNodes>
            0 -1 69 -1071632422 -2097053357 1073778834 -1333215102
            274793696 -2066578811 -2071223921 797272817</internalNodes>
          <leafValues>
            -5.8663207292556763e-01 2.7679601311683655e-01</leafValues></_>
        <_>
          <internalNodes>
            0 -1 12 -1937912521 -1413025794 -587264130 -226496904
            -1073897553 662626134 391636179 -1042811465</internalNodes>
          <leafValues>
            -3.7641608715057373e-01 4.7883677482604980e-01</leafValues></_>
        <_>
          <internalNodes>
            0 -1 78 289538060 289452230 332186 -1811738624 38324907
            830668882 -517807451 835619725</internalNodes>
          <leafValues>
            -5.8755576610565186e-01 3.2553246617317200e-01</leafValues></_>
        <_>
          <internalNodes>
            0 -1 30 -1555856743 1073954821 571495571 1955176448
            -2113844736 -1207926655 -1742691734 -1399666166</internalNodes>
          <leafValues>
            -4.2761462926864624e-01 4.2765438556671143e-01</leafValues></_>
        <_>
          <internalNodes>
            0 -1 147 -644446733 805258238 -553733123 -1115720721
            -671685274 -991953443 -1779468939 -44902977</internalNodes>
          <leafValues>
            -3.5016262531280518e-01 5.3633469343185425e-01</leafValues></_>
        <_>
          <internalNodes>
            0 -1 82 1570863483 1896482690 -49841 356116478 -847257637
            -151101441 -8470538 -294076931</internalNodes>
          <leafValues>
            -3.1764543056488037e-01 5.5166178941726685e-01</leafValues></_>
        <_>
          <internalNodes>
            0 -1 130 -1508418928 -2013216640 268505104 2030342401
            -670858601 17858721 956436480 333484357</internalNodes>
          <leafValues>
            -6.6048783063888550e-01 2.8258222341537476e-01</leafValues></_>
        <_>
          <internalNodes>
            0 -1 156 1766891064 -1602207729 537039115 -804240960
            1074385410 679511563 -536805216 -1923480958</internalNodes>
          <leafValues>
            -4.9225285649299622e-01 3.8264238834381104e-01</leafValues></_>
        <_>
          <internalNodes>
            0 -1 79 -1621027327 18913441 -2147483631 2038989251
            -1039540072 4757529 134914308 -1869960565</internalNodes>
          <leafValues>
            -3.8502642512321472e-01 4.6172657608985901e-01</leafValues></_>
        <_>
          <internalNodes>
            0 -1 102 1880289712 2081510181 136331761 1484833929
            -802059903 -2004877304 1359126792 1612355800</internalNodes>
          <leafValues>
            -5.8673882484436035e-01 3.2810801267623901e-01</leafValues></_></weakClassifiers></_>
    <!-- stage 13 -->
    <_>
      <maxWeakCount>13</maxWeakCount>
      <stageThreshold>-5.8302789926528931e-01</stageThreshold>
      <weakClassifiers>
        <_>
          <internalNodes>
            0 -1 75 360738046 1707163726 -1073676287 -1282907887
            1627410952 1519124481 -133922742 261064702</internalNodes>
          <leafValues>
            -7.0422536134719849e-01 3.5310733318328857e-01</leafValues></_>
        <_>
          <internalNodes>
            0 -1 127 -1855473027 -1016070075 4276244 874446874
            -2130597816 1518370946 1779894424 1714397370</internalNodes>
          <leafValues>
            -5.2676725387573242e-01 2.7910631895065308e-01</leafValues></_>
        <_>
          <internalNodes>
            0 -1 17 -974141564 775536505 645758012 1614804421 1299789140
            -176327371 -468639777 -1217085444</internalNodes>
          <leafValues>
            -3.8165801763534546e-01 4.0959587693214417e-01</leafValues></_>
        <_>
          <internalNodes>
            0 -1 89 204218646 -1827944955 1073807768 -599943161
            277348616 -639598335 -369092522 -133660631</internalNodes>
          <leafValues>
            -5.1603329181671143e-01 3.0147117376327515e-01</leafValues></_>
        <_>
          <internalNodes>
            0 -1 126 -1617024755 -1759802622 -536850349 1497478657
            -641617408 -1879012830 536879520 1439390125</internalNodes>
          <leafValues>
            -5.2881956100463867e-01 3.0234554409980774e-01</leafValues></_>
        <_>
          <internalNodes>
            0 -1 45 -1199095400 -2147401598 -1879015423 -1073741824
            -1073725271 -2009022462 -2126360440 -236109410</internalNodes>
          <leafValues>
            -6.1121475696563721e-01 2.7481332421302795e-01</leafValues></_>
        <_>
          <internalNodes>
            0 -1 36 244248229 192413624 -21168351 1875558246 1877372865
            2133720839 -5890097 -1524645465</internalNodes>
          <leafValues>
            -4.1395869851112366e-01 4.4920322299003601e-01</leafValues></_>
        <_>
          <internalNodes>
            0 -1 53 1699938605 994051170 553649164 -1117716176
            1577584772 708903042 137502990 2205410</internalNodes>
          <leafValues>
            -4.7144645452499390e-01 3.8995695114135742e-01</leafValues></_>
        <_>
          <internalNodes>
            0 -1 131 -1701145551 1891631106 19 1493762137 1779052676
            268599297 -1740636149 1348338314</internalNodes>
          <leafValues>
            -6.0281223058700562e-01 2.5450864434242249e-01</leafValues></_>
        <_>
          <internalNodes>
            0 -1 115 1359664593 -1517285248 -2129325759 -721217792
            1116209451 -1897922392 -2147444350 -1001832318</internalNodes>
          <leafValues>
            -4.2208492755889893e-01 4.3158036470413208e-01</leafValues></_>
        <_>
          <internalNodes>
            0 -1 2 43033194 -1589443805 1098957314 -1072463608
            -2147364182 262530 142868522 -955693549</internalNodes>
          <leafValues>
            -4.9386101961135864e-01 4.2116189002990723e-01</leafValues></_>
        <_>
          <internalNodes>
            0 -1 151 1704559153 -1752087552 1107824661 -266907646
            269152261 1082146856 1116391816 -367802714</internalNodes>
          <leafValues>
            -3.8907217979431152e-01 4.9623057246208191e-01</leafValues></_>
        <_>
          <internalNodes>
            0 -1 20 -1759518586 1342177619 1073807798 1494520580
            -620622760 563806210 436444153 -1559064576</internalNodes>
          <leafValues>
            -4.8993113636970520e-01 3.9974951744079590e-01</leafValues></_></weakClassifiers></_>
    <!-- stage 14 -->
    <_>
      <maxWeakCount>15</maxWeakCount>
      <stageThreshold>-4.6599915623664856e-01</stageThreshold>
      <weakClassifiers>
        <_>
          <internalNodes>
            0 -1 84 -519503613 1095436289 -2080309163 1588133917
            -2080307693 444661799 16786179 143427873</internalNodes>
          <leafValues>
            -6.0615384578704834e-01 3.6145454645156860e-01</leafValues></_>
        <_>
          <internalNodes>
            0 -1 125 -954178173 -1105723381 587322136 1493467139 387269
            -2000498687 -2113820512 1436541097</internalNodes>
          <leafValues>
            -4.4010168313980103e-01 3.3041098713874817e-01</leafValues></_>
        <_>
          <internalNodes>
            0 -1 137 -1794320163 -1306623232 18104321 -339714042
            289521795 -2008776704 133216 -548683743</internalNodes>
          <leafValues>
            -4.0175738930702209e-01 3.7104856967926025e-01</leafValues></_>
        <_>
          <internalNodes>
            0 -1 88 -1877047260 -1710735104 1124335889 1574109585
            -1182657886 -1204748285 1125138985 -1096931271</internalNodes>
          <leafValues>
            -4.4126003980636597e-01 3.2136711478233337e-01</leafValues></_>
        <_>
          <internalNodes>
            0 -1 94 -1329459420 298058964 1074004113 2097270799
            -1862220032 688001152 1250083241 21184649</internalNodes>
          <leafValues>
            -6.4578878879547119e-01 2.1700686216354370e-01</leafValues></_>
        <_>
          <internalNodes>
            0 -1 60 -536937080 2113715961 -655584 -33805701 860737176
            -44082435 -1879050526 -1447167760</internalNodes>
          <leafValues>
            -2.9769143462181091e-01 5.7761520147323608e-01</leafValues></_>
        <_>
          <internalNodes>
            0 -1 162 -871183842 -419631189 -17899906 854195947
            -1613316800 644281720 -1644167969 -7641121</internalNodes>
          <leafValues>
            -3.2733049988746643e-01 5.1048314571380615e-01</leafValues></_>
        <_>
          <internalNodes>
            0 -1 118 -2137845108 -1543437797 1342177280 289734659
            576995971 1140998144 943817359 1222033673</internalNodes>
          <leafValues>
            -6.4562642574310303e-01 2.7009946107864380e-01</leafValues></_>
        <_>
          <internalNodes>
            0 -1 143 34211947 17498112 -2147450661 872415300 1342316624
            805306499 354648098 -32895735</internalNodes>
          <leafValues>
            -5.4043394327163696e-01 3.1005179882049561e-01</leafValues></_>
        <_>
          <internalNodes>
            0 -1 65 -1901809339 -1665392794 -1074271093 2109243195
            1056339427 -1394278468 -546477669 -1619799487</internalNodes>
          <leafValues>
            -3.2798337936401367e-01 5.0428879261016846e-01</leafValues></_>
        <_>
          <internalNodes>
            0 -1 33 312692876 1497632773 268714432 1346502915
            -1333128649 272631944 562670083 868884618</internalNodes>
          <leafValues>
            -7.1837133169174194e-01 2.2400534152984619e-01</leafValues></_>
        <_>
          <internalNodes>
            0 -1 104 137910266 -753197048 -1811889771 98312 1350682756
            -1037531118 178815227 -2086240088</internalNodes>
          <leafValues>
            -4.0441703796386719e-01 4.3305712938308716e-01</leafValues></_>
        <_>
          <internalNodes>
            0 -1 5 -470867262 -235667482 -17498373 -848176396 -16943875
            -185272323 1979022549 465582069</internalNodes>
          <leafValues>
            -4.1557362675666809e-01 4.3802288174629211e-01</leafValues></_>
        <_>
          <internalNodes>
            0 -1 157 286573665 1750639058 1157697562 168067459
            -1600502967 1048577 687997574 -181186517</internalNodes>
          <leafValues>
            -5.4928117990493774e-01 3.2973107695579529e-01</leafValues></_>
        <_>
          <internalNodes>
            0 -1 68 1477969146 -200322799 -1878945786 -1870495735
            -2139092712 -898924378 -1425653061 1226815757</internalNodes>
          <leafValues>
            -4.6840077638626099e-01 3.8921591639518738e-01</leafValues></_></weakClassifiers></_></stages>
  <features>
    <_>
      <rect>
        0 0 4 11</rect></_>
    <_>
      <rect>
        0 0 10 8</rect></_>
    <_>
      <rect>
        0 1 2 11</rect></_>
    <_>
      <rect>
        0 1 8 9</rect></_>
    <_>
      <rect>
        0 2 5 10</rect></_>
    <_>
      <rect>
        0 2 12 4</rect></_>
    <_>
      <rect>
        0 4 3 11</rect></_>
    <_>
      <rect>
        0 6 9 5</rect></_>
    <_>
      <rect>
        0 7 4 3</rect></_>
    <_>
      <rect>
        0 7 5 10</rect></_>
    <_>
      <rect>
        0 8 3 4</rect></_>
    <_>
      <rect>
        0 10 3 5</rect></_>
    <_>
      <rect>
        0 14 1 2</rect></_>
    <_>
      <rect>
        0 15 1 1</rect></_>
    <_>
      <rect>
        0 18 1 1</rect></_>
    <_>
      <rect>
        0 18 1 2</rect></_>
    <_>
      <rect>
        0 22 5 5</rect></_>
    <_>
      <rect>
        0 23 2 3</rect></_>
    <_>
      <rect>
        0 24 6 3</rect></_>
    <_>
      <rect>
        0 24 7 4</rect></_>
    <_>
      <rect>
        0 27 5 2</rect></_>
    <_>
      <rect>
        1 3 8 11</rect></_>
    <_>
      <rect>
        1 4 3 8</rect></_>
    <_>
      <rect>
        1 9 2 3</rect></_>
    <_>
      <rect>
        1 11 12 5</rect></_>
    <_>
      <rect>
        1 13 4 6</rect></_>
    <_>
      <rect>
        1 14 1 1</rect></_>
    <_>
      <rect>
        1 14 12 5</rect></_>
    <_>
      <rect>
        1 17 11 6</rect></_>
    <_>
      <rect>
        1 18 4 1</rect></_>
    <_>
      <rect>
        1 21 2 3</rect></_>
    <_>
      <rect>
        2 19 3 2</rect></_>
    <_>
      <rect>
        3 12 4 2</rect></_>
    <_>
      <rect>
        3 21 2 1</rect></_>
    <_>
      <rect>
        3 25 6 1</rect></_>
    <_>
      <rect>
        4 3 11 11</rect></_>
    <_>
      <rect>
        4 6 3 2</rect></_>
    <_>
      <rect>
        4 14 2 2</rect></_>
    <_>
      <rect>
        4 17 4 3</rect></_>
    <_>
      <rect>
        4 19 1 4</rect></_>
    <_>
      <rect>
        5 8 2 9</rect></_>
    <_>
      <rect>
        5 8 3 1</rect></_>
    <_>
      <rect>
        6 2 6 6</rect></_>
    <_>
      <rect>
        6 4 6 3</rect></_>
    <_>
      <rect>
        6 8 4 2</rect></_>
    <_>
      <rect>
        6 10 1 9</rect></_>
    <_>
      <rect>
        6 13 2 8</rect></_>
    <_>
      <rect>
        6 14 3 2</rect></_>
    <_>
      <rect>
        6 26 2 1</rect></_>
    <_>
      <rect>
        7 2 10 5</rect></_>
    <_>
      <rect>
        7 17 3 6</rect></_>
    <_>
      <rect>
        7 31 7 2</rect></_>
    <_>
      <rect>
        8 0 6 8</rect></_>
    <_>
      <rect>
        8 3 8 3</rect></_>
    <_>
      <rect>
        8 11 1 1</rect></_>
    <_>
      <rect>
        8 24 3 2</rect></_>
    <_>
      <rect>
        9 12 6 4</rect></_>
    <_>
      <rect>
        9 13 2 2</rect></_>
    <_>
      <rect>
        9 21 2 2</rect></_>
    <_>
      <rect>
        10 10 2 1</rect></_>
    <_>
      <rect>
        10 15 4 3</rect></_>
    <_>
      <rect>
        10 24 4 3</rect></_>
    <_>
      <rect>
        10 25 3 1</rect></_>
    <_>
      <rect>
        10 25 5 3</rect></_>
    <_>
      <rect>
        10 25 7 3</rect></_>
    <_>
      <rect>
        11 0 6 3</rect></_>
    <_>
      <rect>
        11 1 1 1</rect></_>
    <_>
      <rect>
        11 10 8 9</rect></_>
    <_>
      <rect>
        11 14 2 2</rect></_>
    <_>
      <rect>
        11 15 2 3</rect></_>
    <_>
      <rect>
        11 16 7 5</rect></_>
    <_>
      <rect>
        11 24 8 3</rect></_>
    <_>
      <rect>
        11 28 6 3</rect></_>
    <_>
      <rect>
        12 10 3 2</rect></_>
    <_>
      <rect>
        12 16 4 3</rect></_>
    <_>
      <rect>
        13 6 7 10</rect></_>
    <_>
      <rect>
        13 8 3 2</rect></_>
    <_>
      <rect>
        13 11 4 2</rect></_>
    <_>
      <rect>
        13 16 2 2</rect></_>
    <_>
      <rect>
        13 16 3 3</rect></_>
    <_>
      <rect>
        13 19 8 4</rect></_>
    <_>
      <rect>
        13 24 5 2</rect></_>
    <_>
      <rect>
        13 28 6 3</rect></_>
    <_>
      <rect>
        14 12 2 2</rect></_>
    <_>
      <rect>
        14 12 4 2</rect></_>
    <_>
      <rect>
        14 16 4 2</rect></_>
    <_>
      <rect>
        14 18 4 3</rect></_>
    <_>
      <rect>
        14 20 4 3</rect></_>
    <_>
      <rect>
        15 6 3 2</rect></_>
    <_>
      <rect>
        15 8 4 2</rect></_>
    <_>
      <rect>
        15 15 7 5</rect></_>
    <_>
      <rect>
        15 18 2 1</rect></_>
    <_>
      <rect>
        16 13 7 3</rect></_>
    <_>
      <rect>
        16 18 2 1</rect></_>
    <_>
      <rect>
        16 19 1 1</rect></_>
    <_>
      <rect>
        16 23 6 2</rect></_>
    <_>
      <rect>
        17 2 2 1</rect></_>
    <_>
      <rect>
        17 11 3 3</rect></_>
    <_>
      <rect>
        17 12 4 4</rect></_>
    <_>
      <rect>
        17 17 1 1</rect></_>
    <_>
      <rect>
        17 17 2 2</rect></_>
    <_>
      <rect>
        17 18 1 1</rect></_>
    <_>
      <rect>
        17 18 2 2</rect></_>
    <_>
      <rect>
        17 22 3 2</rect></_>
    <_>
      <rect>
        18 1 3 1</rect></_>
    <_>
      <rect>
        18 11 3 2</rect></_>
    <_>
      <rect>
        18 12 4 3</rect></_>
    <_>
      <rect>
        18 14 4 4</rect></_>
    <_>
      <rect>
        18 15 2 3</rect></_>
    <_>
      <rect>
        18 16 2 2</rect></_>
    <_>
      <rect>
        18 17 1 1</rect></_>
    <_>
      <rect>
        18 17 3 3</rect></_>
    <_>
      <rect>
        18 18 1 1</rect></_>
    <_>
      <rect>
        18 19 3 2</rect></_>
    <_>
      <rect>
        18 22 2 1</rect></_>
    <_>
      <rect>
        18 25 4 1</rect></_>
    <_>
      <rect>
        19 12 3 3</rect></_>
    <_>
      <rect>
        19 13 5 3</rect></_>
    <_>
      <rect>
        19 14 1 2</rect></_>
    <_>
      <rect>
        19 16 1 2</rect></_>
    <_>
      <rect>
        19 17 1 1</rect></_>
    <_>
      <rect>
        19 18 1 1</rect></_>
    <_>
      <rect>
        19 22 2 1</rect></_>
    <_>
      <rect>
        20 8 5 5</rect></_>
    <_>
      <rect>
        20 9 2 1</rect></_>
    <_>
      <rect>
        20 15 2 3</rect></_>
    <_>
      <rect>
        20 16 2 3</rect></_>
    <_>
      <rect>
        20 18 1 1</rect></_>
    <_>
      <rect>
        20 18 3 5</rect></_>
    <_>
      <rect>
        20 21 5 2</rect></_>
    <_>
      <rect>
        20 22 2 1</rect></_>
    <_>
      <rect>
        21 15 1 1</rect></_>
    <_>
      <rect>
        22 3 3 5</rect></_>
    <_>
      <rect>
        22 3 5 7</rect></_>
    <_>
      <rect>
        22 10 2 5</rect></_>
    <_>
      <rect>
        22 12 2 2</rect></_>
    <_>
      <rect>
        22 12 2 3</rect></_>
    <_>
      <rect>
        22 19 3 5</rect></_>
    <_>
      <rect>
        23 9 2 2</rect></_>
    <_>
      <rect>
        23 15 3 2</rect></_>
    <_>
      <rect>
        24 8 4 2</rect></_>
    <_>
      <rect>
        24 24 2 1</rect></_>
    <_>
      <rect>
        26 10 2 2</rect></_>
    <_>
      <rect>
        26 11 2 1</rect></_>
    <_>
      <rect>
        26 13 1 2</rect></_>
    <_>
      <rect>
        26 20 1 2</rect></_>
    <_>
      <rect>
        26 20 2 3</rect></_>
    <_>
      <rect>
        27 12 1 2</rect></_>
    <_>
      <rect>
        27 23 2 4</rect></_>
    <_>
      <rect>
        27 31 2 1</rect></_>
    <_>
      <rect>
        28 5 2 3</rect></_>
    <_>
      <rect>
        28 5 3 7</rect></_>
    <_>
      <rect>
        28 9 3 4</rect></_>
    <_>
      <rect>
        28 34 1 1</rect></_>
    <_>
      <rect>
        29 13 2 4</rect></_>
    <_>
      <rect>
        29 17 2 1</rect></_>
    <_>
      <rect>
        30 3 2 2</rect></_>
    <_>
      <rect>
        31 16 2 1</rect></_>
    <_>
      <rect>
        31 16 2 4</rect></_>
    <_>
      <rect>
        31 25 2 2</rect></_>
    <_>
      <rect>
        33 14 1 1</rect></_>
    <_>
      <rect>
        34 8 1 1</rect></_>
    <_>
      <rect>
        34 9 1 1</rect></_>
    <_>
      <rect>
        34 10 1 1</rect></_></features></cascade>
</opencv_storage>
