<?xml version="1.0"?>
<opencv_storage>
<cascade>
  <stageType>BOOST</stageType>
  <featureType>LBP</featureType>
  <height>37</height>
  <width>37</width>
  <stageParams>
    <boostType>GAB</boostType>
    <minHitRate>9.9900001287460327e-01</minHitRate>
    <maxFalseAlarm>5.0000000745058060e-02</maxFalseAlarm>
    <weightTrimRate>9.4999999999999996e-01</weightTrimRate>
    <maxDepth>1</maxDepth>
    <maxWeakCount>100</maxWeakCount></stageParams>
  <featureParams>
    <maxCatCount>256</maxCatCount>
    <featSize>1</featSize></featureParams>
  <stageNum>8</stageNum>
  <stages>
    <!-- stage 0 -->
    <_>
      <maxWeakCount>5</maxWeakCount>
      <stageThreshold>1.5583394467830658e-01</stageThreshold>
      <weakClassifiers>
        <_>
          <internalNodes>
            0 -1 24 -78654209 -113012525 -2147397347 -149712427
            -935114549 -99676022 -653567745 1600083423</internalNodes>
          <leafValues>
            -9.2731535434722900e-01 8.7489974498748779e-01</leafValues></_>
        <_>
          <internalNodes>
            0 -1 36 -15991809 -544488141 285225427 -581054317
            -1962239254 -284456830 -1862121253 140237791</internalNodes>
          <leafValues>
            -8.7733101844787598e-01 6.6346263885498047e-01</leafValues></_>
        <_>
          <internalNodes>
            0 -1 18 -9003 -8425691 -61833 2147159888 -41007 -32780
            -134345385 -539263213</internalNodes>
          <leafValues>
            -6.6061657667160034e-01 7.7865487337112427e-01</leafValues></_>
        <_>
          <internalNodes>
            0 -1 59 402715064 184582160 -2130579375 1057476881
            -1987215141 -285044735 -872371489 -540019233</internalNodes>
          <leafValues>
            -8.1096380949020386e-01 6.3464635610580444e-01</leafValues></_>
        <_>
          <internalNodes>
            0 -1 78 1372800511 1066615049 1426194939 1531334657
            1485522571 1015220760 879039 1516959088</internalNodes>
          <leafValues>
            -8.9680057764053345e-01 5.4717904329299927e-01</leafValues></_></weakClassifiers></_>
    <!-- stage 1 -->
    <_>
      <maxWeakCount>9</maxWeakCount>
      <stageThreshold>8.3146557211875916e-02</stageThreshold>
      <weakClassifiers>
        <_>
          <internalNodes>
            0 -1 65 -1145045057 716892842 -1 800047039 -1 734003199 -1
            -1073807361</internalNodes>
          <leafValues>
            -6.8325793743133545e-01 7.4342107772827148e-01</leafValues></_>
        <_>
          <internalNodes>
            0 -1 23 -117189939 -791684480 1073827973 -787070719
            -1073528446 -2004107263 -352171451 -69240495</internalNodes>
          <leafValues>
            -7.1400368213653564e-01 6.5854018926620483e-01</leafValues></_>
        <_>
          <internalNodes>
            0 -1 11 2010512671 1498537433 -1 -1 2085391852 1539309557 -1
            -1</internalNodes>
          <leafValues>
            -5.9756255149841309e-01 6.6842842102050781e-01</leafValues></_>
        <_>
          <internalNodes>
            0 -1 84 1440438783 1510076725 184635671 429716747 1912615609
            975896715 964778203 1365699817</internalNodes>
          <leafValues>
            -8.6336600780487061e-01 4.8121324181556702e-01</leafValues></_>
        <_>
          <internalNodes>
            0 -1 7 -243840403 -930787187 147502 -1769238376 1321402885
            -1958551295 -2113928672 -634403973</internalNodes>
          <leafValues>
            -6.7979425191879272e-01 6.1551916599273682e-01</leafValues></_>
        <_>
          <internalNodes>
            0 -1 101 -847249413 -1901416646 -65871 716103601 -543625
            -1342177281 -269099154 -387002369</internalNodes>
          <leafValues>
            -6.0002857446670532e-01 7.5938338041305542e-01</leafValues></_>
        <_>
          <internalNodes>
            0 -1 22 -1827618352 -784302080 34078806 -786656063
            -2113722215 -888143871 -1937485085 -1886336559</internalNodes>
          <leafValues>
            -7.9438370466232300e-01 5.0423181056976318e-01</leafValues></_>
        <_>
          <internalNodes>
            0 -1 75 -2129194529 1431421257 285309456 1373192551
            -1876785133 -1442185216 -2008312926 1265443849</internalNodes>
          <leafValues>
            -7.6484233140945435e-01 6.0583257675170898e-01</leafValues></_>
        <_>
          <internalNodes>
            0 -1 0 -251075382 285819648 282950 -1053343741 -2113568310
            -1878982592 -536620975 -29012157</internalNodes>
          <leafValues>
            -7.3079949617385864e-01 5.1508992910385132e-01</leafValues></_></weakClassifiers></_>
    <!-- stage 2 -->
    <_>
      <maxWeakCount>11</maxWeakCount>
      <stageThreshold>1.2429688125848770e-01</stageThreshold>
      <weakClassifiers>
        <_>
          <internalNodes>
            0 -1 80 786251263 1893168021 1460760585 -200009582
            1269148203 -339429839 -650776609 408415103</internalNodes>
          <leafValues>
            -8.3307576179504395e-01 5.7742601633071899e-01</leafValues></_>
        <_>
          <internalNodes>
            0 -1 9 -203754497 -103705253 1358992477 -41844663 2076183295
            2006638763 -50100021 2076175278</internalNodes>
          <leafValues>
            -9.2202055454254150e-01 4.1996601223945618e-01</leafValues></_>
        <_>
          <internalNodes>
            0 -1 73 -754451147 1573340547 -245261825 323346456
            -607538487 -374767486 -1258174989 2131724427</internalNodes>
          <leafValues>
            -6.9323295354843140e-01 5.6165122985839844e-01</leafValues></_>
        <_>
          <internalNodes>
            0 -1 76 -1857841765 1480274195 -1827597551 748406163
            -2046645353 -74840063 1788916714 2092741789</internalNodes>
          <leafValues>
            -7.3762279748916626e-01 4.5847705006599426e-01</leafValues></_>
        <_>
          <internalNodes>
            0 -1 83 1514955743 1576944333 1090601157 930792334
            1896304667 59154768 2022103739 1223089661</internalNodes>
          <leafValues>
            -8.6549222469329834e-01 3.5852017998695374e-01</leafValues></_>
        <_>
          <internalNodes>
            0 -1 35 -771600165 -184466729 419956991 855639449
            -2004346265 847808521 -1878811585 654476426</internalNodes>
          <leafValues>
            -7.3702436685562134e-01 4.3510574102401733e-01</leafValues></_>
        <_>
          <internalNodes>
            0 -1 97 -1122199069 -1387466712 -1589589760 2137014612
            -1052122933 -894844926 -1609315968 -290643675</internalNodes>
          <leafValues>
            -6.4519035816192627e-01 5.3770667314529419e-01</leafValues></_>
        <_>
          <internalNodes>
            0 -1 47 976770420 -1220181195 1526809947 1427186141
            1905005242 -1204954987 -897539943 181064080</internalNodes>
          <leafValues>
            -7.5327748060226440e-01 4.2119577527046204e-01</leafValues></_>
        <_>
          <internalNodes>
            0 -1 38 -41884163 -1705689052 268437651 -784137967
            -2111274009 -401878911 -2120520645 -6531723</internalNodes>
          <leafValues>
            -7.5776648521423340e-01 4.5543628931045532e-01</leafValues></_>
        <_>
          <internalNodes>
            0 -1 89 -158866861 1377009667 69641 1361821705 -1104952319
            -2113895667 -1071527801 754852746</internalNodes>
          <leafValues>
            -8.1401926279067993e-01 3.8238456845283508e-01</leafValues></_>
        <_>
          <internalNodes>
            0 -1 19 -373863350 -1509555967 144247135 -251592571
            214720840 -1031565280 -226432037 -137073781</internalNodes>
          <leafValues>
            -6.3145500421524048e-01 5.0836187601089478e-01</leafValues></_></weakClassifiers></_>
    <!-- stage 3 -->
    <_>
      <maxWeakCount>14</maxWeakCount>
      <stageThreshold>-1.9832055270671844e-01</stageThreshold>
      <weakClassifiers>
        <_>
          <internalNodes>
            0 -1 49 -264126209 1494302721 -804224764 -1248706297
            -187903845 1908556050 -1877557094 799789311</internalNodes>
          <leafValues>
            -8.0990099906921387e-01 4.4451409578323364e-01</leafValues></_>
        <_>
          <internalNodes>
            0 -1 3 958657522 1090666690 -1877884718 -716177328
            -385873710 -1414856320 -1061125967 -609758749</internalNodes>
          <leafValues>
            -6.2616646289825439e-01 3.9531087875366211e-01</leafValues></_>
        <_>
          <internalNodes>
            0 -1 82 -750693039 -268283887 1364247333 -966651840
            -754924157 -1207762943 -780100981 1486543067</internalNodes>
          <leafValues>
            -6.4140343666076660e-01 4.4247508049011230e-01</leafValues></_>
        <_>
          <internalNodes>
            0 -1 20 -787333111 1375831313 -2147463937 1547838464
            1477058816 -1735753719 -1669298741 -99401592</internalNodes>
          <leafValues>
            -5.4150444269180298e-01 4.2941245436668396e-01</leafValues></_>
        <_>
          <internalNodes>
            0 -1 46 -687615727 362817 -2013216431 -2112747184 -41358592
            -935026496 1489423831 1816898729</internalNodes>
          <leafValues>
            -7.6179963350296021e-01 2.9003515839576721e-01</leafValues></_>
        <_>
          <internalNodes>
            0 -1 96 -233773149 1360068624 -2130681855 -788463613
            -536707067 -804171264 -1056901109 -1428426241</internalNodes>
          <leafValues>
            -4.6937587857246399e-01 5.4557555913925171e-01</leafValues></_>
        <_>
          <internalNodes>
            0 -1 30 1067666140 86633120 -1079804297 -1082392671 -9609521
            -339804743 -900073535 -607665163</internalNodes>
          <leafValues>
            -4.8338136076927185e-01 5.0738364458084106e-01</leafValues></_>
        <_>
          <internalNodes>
            0 -1 70 -804065136 -1693445882 151027712 -682418037
            -1073528693 -587005822 -754965845 1657062049</internalNodes>
          <leafValues>
            -6.8268847465515137e-01 4.1238382458686829e-01</leafValues></_>
        <_>
          <internalNodes>
            0 -1 88 -209074022 754974848 285233168 -1219817343
            -2146987777 -880770816 -1609911077 -559365974</internalNodes>
          <leafValues>
            -4.9804848432540894e-01 4.9790942668914795e-01</leafValues></_>
        <_>
          <internalNodes>
            0 -1 72 2034327931 -989522603 -2130624175 -565506027
            -1073200783 -620265216 -1186985591 2024458731</internalNodes>
          <leafValues>
            -6.7800927162170410e-01 3.8384047150611877e-01</leafValues></_>
        <_>
          <internalNodes>
            0 -1 71 -805093305 -804187631 268550361 -166690680 1214552
            -1744830080 -1029594237 -1701839997</internalNodes>
          <leafValues>
            -4.6353828907012939e-01 5.6546318531036377e-01</leafValues></_>
        <_>
          <internalNodes>
            0 -1 31 537125003 -788490163 20971541 -1857748990 -754448330
            1770029184 9341026 1405995205</internalNodes>
          <leafValues>
            -7.8719907999038696e-01 3.3257150650024414e-01</leafValues></_>
        <_>
          <internalNodes>
            0 -1 17 -2012077552 1510621234 1343258626 151568784
            -1591737690 402784258 -1576881471 -752897807</internalNodes>
          <leafValues>
            -5.4467368125915527e-01 4.5645436644554138e-01</leafValues></_>
        <_>
          <internalNodes>
            0 -1 102 -670625587 -1860697582 16810008 -1711271424
            -528446944 -133660656 151650554 -1907477342</internalNodes>
          <leafValues>
            -5.1827561855316162e-01 4.9261403083801270e-01</leafValues></_></weakClassifiers></_>
    <!-- stage 4 -->
    <_>
      <maxWeakCount>13</maxWeakCount>
      <stageThreshold>-5.6888801045715809e-03</stageThreshold>
      <weakClassifiers>
        <_>
          <internalNodes>
            0 -1 62 1061886791 1360320915 -2122313458 328286279
            1510729995 1016113284 -343387905 1608246143</internalNodes>
          <leafValues>
            -6.5996909141540527e-01 5.0034409761428833e-01</leafValues></_>
        <_>
          <internalNodes>
            0 -1 74 -74842365 -918583501 -1726824168 285737160
            -893220013 285217095 -1207318339 270701039</internalNodes>
          <leafValues>
            -8.1929701566696167e-01 2.8568989038467407e-01</leafValues></_>
        <_>
          <internalNodes>
            0 -1 4 -648822466 -1861694972 -1073707980 1778422786
            -922615080 -1610514430 -660667379 -4516877</internalNodes>
          <leafValues>
            -6.0994517803192139e-01 4.1766312718391418e-01</leafValues></_>
        <_>
          <internalNodes>
            0 -1 99 -867764588 -1912436708 -1056947171 -1506967408
            -2146385862 -2113928960 -129985917 -19938421</internalNodes>
          <leafValues>
            -5.9457296133041382e-01 3.6303174495697021e-01</leafValues></_>
        <_>
          <internalNodes>
            0 -1 50 -1727770438 -644833070 -2080108335 1897857028
            -1475860450 -1819705200 -402095962 -1122446108</internalNodes>
          <leafValues>
            -4.9514627456665039e-01 4.8586305975914001e-01</leafValues></_>
        <_>
          <internalNodes>
            0 -1 81 -1872561698 -652832366 873530588 -747679616
            -787447758 -1434414966 193101972 525281972</internalNodes>
          <leafValues>
            -6.8549776077270508e-01 3.4960329532623291e-01</leafValues></_>
        <_>
          <internalNodes>
            0 -1 5 -1555328461 537036816 1367343180 -759136126
            -805236730 1178730626 819315 -943737301</internalNodes>
          <leafValues>
            -5.0050860643386841e-01 4.6928521990776062e-01</leafValues></_>
        <_>
          <internalNodes>
            0 -1 53 -1857744877 1208713921 16785 508248064 -1073688510
            -1734180136 -121591399 484343005</internalNodes>
          <leafValues>
            -7.1306192874908447e-01 3.5441592335700989e-01</leafValues></_>
        <_>
          <internalNodes>
            0 -1 10 -1319645560 -2112847598 -771260399 -259943356
            -796751612 1157859845 -1384013115 -1588900495</internalNodes>
          <leafValues>
            -5.3399479389190674e-01 4.3174850940704346e-01</leafValues></_>
        <_>
          <internalNodes>
            0 -1 16 -1198855938 -717062144 -938999033 -246343680
            -746508146 -2120023990 -1968870770 428949888</internalNodes>
          <leafValues>
            -6.4217805862426758e-01 3.4532961249351501e-01</leafValues></_>
        <_>
          <internalNodes>
            0 -1 93 -486354540 -675258238 16814602 1883544023 16810000
            -1878261056 386052746 1522171913</internalNodes>
          <leafValues>
            -7.0069301128387451e-01 3.1352499127388000e-01</leafValues></_>
        <_>
          <internalNodes>
            0 -1 52 863999760 268377995 721403899 -1677759013 401061578
            192883898 1697623031 -1465253947</internalNodes>
          <leafValues>
            -4.8450189828872681e-01 5.4560035467147827e-01</leafValues></_>
        <_>
          <internalNodes>
            0 -1 8 -509841001 1898676224 1207959680 -243105728
            -930539318 1379828650 -391610229 2028200696</internalNodes>
          <leafValues>
            -7.7237904071807861e-01 3.2812988758087158e-01</leafValues></_></weakClassifiers></_>
    <!-- stage 5 -->
    <_>
      <maxWeakCount>17</maxWeakCount>
      <stageThreshold>-4.8555991053581238e-01</stageThreshold>
      <weakClassifiers>
        <_>
          <internalNodes>
            0 -1 79 2010076895 1473593347 84099091 1547972883 3166479
            461373579 713232865 587393492</internalNodes>
          <leafValues>
            -9.0476191043853760e-01 3.5742971301078796e-01</leafValues></_>
        <_>
          <internalNodes>
            0 -1 29 -784080445 -922492351 -2130673151 -2113699831
            1082360457 1073905730 -2138566013 -23112217</internalNodes>
          <leafValues>
            -4.5073786377906799e-01 4.4343215227127075e-01</leafValues></_>
        <_>
          <internalNodes>
            0 -1 55 -1618406704 -1869807423 1778393217 -1941847741
            -1014959984 -1659620719 -134182711 1289394575</internalNodes>
          <leafValues>
            -6.3961863517761230e-01 3.3014678955078125e-01</leafValues></_>
        <_>
          <internalNodes>
            0 -1 98 -649554696 193626347 4784529 -578076288 411044010
            -1165918080 33589634 -121548664</internalNodes>
          <leafValues>
            -4.3411436676979065e-01 4.6179842948913574e-01</leafValues></_>
        <_>
          <internalNodes>
            0 -1 51 1380909403 1434923203 -804093821 -783579005
            -2139029012 58818626 1712046754 785287300</internalNodes>
          <leafValues>
            -7.2626167535781860e-01 2.7449029684066772e-01</leafValues></_>
        <_>
          <internalNodes>
            0 -1 34 -7163941 1064297970 -524779 289374077 -851654168
            -226558259 265682931 -1684323160</internalNodes>
          <leafValues>
            -3.5405370593070984e-01 5.7253390550613403e-01</leafValues></_>
        <_>
          <internalNodes>
            0 -1 1 -1388054102 -1794391994 -734789584 -874573813
            1965658177 -2130673023 -1969159855 227105799</internalNodes>
          <leafValues>
            -5.0376987457275391e-01 3.7824851274490356e-01</leafValues></_>
        <_>
          <internalNodes>
            0 -1 42 -1232054592 -1874325352 -251622762 1635801088
            -124231085 1610646561 -1064593254 1388470441</internalNodes>
          <leafValues>
            -6.5796077251434326e-01 2.6671561598777771e-01</leafValues></_>
        <_>
          <internalNodes>
            0 -1 91 -1767354176 -1421672368 -1723804363 -581881723
            -935229190 -884240256 -1937593980 -569744615</internalNodes>
          <leafValues>
            -4.5106437802314758e-01 4.7205707430839539e-01</leafValues></_>
        <_>
          <internalNodes>
            0 -1 6 -163738590 803516412 213538452 1949346595 -1570961662
            1442152279 -1262578147 -1280659778</internalNodes>
          <leafValues>
            -3.9047339558601379e-01 4.9598145484924316e-01</leafValues></_>
        <_>
          <internalNodes>
            0 -1 68 -15120108 1234542827 16835159 131601 273817748
            -1299101565 285459627 319027351</internalNodes>
          <leafValues>
            -8.2065784931182861e-01 2.4891567230224609e-01</leafValues></_>
        <_>
          <internalNodes>
            0 -1 90 1296203806 -1224076923 -788529087 -745203695
            -1073487356 1107427474 -1577013093 -91569237</internalNodes>
          <leafValues>
            -4.2622905969619751e-01 5.0213938951492310e-01</leafValues></_>
        <_>
          <internalNodes>
            0 -1 25 -792475395 -1811898240 -1073741542 -788406202
            -1609884951 -2145878016 -662347714 1824547510</internalNodes>
          <leafValues>
            -5.2957850694656372e-01 3.8629388809204102e-01</leafValues></_>
        <_>
          <internalNodes>
            0 -1 104 -535305871 556075274 -2130440175 369525075
            -2142191094 279552 -528332646 -992420861</internalNodes>
          <leafValues>
            -5.2937370538711548e-01 4.2323532700538635e-01</leafValues></_>
        <_>
          <internalNodes>
            0 -1 14 -1048477664 1623998464 -1073736941 -1534787326
            -2138893824 4136 33622154 -263605973</internalNodes>
          <leafValues>
            -4.9016207456588745e-01 4.4827285408973694e-01</leafValues></_>
        <_>
          <internalNodes>
            0 -1 41 -1417651238 294223879 -2147450752 -268320691
            -2101165302 -399900160 -930969000 966260836</internalNodes>
          <leafValues>
            -6.8134605884552002e-01 3.6132177710533142e-01</leafValues></_>
        <_>
          <internalNodes>
            0 -1 86 -1724759555 159973632 286335127 374562900 33555115
            -830308160 1216512139 -901764926</internalNodes>
          <leafValues>
            -4.6453690528869629e-01 4.4457471370697021e-01</leafValues></_></weakClassifiers></_>
    <!-- stage 6 -->
    <_>
      <maxWeakCount>17</maxWeakCount>
      <stageThreshold>-2.0663142204284668e-01</stageThreshold>
      <weakClassifiers>
        <_>
          <internalNodes>
            0 -1 85 1212965855 230789137 -1878560485 1494241734
            -1877401443 26787968 2021689578 100180877</internalNodes>
          <leafValues>
            -8.8513511419296265e-01 3.1152993440628052e-01</leafValues></_>
        <_>
          <internalNodes>
            0 -1 100 1381466847 -1018853998 -2138930798 -1535933950
            -1019566906 -1609265144 646081242 -1966150573</internalNodes>
          <leafValues>
            -5.6315100193023682e-01 2.9950335621833801e-01</leafValues></_>
        <_>
          <internalNodes>
            0 -1 64 -1107919375 -1712251587 1971154935 -1116372995
            -1174405266 -1078067203 -277168385 -1610998036</internalNodes>
          <leafValues>
            -3.7338188290596008e-01 5.0899815559387207e-01</leafValues></_>
        <_>
          <internalNodes>
            0 -1 26 -790406819 268873888 16810000 733834 -1040039552
            -2130542590 -771222899 -78873657</internalNodes>
          <leafValues>
            -5.5866080522537231e-01 3.1164932250976563e-01</leafValues></_>
        <_>
          <internalNodes>
            0 -1 33 -1105467986 -1632641371 2146957119 -386147355
            -1650278520 -1073741994 1190789075 -537930319</internalNodes>
          <leafValues>
            -3.2439228892326355e-01 5.2589869499206543e-01</leafValues></_>
        <_>
          <internalNodes>
            0 -1 13 -167910942 -1217597569 2128500345 -542247058
            -145427100 -411566213 -1853892706 -2490521</internalNodes>
          <leafValues>
            -3.0961230397224426e-01 5.9708893299102783e-01</leafValues></_>
        <_>
          <internalNodes>
            0 -1 66 319658258 1410007711 299031 -2011594745 276865392
            -204267519 -234832753 1752314012</internalNodes>
          <leafValues>
            -7.0472079515457153e-01 2.7321591973304749e-01</leafValues></_>
        <_>
          <internalNodes>
            0 -1 92 -2088255422 -1324187391 -1458503656 -129433325
            -238911142 1744834720 -385110006 -27619121</internalNodes>
          <leafValues>
            -4.3060207366943359e-01 4.7322803735733032e-01</leafValues></_>
        <_>
          <internalNodes>
            0 -1 39 -535822076 -670498813 805306536 1573142938 26218564
            -2138307572 27136151 1379410357</internalNodes>
          <leafValues>
            -7.7581989765167236e-01 2.5174903869628906e-01</leafValues></_>
        <_>
          <internalNodes>
            0 -1 21 -654245082 478232594 67109049 1879113832 -1869086704
            268959882 159943320 -1222114403</internalNodes>
          <leafValues>
            -5.1028388738632202e-01 3.6714360117912292e-01</leafValues></_>
        <_>
          <internalNodes>
            0 -1 45 -22757 1610608639 -5 491515390 -1884307638
            -1392644361 -9437185 -1078752064</internalNodes>
          <leafValues>
            -3.2852476835250854e-01 5.9986627101898193e-01</leafValues></_>
        <_>
          <internalNodes>
            0 -1 43 -1844768112 -591322361 67698688 831263489
            -1878987875 -1072955256 2021824686 948358027</internalNodes>
          <leafValues>
            -4.8612603545188904e-01 3.8697391748428345e-01</leafValues></_>
        <_>
          <internalNodes>
            0 -1 63 -1706351752 317353511 -1786858817 -179090519
            -1615008610 -948013196 -2106497076 -850133791</internalNodes>
          <leafValues>
            -3.3532661199569702e-01 5.6703799962997437e-01</leafValues></_>
        <_>
          <internalNodes>
            0 -1 28 -159165969 -335544320 8683585 1283473538 4213608
            939804832 406929727 1859117730</internalNodes>
          <leafValues>
            -7.3755329847335815e-01 2.5630035996437073e-01</leafValues></_>
        <_>
          <internalNodes>
            0 -1 105 -793797953 -391350412 2130468517 2013126446
            -1409964034 -1023869828 1064212449 -1751410962</internalNodes>
          <leafValues>
            -3.1155785918235779e-01 6.3734132051467896e-01</leafValues></_>
        <_>
          <internalNodes>
            0 -1 27 -1794828093 1090551811 -1937752054 151519363
            705341594 -1467481980 1486850 1427088000</internalNodes>
          <leafValues>
            -6.1993199586868286e-01 3.1901523470878601e-01</leafValues></_>
        <_>
          <internalNodes>
            0 -1 54 1302287669 1569551861 703528693 2063592447
            -1648902287 -1146142721 -1610617345 -626386691</internalNodes>
          <leafValues>
            -3.1730738282203674e-01 6.1065357923507690e-01</leafValues></_></weakClassifiers></_>
    <!-- stage 7 -->
    <_>
      <maxWeakCount>20</maxWeakCount>
      <stageThreshold>-1.4665088057518005e-01</stageThreshold>
      <weakClassifiers>
        <_>
          <internalNodes>
            0 -1 67 22708245 -1744804722 671385049 184600849 1227072054
            -892696182 270244090 309298074</internalNodes>
          <leafValues>
            -7.4798929691314697e-01 3.3526346087455750e-01</leafValues></_>
        <_>
          <internalNodes>
            0 -1 58 -8389519 -581085249 -1343282494 -1897136209
            -1128269577 -925796875 -1678050089 -18222609</internalNodes>
          <leafValues>
            -2.8138375282287598e-01 5.6232899427413940e-01</leafValues></_>
        <_>
          <internalNodes>
            0 -1 87 -1517861641 575652183 1358971220 604885075 536870915
            -1968144256 2005127348 532073408</internalNodes>
          <leafValues>
            -7.5224649906158447e-01 2.2476650774478912e-01</leafValues></_>
        <_>
          <internalNodes>
            0 -1 40 -1820167776 1771929729 270012531 -1214969196
            -2087329089 -779811707 1090755203 -1148583776</internalNodes>
          <leafValues>
            -3.8888794183731079e-01 3.9605036377906799e-01</leafValues></_>
        <_>
          <internalNodes>
            0 -1 2 314738834 541163918 17104967 -2130509650 9822241
            -1065091006 -2104665568 -149001721</internalNodes>
          <leafValues>
            -5.1423776149749756e-01 2.7480623126029968e-01</leafValues></_>
        <_>
          <internalNodes>
            0 -1 94 277016523 -1103493996 8454144 911475265 -2147319805
            -2143223808 -2139095038 -338984831</internalNodes>
          <leafValues>
            -5.9458678960800171e-01 2.3535250127315521e-01</leafValues></_>
        <_>
          <internalNodes>
            0 -1 77 1350713520 -1026981884 17830289 1366001979
            -1308098404 -501704152 554698891 318906513</internalNodes>
          <leafValues>
            -5.7196593284606934e-01 2.9991871118545532e-01</leafValues></_>
        <_>
          <internalNodes>
            0 -1 56 -84413536 1545507968 -1158681802 -1160249661
            1289688749 519940974 -1915894107 -1745688647</internalNodes>
          <leafValues>
            -3.5556820034980774e-01 5.1425909996032715e-01</leafValues></_>
        <_>
          <internalNodes>
            0 -1 61 996103665 432347335 -1593802157 -1727168383
            -402103632 -519993216 1648945816 1255111178</internalNodes>
          <leafValues>
            -6.6324084997177124e-01 2.3961742222309113e-01</leafValues></_>
        <_>
          <internalNodes>
            0 -1 69 -2129125186 362627728 285345920 386007836 -889159528
            -2096856694 430477354 -1911258964</internalNodes>
          <leafValues>
            -4.9992352724075317e-01 3.2756114006042480e-01</leafValues></_>
        <_>
          <internalNodes>
            0 -1 103 1148879374 -1841852030 1053962 1376248067 67158073
            1166573952 1082131465 -2147380997</internalNodes>
          <leafValues>
            -3.8241839408874512e-01 4.2483919858932495e-01</leafValues></_>
        <_>
          <internalNodes>
            0 -1 32 -722641933 658178041 2142854681 -134357129
            -134332308 -71843843 636575710 -1635856418</internalNodes>
          <leafValues>
            -3.6941146850585938e-01 4.3689000606536865e-01</leafValues></_>
        <_>
          <internalNodes>
            0 -1 60 2017536477 -1064239027 50333976 941990296 16795660
            -2088089079 -385843195 1087359887</internalNodes>
          <leafValues>
            -7.4254256486892700e-01 2.3273897171020508e-01</leafValues></_>
        <_>
          <internalNodes>
            0 -1 48 -1895626272 -574618876 -654210663 -180019176
            1879279849 -125820287 2017788553 -1941831168</internalNodes>
          <leafValues>
            -4.4834354519844055e-01 3.9417436718940735e-01</leafValues></_>
        <_>
          <internalNodes>
            0 -1 15 -186599296 -9932998 -269041911 -1312637382
            -403134834 -499826884 -556699670 -757385338</internalNodes>
          <leafValues>
            -3.2499045133590698e-01 5.3906464576721191e-01</leafValues></_>
        <_>
          <internalNodes>
            0 -1 95 1085603312 -570757151 2126282607 1509666700
            -831735056 -1946859696 -545896993 -351135990</internalNodes>
          <leafValues>
            -2.7169764041900635e-01 5.8030861616134644e-01</leafValues></_>
        <_>
          <internalNodes>
            0 -1 37 -1323672176 478756973 738263427 390627677 -993378168
            -1784152056 1761706185 -642719575</internalNodes>
          <leafValues>
            -4.5771282911300659e-01 3.8768252730369568e-01</leafValues></_>
        <_>
          <internalNodes>
            0 -1 57 -45096160 278 17301960 1645236491 -2122101329
            -727279488 1120436249 1871100604</internalNodes>
          <leafValues>
            -6.6881453990936279e-01 2.4426135420799255e-01</leafValues></_>
        <_>
          <internalNodes>
            0 -1 44 -1356374855 2121396212 -1212930 -1363836937
            934944764 1694105525 -403245577 -2003841899</internalNodes>
          <leafValues>
            -3.6221301555633545e-01 5.2411568164825439e-01</leafValues></_>
        <_>
          <internalNodes>
            0 -1 12 -202505399 538005761 -1874313187 1929380499
            1946894353 1346654336 1225655472 -567803246</internalNodes>
          <leafValues>
            -5.1604938507080078e-01 3.3557775616645813e-01</leafValues></_></weakClassifiers></_></stages>
  <features>
    <_>
      <rect>
        0 0 4 10</rect></_>
    <_>
      <rect>
        0 2 5 4</rect></_>
    <_>
      <rect>
        0 3 3 9</rect></_>
    <_>
      <rect>
        0 9 6 2</rect></_>
    <_>
      <rect>
        0 10 5 9</rect></_>
    <_>
      <rect>
        0 16 1 2</rect></_>
    <_>
      <rect>
        0 19 1 2</rect></_>
    <_>
      <rect>
        0 20 3 2</rect></_>
    <_>
      <rect>
        1 10 12 9</rect></_>
    <_>
      <rect>
        1 14 12 5</rect></_>
    <_>
      <rect>
        1 15 1 1</rect></_>
    <_>
      <rect>
        1 18 12 6</rect></_>
    <_>
      <rect>
        1 19 1 3</rect></_>
    <_>
      <rect>
        1 24 1 1</rect></_>
    <_>
      <rect>
        1 25 1 2</rect></_>
    <_>
      <rect>
        1 33 1 1</rect></_>
    <_>
      <rect>
        2 2 8 4</rect></_>
    <_>
      <rect>
        2 8 1 2</rect></_>
    <_>
      <rect>
        2 8 3 7</rect></_>
    <_>
      <rect>
        2 23 4 4</rect></_>
    <_>
      <rect>
        2 26 4 1</rect></_>
    <_>
      <rect>
        2 30 3 1</rect></_>
    <_>
      <rect>
        3 2 6 5</rect></_>
    <_>
      <rect>
        3 4 3 10</rect></_>
    <_>
      <rect>
        3 6 8 10</rect></_>
    <_>
      <rect>
        3 12 3 6</rect></_>
    <_>
      <rect>
        5 10 2 9</rect></_>
    <_>
      <rect>
        5 15 5 3</rect></_>
    <_>
      <rect>
        5 16 5 4</rect></_>
    <_>
      <rect>
        6 2 1 11</rect></_>
    <_>
      <rect>
        6 8 3 1</rect></_>
    <_>
      <rect>
        6 15 4 2</rect></_>
    <_>
      <rect>
        6 22 1 2</rect></_>
    <_>
      <rect>
        7 13 1 1</rect></_>
    <_>
      <rect>
        7 14 2 1</rect></_>
    <_>
      <rect>
        7 19 4 2</rect></_>
    <_>
      <rect>
        9 0 9 12</rect></_>
    <_>
      <rect>
        9 2 6 3</rect></_>
    <_>
      <rect>
        9 5 3 5</rect></_>
    <_>
      <rect>
        9 14 4 2</rect></_>
    <_>
      <rect>
        10 9 1 1</rect></_>
    <_>
      <rect>
        10 16 2 3</rect></_>
    <_>
      <rect>
        11 20 3 2</rect></_>
    <_>
      <rect>
        12 4 8 3</rect></_>
    <_>
      <rect>
        12 12 1 1</rect></_>
    <_>
      <rect>
        12 14 5 3</rect></_>
    <_>
      <rect>
        12 17 5 2</rect></_>
    <_>
      <rect>
        12 24 3 2</rect></_>
    <_>
      <rect>
        12 31 3 2</rect></_>
    <_>
      <rect>
        13 4 8 11</rect></_>
    <_>
      <rect>
        13 9 2 1</rect></_>
    <_>
      <rect>
        13 13 3 3</rect></_>
    <_>
      <rect>
        13 15 3 3</rect></_>
    <_>
      <rect>
        13 15 5 3</rect></_>
    <_>
      <rect>
        13 16 4 3</rect></_>
    <_>
      <rect>
        13 16 5 3</rect></_>
    <_>
      <rect>
        14 15 3 1</rect></_>
    <_>
      <rect>
        14 17 4 2</rect></_>
    <_>
      <rect>
        14 18 4 2</rect></_>
    <_>
      <rect>
        14 18 7 6</rect></_>
    <_>
      <rect>
        15 15 5 3</rect></_>
    <_>
      <rect>
        15 17 4 3</rect></_>
    <_>
      <rect>
        15 18 2 1</rect></_>
    <_>
      <rect>
        15 34 2 1</rect></_>
    <_>
      <rect>
        16 9 1 1</rect></_>
    <_>
      <rect>
        16 15 7 6</rect></_>
    <_>
      <rect>
        16 16 3 3</rect></_>
    <_>
      <rect>
        16 18 2 1</rect></_>
    <_>
      <rect>
        16 18 2 2</rect></_>
    <_>
      <rect>
        17 0 3 2</rect></_>
    <_>
      <rect>
        17 9 4 3</rect></_>
    <_>
      <rect>
        17 13 6 1</rect></_>
    <_>
      <rect>
        17 16 4 2</rect></_>
    <_>
      <rect>
        17 19 1 1</rect></_>
    <_>
      <rect>
        17 19 2 1</rect></_>
    <_>
      <rect>
        17 21 2 1</rect></_>
    <_>
      <rect>
        18 11 4 3</rect></_>
    <_>
      <rect>
        18 13 2 1</rect></_>
    <_>
      <rect>
        18 14 1 3</rect></_>
    <_>
      <rect>
        18 17 1 1</rect></_>
    <_>
      <rect>
        18 18 1 1</rect></_>
    <_>
      <rect>
        18 20 2 1</rect></_>
    <_>
      <rect>
        19 15 3 3</rect></_>
    <_>
      <rect>
        19 16 1 2</rect></_>
    <_>
      <rect>
        19 17 1 1</rect></_>
    <_>
      <rect>
        19 18 1 1</rect></_>
    <_>
      <rect>
        19 28 4 1</rect></_>
    <_>
      <rect>
        20 17 1 1</rect></_>
    <_>
      <rect>
        20 25 4 1</rect></_>
    <_>
      <rect>
        21 2 4 9</rect></_>
    <_>
      <rect>
        21 9 2 2</rect></_>
    <_>
      <rect>
        21 27 2 1</rect></_>
    <_>
      <rect>
        22 12 2 1</rect></_>
    <_>
      <rect>
        22 14 2 1</rect></_>
    <_>
      <rect>
        22 16 4 7</rect></_>
    <_>
      <rect>
        24 0 2 1</rect></_>
    <_>
      <rect>
        25 3 3 9</rect></_>
    <_>
      <rect>
        25 22 2 3</rect></_>
    <_>
      <rect>
        26 25 3 1</rect></_>
    <_>
      <rect>
        27 18 3 3</rect></_>
    <_>
      <rect>
        28 7 3 6</rect></_>
    <_>
      <rect>
        28 17 3 3</rect></_>
    <_>
      <rect>
        30 4 2 3</rect></_>
    <_>
      <rect>
        31 2 2 3</rect></_>
    <_>
      <rect>
        31 11 2 4</rect></_>
    <_>
      <rect>
        32 30 1 1</rect></_></features></cascade>
</opencv_storage>
