<?xml version="1.0"?>
<opencv_storage>
<cascade>
  <stageType>BOOST</stageType>
  <featureType>HAAR</featureType>
  <height>30</height>
  <width>30</width>
  <stageParams>
    <boostType>GAB</boostType>
    <minHitRate>9.9900001287460327e-01</minHitRate>
    <maxFalseAlarm>5.0000000000000000e-01</maxFalseAlarm>
    <weightTrimRate>9.4999999999999996e-01</weightTrimRate>
    <maxDepth>1</maxDepth>
    <maxWeakCount>100</maxWeakCount></stageParams>
  <featureParams>
    <maxCatCount>0</maxCatCount>
    <featSize>1</featSize>
    <mode>ALL</mode></featureParams>
  <stageNum>20</stageNum>
  <stages>
    <!-- stage 0 -->
    <_>
      <maxWeakCount>12</maxWeakCount>
      <stageThreshold>-1.9092397689819336e+00</stageThreshold>
      <weakClassifiers>
        <_>
          <internalNodes>
            0 -1 192 -1.4612009748816490e-02</internalNodes>
          <leafValues>
            7.2367620468139648e-01 -6.5207028388977051e-01</leafValues></_>
        <_>
          <internalNodes>
            0 -1 588 -5.1125157624483109e-03</internalNodes>
          <leafValues>
            5.8851104974746704e-01 -4.8126709461212158e-01</leafValues></_>
        <_>
          <internalNodes>
            0 -1 539 1.9299371633678675e-03</internalNodes>
          <leafValues>
            -3.0102354288101196e-01 6.7142611742019653e-01</leafValues></_>
        <_>
          <internalNodes>
            0 -1 97 1.1884680390357971e-01</internalNodes>
          <leafValues>
            2.0745512843132019e-01 -7.9633760452270508e-01</leafValues></_>
        <_>
          <internalNodes>
            0 -1 896 2.5584548711776733e-03</internalNodes>
          <leafValues>
            -1.8027283251285553e-01 6.4496427774429321e-01</leafValues></_>
        <_>
          <internalNodes>
            0 -1 707 -2.1077813580632210e-03</internalNodes>
          <leafValues>
            6.0823464393615723e-01 -1.8746240437030792e-01</leafValues></_>
        <_>
          <internalNodes>
            0 -1 557 2.7532008243724704e-04</internalNodes>
          <leafValues>
            1.8557205796241760e-01 -6.4237838983535767e-01</leafValues></_>
        <_>
          <internalNodes>
            0 -1 557 -5.5342406267300248e-04</internalNodes>
          <leafValues>
            -6.6268426179885864e-01 1.7871896922588348e-01</leafValues></_>
        <_>
          <internalNodes>
            0 -1 725 8.3526427624747157e-04</internalNodes>
          <leafValues>
            -2.0084214210510254e-01 6.3930702209472656e-01</leafValues></_>
        <_>
          <internalNodes>
            0 -1 660 -2.4083079770207405e-03</internalNodes>
          <leafValues>
            7.5716984272003174e-01 -1.3718946278095245e-01</leafValues></_>
        <_>
          <internalNodes>
            0 -1 35 -1.3567963615059853e-02</internalNodes>
          <leafValues>
            6.7317265272140503e-01 -1.5698409080505371e-01</leafValues></_>
        <_>
          <internalNodes>
            0 -1 288 -2.8877374716103077e-03</internalNodes>
          <leafValues>
            5.2451282739639282e-01 -1.8387405574321747e-01</leafValues></_></weakClassifiers></_>
    <!-- stage 1 -->
    <_>
      <maxWeakCount>12</maxWeakCount>
      <stageThreshold>-1.7768150568008423e+00</stageThreshold>
      <weakClassifiers>
        <_>
          <internalNodes>
            0 -1 589 -9.6778180450201035e-03</internalNodes>
          <leafValues>
            5.0633555650711060e-01 -6.6038984060287476e-01</leafValues></_>
        <_>
          <internalNodes>
            0 -1 541 1.8419275293126702e-03</internalNodes>
          <leafValues>
            -5.9563899040222168e-01 4.2803728580474854e-01</leafValues></_>
        <_>
          <internalNodes>
            0 -1 544 -4.1539437370374799e-04</internalNodes>
          <leafValues>
            4.8194840550422668e-01 -3.9188763499259949e-01</leafValues></_>
        <_>
          <internalNodes>
            0 -1 220 -8.5062542930245399e-03</internalNodes>
          <leafValues>
            5.7056105136871338e-01 -2.5960978865623474e-01</leafValues></_>
        <_>
          <internalNodes>
            0 -1 370 -3.9634811691939831e-03</internalNodes>
          <leafValues>
            3.5457733273506165e-01 -3.8107657432556152e-01</leafValues></_>
        <_>
          <internalNodes>
            0 -1 864 -2.7851867489516735e-03</internalNodes>
          <leafValues>
            5.2677941322326660e-01 -2.3018386960029602e-01</leafValues></_>
        <_>
          <internalNodes>
            0 -1 470 2.5072139687836170e-03</internalNodes>
          <leafValues>
            2.1001853048801422e-01 -6.0288512706756592e-01</leafValues></_>
        <_>
          <internalNodes>
            0 -1 365 -4.8133395612239838e-03</internalNodes>
          <leafValues>
            4.4549411535263062e-01 -2.6457995176315308e-01</leafValues></_>
        <_>
          <internalNodes>
            0 -1 182 -1.1007892340421677e-01</internalNodes>
          <leafValues>
            -8.3869850635528564e-01 1.6894133388996124e-01</leafValues></_>
        <_>
          <internalNodes>
            0 -1 465 -2.3131424095481634e-03</internalNodes>
          <leafValues>
            5.3641068935394287e-01 -2.0471747219562531e-01</leafValues></_>
        <_>
          <internalNodes>
            0 -1 459 -1.0407413356006145e-03</internalNodes>
          <leafValues>
            4.4557005167007446e-01 -2.3414495587348938e-01</leafValues></_>
        <_>
          <internalNodes>
            0 -1 731 9.7601406741887331e-04</internalNodes>
          <leafValues>
            -2.8755331039428711e-01 3.5638010501861572e-01</leafValues></_></weakClassifiers></_>
    <!-- stage 2 -->
    <_>
      <maxWeakCount>20</maxWeakCount>
      <stageThreshold>-1.7266790866851807e+00</stageThreshold>
      <weakClassifiers>
        <_>
          <internalNodes>
            0 -1 192 -1.7688363790512085e-02</internalNodes>
          <leafValues>
            4.4125607609748840e-01 -5.7564222812652588e-01</leafValues></_>
        <_>
          <internalNodes>
            0 -1 715 -4.9898475408554077e-03</internalNodes>
          <leafValues>
            6.0216742753982544e-01 -2.7518934011459351e-01</leafValues></_>
        <_>
          <internalNodes>
            0 -1 662 1.0015643201768398e-03</internalNodes>
          <leafValues>
            -5.1511818170547485e-01 2.9216286540031433e-01</leafValues></_>
        <_>
          <internalNodes>
            0 -1 646 -1.4851056039333344e-03</internalNodes>
          <leafValues>
            2.6751261949539185e-01 -4.2900118231773376e-01</leafValues></_>
        <_>
          <internalNodes>
            0 -1 536 1.0381070896983147e-03</internalNodes>
          <leafValues>
            -2.1518298983573914e-01 4.7301790118217468e-01</leafValues></_>
        <_>
          <internalNodes>
            0 -1 708 -1.9624000415205956e-03</internalNodes>
          <leafValues>
            5.4609656333923340e-01 -2.0730188488960266e-01</leafValues></_>
        <_>
          <internalNodes>
            0 -1 553 2.6144500588998199e-04</internalNodes>
          <leafValues>
            1.5080298483371735e-01 -6.8146276473999023e-01</leafValues></_>
        <_>
          <internalNodes>
            0 -1 555 4.7887681284919381e-04</internalNodes>
          <leafValues>
            1.6729035973548889e-01 -6.2286013364791870e-01</leafValues></_>
        <_>
          <internalNodes>
            0 -1 591 4.2783707613125443e-04</internalNodes>
          <leafValues>
            1.8978585302829742e-01 -4.9877870082855225e-01</leafValues></_>
        <_>
          <internalNodes>
            0 -1 720 -7.4985516257584095e-03</internalNodes>
          <leafValues>
            6.6686260700225830e-01 -1.3916033506393433e-01</leafValues></_>
        <_>
          <internalNodes>
            0 -1 663 -1.2193669099360704e-03</internalNodes>
          <leafValues>
            4.0453395247459412e-01 -2.1633565425872803e-01</leafValues></_>
        <_>
          <internalNodes>
            0 -1 675 -3.1184959225356579e-03</internalNodes>
          <leafValues>
            6.9762718677520752e-01 -1.0690386593341827e-01</leafValues></_>
        <_>
          <internalNodes>
            0 -1 808 2.5181263685226440e-02</internalNodes>
          <leafValues>
            -1.2678515911102295e-01 6.3708788156509399e-01</leafValues></_>
        <_>
          <internalNodes>
            0 -1 740 -1.2068366631865501e-03</internalNodes>
          <leafValues>
            5.5454993247985840e-01 -1.4360035955905914e-01</leafValues></_>
        <_>
          <internalNodes>
            0 -1 321 -1.5137575566768646e-02</internalNodes>
          <leafValues>
            -5.0971579551696777e-01 1.7236596345901489e-01</leafValues></_>
        <_>
          <internalNodes>
            0 -1 421 3.6351417656987906e-03</internalNodes>
          <leafValues>
            1.5923295915126801e-01 -4.7932249307632446e-01</leafValues></_>
        <_>
          <internalNodes>
            0 -1 288 -7.5587187893688679e-03</internalNodes>
          <leafValues>
            6.2548577785491943e-01 -1.3768422603607178e-01</leafValues></_>
        <_>
          <internalNodes>
            0 -1 875 -2.0966473966836929e-02</internalNodes>
          <leafValues>
            6.1466825008392334e-01 -1.1918566375970840e-01</leafValues></_>
        <_>
          <internalNodes>
            0 -1 679 1.0449630208313465e-03</internalNodes>
          <leafValues>
            -1.2747927010059357e-01 5.7896077632904053e-01</leafValues></_>
        <_>
          <internalNodes>
            0 -1 701 -5.7277204468846321e-03</internalNodes>
          <leafValues>
            -6.3594323396682739e-01 1.4790715277194977e-01</leafValues></_></weakClassifiers></_>
    <!-- stage 3 -->
    <_>
      <maxWeakCount>27</maxWeakCount>
      <stageThreshold>-1.8023488521575928e+00</stageThreshold>
      <weakClassifiers>
        <_>
          <internalNodes>
            0 -1 192 -2.1138280630111694e-02</internalNodes>
          <leafValues>
            3.7716263532638550e-01 -5.0642991065979004e-01</leafValues></_>
        <_>
          <internalNodes>
            0 -1 715 -6.3053634949028492e-03</internalNodes>
          <leafValues>
            5.5999749898910522e-01 -2.2294473648071289e-01</leafValues></_>
        <_>
          <internalNodes>
            0 -1 539 1.9269178155809641e-03</internalNodes>
          <leafValues>
            -2.2935535013675690e-01 4.4676649570465088e-01</leafValues></_>
        <_>
          <internalNodes>
            0 -1 598 9.6302322344854474e-04</internalNodes>
          <leafValues>
            1.5140046179294586e-01 -5.7580506801605225e-01</leafValues></_>
        <_>
          <internalNodes>
            0 -1 595 -3.3704430097714067e-04</internalNodes>
          <leafValues>
            -5.3976857662200928e-01 1.9760160148143768e-01</leafValues></_>
        <_>
          <internalNodes>
            0 -1 581 6.9642678136005998e-04</internalNodes>
          <leafValues>
            -3.0944052338600159e-01 3.0138811469078064e-01</leafValues></_>
        <_>
          <internalNodes>
            0 -1 456 3.0512716621160507e-02</internalNodes>
          <leafValues>
            1.2028774619102478e-01 -6.7449641227722168e-01</leafValues></_>
        <_>
          <internalNodes>
            0 -1 717 3.5881425719708204e-03</internalNodes>
          <leafValues>
            -1.3941241800785065e-01 6.6245794296264648e-01</leafValues></_>
        <_>
          <internalNodes>
            0 -1 291 -1.9499198533594608e-03</internalNodes>
          <leafValues>
            4.2687609791755676e-01 -1.8722213804721832e-01</leafValues></_>
        <_>
          <internalNodes>
            0 -1 286 -2.0543482154607773e-02</internalNodes>
          <leafValues>
            -5.5967050790786743e-01 1.2628442049026489e-01</leafValues></_>
        <_>
          <internalNodes>
            0 -1 100 -1.6451935470104218e-01</internalNodes>
          <leafValues>
            -8.2060289382934570e-01 8.1737525761127472e-02</leafValues></_>
        <_>
          <internalNodes>
            0 -1 405 7.2778383037075400e-04</internalNodes>
          <leafValues>
            -3.4645685553550720e-01 1.8659275770187378e-01</leafValues></_>
        <_>
          <internalNodes>
            0 -1 495 5.0103198736906052e-04</internalNodes>
          <leafValues>
            1.2645216286182404e-01 -5.3104752302169800e-01</leafValues></_>
        <_>
          <internalNodes>
            0 -1 336 -7.0691863074898720e-03</internalNodes>
          <leafValues>
            6.1860877275466919e-01 -1.1156249791383743e-01</leafValues></_>
        <_>
          <internalNodes>
            0 -1 343 -2.1566813811659813e-03</internalNodes>
          <leafValues>
            4.5675039291381836e-01 -1.4349994063377380e-01</leafValues></_>
        <_>
          <internalNodes>
            0 -1 363 -1.1335428059101105e-01</internalNodes>
          <leafValues>
            -7.7487045526504517e-01 9.2025987803936005e-02</leafValues></_>
        <_>
          <internalNodes>
            0 -1 491 -1.5148508828133345e-04</internalNodes>
          <leafValues>
            -4.4659510254859924e-01 1.2779672443866730e-01</leafValues></_>
        <_>
          <internalNodes>
            0 -1 101 -1.6208904981613159e-01</internalNodes>
          <leafValues>
            -6.6207522153854370e-01 8.9383549988269806e-02</leafValues></_>
        <_>
          <internalNodes>
            0 -1 651 1.8673108424991369e-03</internalNodes>
          <leafValues>
            -2.1847504377365112e-01 3.0015611648559570e-01</leafValues></_>
        <_>
          <internalNodes>
            0 -1 331 -1.6509580891579390e-03</internalNodes>
          <leafValues>
            5.6111717224121094e-01 -9.8561644554138184e-02</leafValues></_>
        <_>
          <internalNodes>
            0 -1 836 -1.3507677614688873e-01</internalNodes>
          <leafValues>
            4.9593186378479004e-01 -1.3092124462127686e-01</leafValues></_>
        <_>
          <internalNodes>
            0 -1 692 1.5353084309026599e-03</internalNodes>
          <leafValues>
            -2.4267370998859406e-01 2.5061544775962830e-01</leafValues></_>
        <_>
          <internalNodes>
            0 -1 608 2.6819841004908085e-03</internalNodes>
          <leafValues>
            -8.1729300320148468e-02 7.1920317411422729e-01</leafValues></_>
        <_>
          <internalNodes>
            0 -1 213 -5.1613468676805496e-02</internalNodes>
          <leafValues>
            -6.8999385833740234e-01 9.3137517571449280e-02</leafValues></_>
        <_>
          <internalNodes>
            0 -1 296 -2.8173518367111683e-03</internalNodes>
          <leafValues>
            6.6785782575607300e-01 -9.0874597430229187e-02</leafValues></_>
        <_>
          <internalNodes>
            0 -1 451 3.0118186259642243e-04</internalNodes>
          <leafValues>
            1.6820330917835236e-01 -3.3693739771842957e-01</leafValues></_>
        <_>
          <internalNodes>
            0 -1 524 7.7762344153597951e-04</internalNodes>
          <leafValues>
            1.0169527679681778e-01 -5.3223639726638794e-01</leafValues></_></weakClassifiers></_>
    <!-- stage 4 -->
    <_>
      <maxWeakCount>27</maxWeakCount>
      <stageThreshold>-1.6594979763031006e+00</stageThreshold>
      <weakClassifiers>
        <_>
          <internalNodes>
            0 -1 192 -1.1107161641120911e-02</internalNodes>
          <leafValues>
            2.7006688714027405e-01 -6.3113498687744141e-01</leafValues></_>
        <_>
          <internalNodes>
            0 -1 587 -3.0443225987255573e-03</internalNodes>
          <leafValues>
            2.4774195253849030e-01 -4.8634645342826843e-01</leafValues></_>
        <_>
          <internalNodes>
            0 -1 543 -7.8161485726013780e-04</internalNodes>
          <leafValues>
            3.4763619303703308e-01 -2.9626104235649109e-01</leafValues></_>
        <_>
          <internalNodes>
            0 -1 656 4.4793559936806560e-04</internalNodes>
          <leafValues>
            -3.0471009016036987e-01 2.4266542494297028e-01</leafValues></_>
        <_>
          <internalNodes>
            0 -1 559 -6.7682680673897266e-04</internalNodes>
          <leafValues>
            -5.1281046867370605e-01 1.8057732284069061e-01</leafValues></_>
        <_>
          <internalNodes>
            0 -1 559 6.3413142925128341e-04</internalNodes>
          <leafValues>
            1.4702141284942627e-01 -6.9335526227951050e-01</leafValues></_>
        <_>
          <internalNodes>
            0 -1 893 3.7606302648782730e-03</internalNodes>
          <leafValues>
            -2.0179738104343414e-01 4.8026898503303528e-01</leafValues></_>
        <_>
          <internalNodes>
            0 -1 659 -7.4845235794782639e-03</internalNodes>
          <leafValues>
            6.1255282163619995e-01 -1.0026307404041290e-01</leafValues></_>
        <_>
          <internalNodes>
            0 -1 288 -6.5709399059414864e-03</internalNodes>
          <leafValues>
            4.6136382222175598e-01 -1.7306484282016754e-01</leafValues></_>
        <_>
          <internalNodes>
            0 -1 884 7.6004522852599621e-03</internalNodes>
          <leafValues>
            -1.2189171463251114e-01 4.2904725670814514e-01</leafValues></_>
        <_>
          <internalNodes>
            0 -1 717 -5.4074142826721072e-04</internalNodes>
          <leafValues>
            2.7998244762420654e-01 -2.1795481443405151e-01</leafValues></_>
        <_>
          <internalNodes>
            0 -1 752 -1.7134428489953279e-03</internalNodes>
          <leafValues>
            5.5475836992263794e-01 -1.2404249608516693e-01</leafValues></_>
        <_>
          <internalNodes>
            0 -1 562 -4.9295858480036259e-04</internalNodes>
          <leafValues>
            -4.8896303772926331e-01 1.4881889522075653e-01</leafValues></_>
        <_>
          <internalNodes>
            0 -1 562 -6.8007830122951418e-06</internalNodes>
          <leafValues>
            2.6204434037208557e-01 -2.8622457385063171e-01</leafValues></_>
        <_>
          <internalNodes>
            0 -1 105 -3.2348114997148514e-02</internalNodes>
          <leafValues>
            -8.0557745695114136e-01 8.0103628337383270e-02</leafValues></_>
        <_>
          <internalNodes>
            0 -1 388 -2.0495061762630939e-03</internalNodes>
          <leafValues>
            5.9579312801361084e-01 -1.1631825566291809e-01</leafValues></_>
        <_>
          <internalNodes>
            0 -1 552 2.7237934409640729e-04</internalNodes>
          <leafValues>
            1.1739700287580490e-01 -5.3574615716934204e-01</leafValues></_>
        <_>
          <internalNodes>
            0 -1 92 -4.1079623624682426e-03</internalNodes>
          <leafValues>
            3.8584852218627930e-01 -1.5899163484573364e-01</leafValues></_>
        <_>
          <internalNodes>
            0 -1 590 3.9391755126416683e-04</internalNodes>
          <leafValues>
            1.6855682432651520e-01 -3.6477652192115784e-01</leafValues></_>
        <_>
          <internalNodes>
            0 -1 392 -1.9906617235392332e-03</internalNodes>
          <leafValues>
            5.3085678815841675e-01 -1.2413669377565384e-01</leafValues></_>
        <_>
          <internalNodes>
            0 -1 490 -8.3080094555043615e-06</internalNodes>
          <leafValues>
            2.2665689885616302e-01 -2.8342795372009277e-01</leafValues></_>
        <_>
          <internalNodes>
            0 -1 579 -1.7418161034584045e-02</internalNodes>
          <leafValues>
            -6.6191476583480835e-01 8.6415037512779236e-02</leafValues></_>
        <_>
          <internalNodes>
            0 -1 215 1.7120810225605965e-03</internalNodes>
          <leafValues>
            -2.1434316039085388e-01 2.9760041832923889e-01</leafValues></_>
        <_>
          <internalNodes>
            0 -1 837 3.9288360625505447e-02</internalNodes>
          <leafValues>
            -8.9716330170631409e-02 5.8037787675857544e-01</leafValues></_>
        <_>
          <internalNodes>
            0 -1 28 -2.3590320721268654e-02</internalNodes>
          <leafValues>
            4.9946472048759460e-01 -1.0336871445178986e-01</leafValues></_>
        <_>
          <internalNodes>
            0 -1 36 -7.9452767968177795e-03</internalNodes>
          <leafValues>
            4.9801835417747498e-01 -1.2982212007045746e-01</leafValues></_>
        <_>
          <internalNodes>
            0 -1 245 -1.1652902467176318e-03</internalNodes>
          <leafValues>
            2.8918993473052979e-01 -1.8809834122657776e-01</leafValues></_></weakClassifiers></_>
    <!-- stage 5 -->
    <_>
      <maxWeakCount>32</maxWeakCount>
      <stageThreshold>-1.7831584215164185e+00</stageThreshold>
      <weakClassifiers>
        <_>
          <internalNodes>
            0 -1 578 -2.5537662208080292e-02</internalNodes>
          <leafValues>
            2.9343405365943909e-01 -4.5898139476776123e-01</leafValues></_>
        <_>
          <internalNodes>
            0 -1 544 -6.4897222910076380e-04</internalNodes>
          <leafValues>
            3.0308654904365540e-01 -2.9545858502388000e-01</leafValues></_>
        <_>
          <internalNodes>
            0 -1 359 7.2196085238829255e-04</internalNodes>
          <leafValues>
            -4.1661098599433899e-01 2.0347151160240173e-01</leafValues></_>
        <_>
          <internalNodes>
            0 -1 262 -9.4692790880799294e-03</internalNodes>
          <leafValues>
            -5.1194626092910767e-01 1.2959159910678864e-01</leafValues></_>
        <_>
          <internalNodes>
            0 -1 498 4.0282297413796186e-04</internalNodes>
          <leafValues>
            1.5470358729362488e-01 -5.5722188949584961e-01</leafValues></_>
        <_>
          <internalNodes>
            0 -1 726 -5.6237578392028809e-03</internalNodes>
          <leafValues>
            4.5266461372375488e-01 -1.7394603788852692e-01</leafValues></_>
        <_>
          <internalNodes>
            0 -1 729 8.9513580314815044e-04</internalNodes>
          <leafValues>
            -1.8123316764831543e-01 5.1176935434341431e-01</leafValues></_>
        <_>
          <internalNodes>
            0 -1 489 7.8477163333445787e-04</internalNodes>
          <leafValues>
            1.3227027654647827e-01 -4.6371093392372131e-01</leafValues></_>
        <_>
          <internalNodes>
            0 -1 328 -1.1874439567327499e-01</internalNodes>
          <leafValues>
            -5.8550155162811279e-01 1.1152885854244232e-01</leafValues></_>
        <_>
          <internalNodes>
            0 -1 338 -6.2458417378365993e-03</internalNodes>
          <leafValues>
            7.3499524593353271e-01 -8.8567696511745453e-02</leafValues></_>
        <_>
          <internalNodes>
            0 -1 617 -1.4343139482662082e-03</internalNodes>
          <leafValues>
            -5.8309423923492432e-01 1.2101464718580246e-01</leafValues></_>
        <_>
          <internalNodes>
            0 -1 299 -4.6961084008216858e-03</internalNodes>
          <leafValues>
            3.9230680465698242e-01 -1.6080099344253540e-01</leafValues></_>
        <_>
          <internalNodes>
            0 -1 426 2.4664143566042185e-03</internalNodes>
          <leafValues>
            -1.3190923631191254e-01 4.5617848634719849e-01</leafValues></_>
        <_>
          <internalNodes>
            0 -1 709 -1.5530472155660391e-03</internalNodes>
          <leafValues>
            3.3579951524734497e-01 -1.5913388133049011e-01</leafValues></_>
        <_>
          <internalNodes>
            0 -1 666 -1.1272756382822990e-03</internalNodes>
          <leafValues>
            2.6967316865921021e-01 -2.2799362242221832e-01</leafValues></_>
        <_>
          <internalNodes>
            0 -1 667 -6.1028730124235153e-04</internalNodes>
          <leafValues>
            3.0002951622009277e-01 -1.9575451314449310e-01</leafValues></_>
        <_>
          <internalNodes>
            0 -1 483 3.3780224621295929e-03</internalNodes>
          <leafValues>
            9.7602456808090210e-02 -6.2981009483337402e-01</leafValues></_>
        <_>
          <internalNodes>
            0 -1 138 -6.4915314316749573e-02</internalNodes>
          <leafValues>
            4.5736721158027649e-01 -1.4309097826480865e-01</leafValues></_>
        <_>
          <internalNodes>
            0 -1 655 -7.3103569447994232e-03</internalNodes>
          <leafValues>
            5.0819855928421021e-01 -8.4860272705554962e-02</leafValues></_>
        <_>
          <internalNodes>
            0 -1 854 -1.9762714509852231e-04</internalNodes>
          <leafValues>
            -4.1012093424797058e-01 1.2115662544965744e-01</leafValues></_>
        <_>
          <internalNodes>
            0 -1 327 -1.7359039047732949e-03</internalNodes>
          <leafValues>
            2.6141217350959778e-01 -2.1332408487796783e-01</leafValues></_>
        <_>
          <internalNodes>
            0 -1 231 6.1831530183553696e-03</internalNodes>
          <leafValues>
            -1.6044692695140839e-01 3.1462043523788452e-01</leafValues></_>
        <_>
          <internalNodes>
            0 -1 495 -3.9294172893278301e-04</internalNodes>
          <leafValues>
            -5.0748926401138306e-01 1.0868173092603683e-01</leafValues></_>
        <_>
          <internalNodes>
            0 -1 29 -1.6577325761318207e-02</internalNodes>
          <leafValues>
            4.6005785465240479e-01 -1.2185413390398026e-01</leafValues></_>
        <_>
          <internalNodes>
            0 -1 226 1.1005516164004803e-02</internalNodes>
          <leafValues>
            1.0748001933097839e-01 -5.0485843420028687e-01</leafValues></_>
        <_>
          <internalNodes>
            0 -1 300 1.6860975883901119e-03</internalNodes>
          <leafValues>
            -1.6216287016868591e-01 2.9991897940635681e-01</leafValues></_>
        <_>
          <internalNodes>
            0 -1 731 2.1416239906102419e-03</internalNodes>
          <leafValues>
            -2.0770475268363953e-01 2.4922576546669006e-01</leafValues></_>
        <_>
          <internalNodes>
            0 -1 854 1.5950057422742248e-04</internalNodes>
          <leafValues>
            1.3253024220466614e-01 -3.5949122905731201e-01</leafValues></_>
        <_>
          <internalNodes>
            0 -1 478 -9.7040348919108510e-05</internalNodes>
          <leafValues>
            1.5891022980213165e-01 -2.9414504766464233e-01</leafValues></_>
        <_>
          <internalNodes>
            0 -1 669 1.5451364452019334e-03</internalNodes>
          <leafValues>
            -1.3581684231758118e-01 3.5935154557228088e-01</leafValues></_>
        <_>
          <internalNodes>
            0 -1 248 -1.8783743726089597e-03</internalNodes>
          <leafValues>
            2.9165342450141907e-01 -1.5760460495948792e-01</leafValues></_>
        <_>
          <internalNodes>
            0 -1 162 4.1147634387016296e-02</internalNodes>
          <leafValues>
            8.3556264638900757e-02 -6.7069804668426514e-01</leafValues></_></weakClassifiers></_>
    <!-- stage 6 -->
    <_>
      <maxWeakCount>38</maxWeakCount>
      <stageThreshold>-1.6463806629180908e+00</stageThreshold>
      <weakClassifiers>
        <_>
          <internalNodes>
            0 -1 187 -2.3772899061441422e-02</internalNodes>
          <leafValues>
            1.8784530460834503e-01 -4.9787837266921997e-01</leafValues></_>
        <_>
          <internalNodes>
            0 -1 748 3.4428932704031467e-03</internalNodes>
          <leafValues>
            -3.1339788436889648e-01 2.3982796072959900e-01</leafValues></_>
        <_>
          <internalNodes>
            0 -1 398 -2.8938145842403173e-03</internalNodes>
          <leafValues>
            2.2482225298881531e-01 -3.1280109286308289e-01</leafValues></_>
        <_>
          <internalNodes>
            0 -1 549 -4.7037034528329968e-04</internalNodes>
          <leafValues>
            -4.6851146221160889e-01 2.0147524774074554e-01</leafValues></_>
        <_>
          <internalNodes>
            0 -1 540 3.3035204978659749e-04</internalNodes>
          <leafValues>
            -2.7075448632240295e-01 2.5896859169006348e-01</leafValues></_>
        <_>
          <internalNodes>
            0 -1 595 5.6285818573087454e-04</internalNodes>
          <leafValues>
            1.2478542327880859e-01 -5.0570482015609741e-01</leafValues></_>
        <_>
          <internalNodes>
            0 -1 206 4.2794048786163330e-03</internalNodes>
          <leafValues>
            -2.3799368739128113e-01 2.5284051895141602e-01</leafValues></_>
        <_>
          <internalNodes>
            0 -1 69 2.8807584196329117e-02</internalNodes>
          <leafValues>
            -1.3791559636592865e-01 3.5819220542907715e-01</leafValues></_>
        <_>
          <internalNodes>
            0 -1 717 -2.2363504394888878e-03</internalNodes>
          <leafValues>
            4.0649536252021790e-01 -1.4502751827239990e-01</leafValues></_>
        <_>
          <internalNodes>
            0 -1 467 -5.6179160310421139e-05</internalNodes>
          <leafValues>
            1.5368685126304626e-01 -3.7585833668708801e-01</leafValues></_>
        <_>
          <internalNodes>
            0 -1 259 -8.0300197005271912e-02</internalNodes>
          <leafValues>
            -6.2343704700469971e-01 1.0262086242437363e-01</leafValues></_>
        <_>
          <internalNodes>
            0 -1 752 -1.4379204949364066e-03</internalNodes>
          <leafValues>
            4.0567162632942200e-01 -1.5845862030982971e-01</leafValues></_>
        <_>
          <internalNodes>
            0 -1 532 -6.0123647563159466e-04</internalNodes>
          <leafValues>
            -4.6939101815223694e-01 1.2872098386287689e-01</leafValues></_>
        <_>
          <internalNodes>
            0 -1 193 -1.4896703651174903e-03</internalNodes>
          <leafValues>
            2.3935015499591827e-01 -2.0917366445064545e-01</leafValues></_>
        <_>
          <internalNodes>
            0 -1 863 -3.5981619730591774e-03</internalNodes>
          <leafValues>
            3.6179679632186890e-01 -1.3530170917510986e-01</leafValues></_>
        <_>
          <internalNodes>
            0 -1 196 -5.8995769359171391e-04</internalNodes>
          <leafValues>
            -4.3045938014984131e-01 1.1649375408887863e-01</leafValues></_>
        <_>
          <internalNodes>
            0 -1 499 -9.1724359663203359e-06</internalNodes>
          <leafValues>
            1.7172534763813019e-01 -2.6901730895042419e-01</leafValues></_>
        <_>
          <internalNodes>
            0 -1 281 -7.3652407154440880e-03</internalNodes>
          <leafValues>
            4.4599476456642151e-01 -1.1532656848430634e-01</leafValues></_>
        <_>
          <internalNodes>
            0 -1 674 1.1013436596840620e-03</internalNodes>
          <leafValues>
            1.0862661898136139e-01 -4.6567153930664062e-01</leafValues></_>
        <_>
          <internalNodes>
            0 -1 791 -2.8269814793020487e-03</internalNodes>
          <leafValues>
            2.6811689138412476e-01 -1.8451181054115295e-01</leafValues></_>
        <_>
          <internalNodes>
            0 -1 725 9.2059129383414984e-04</internalNodes>
          <leafValues>
            -1.0389269888401031e-01 4.2411118745803833e-01</leafValues></_>
        <_>
          <internalNodes>
            0 -1 521 -5.0623710267245770e-03</internalNodes>
          <leafValues>
            -5.8010822534561157e-01 8.8656701147556305e-02</leafValues></_>
        <_>
          <internalNodes>
            0 -1 335 1.5197368338704109e-03</internalNodes>
          <leafValues>
            -1.1497963964939117e-01 4.6456193923950195e-01</leafValues></_>
        <_>
          <internalNodes>
            0 -1 802 3.0796966166235507e-04</internalNodes>
          <leafValues>
            1.2725506722927094e-01 -3.7586054205894470e-01</leafValues></_>
        <_>
          <internalNodes>
            0 -1 351 2.5230306200683117e-03</internalNodes>
          <leafValues>
            -1.2403302639722824e-01 3.5504648089408875e-01</leafValues></_>
        <_>
          <internalNodes>
            0 -1 238 -2.1756315603852272e-02</internalNodes>
          <leafValues>
            -6.1056256294250488e-01 7.1662761270999908e-02</leafValues></_>
        <_>
          <internalNodes>
            0 -1 891 -1.2803787831217051e-04</internalNodes>
          <leafValues>
            -3.8000988960266113e-01 1.1571074277162552e-01</leafValues></_>
        <_>
          <internalNodes>
            0 -1 891 1.3303753803484142e-04</internalNodes>
          <leafValues>
            1.2551075220108032e-01 -3.8828101754188538e-01</leafValues></_>
        <_>
          <internalNodes>
            0 -1 427 8.3940908312797546e-02</internalNodes>
          <leafValues>
            6.3505671918392181e-02 -7.4459588527679443e-01</leafValues></_>
        <_>
          <internalNodes>
            0 -1 461 -7.4143800884485245e-04</internalNodes>
          <leafValues>
            3.2309213280677795e-01 -1.5326991677284241e-01</leafValues></_>
        <_>
          <internalNodes>
            0 -1 458 -1.2313970364630222e-03</internalNodes>
          <leafValues>
            3.0205869674682617e-01 -1.3599587976932526e-01</leafValues></_>
        <_>
          <internalNodes>
            0 -1 33 -5.6077898479998112e-03</internalNodes>
          <leafValues>
            4.2292949557304382e-01 -9.6281312406063080e-02</leafValues></_>
        <_>
          <internalNodes>
            0 -1 260 -2.6349474210292101e-03</internalNodes>
          <leafValues>
            2.0633509755134583e-01 -2.0135572552680969e-01</leafValues></_>
        <_>
          <internalNodes>
            0 -1 632 2.3775694426149130e-03</internalNodes>
          <leafValues>
            6.9143965840339661e-02 -5.8582788705825806e-01</leafValues></_>
        <_>
          <internalNodes>
            0 -1 425 -5.6912907166406512e-04</internalNodes>
          <leafValues>
            1.9046954810619354e-01 -2.0778802037239075e-01</leafValues></_>
        <_>
          <internalNodes>
            0 -1 682 1.0436656884849072e-03</internalNodes>
          <leafValues>
            -1.8902468681335449e-01 2.1046997606754303e-01</leafValues></_>
        <_>
          <internalNodes>
            0 -1 880 2.6532341726124287e-03</internalNodes>
          <leafValues>
            -6.2275696545839310e-02 6.9192105531692505e-01</leafValues></_>
        <_>
          <internalNodes>
            0 -1 729 -2.5727585889399052e-03</internalNodes>
          <leafValues>
            5.5678474903106689e-01 -6.3226759433746338e-02</leafValues></_></weakClassifiers></_>
    <!-- stage 7 -->
    <_>
      <maxWeakCount>39</maxWeakCount>
      <stageThreshold>-1.6114983558654785e+00</stageThreshold>
      <weakClassifiers>
        <_>
          <internalNodes>
            0 -1 284 2.9611123725771904e-02</internalNodes>
          <leafValues>
            -4.3657729029655457e-01 2.6710292696952820e-01</leafValues></_>
        <_>
          <internalNodes>
            0 -1 524 5.0269876373931766e-04</internalNodes>
          <leafValues>
            1.0481511801481247e-01 -5.5587488412857056e-01</leafValues></_>
        <_>
          <internalNodes>
            0 -1 168 8.4052304737269878e-04</internalNodes>
          <leafValues>
            -3.3917391300201416e-01 1.7409029603004456e-01</leafValues></_>
        <_>
          <internalNodes>
            0 -1 536 6.8394269328564405e-04</internalNodes>
          <leafValues>
            -2.1556633710861206e-01 2.8431171178817749e-01</leafValues></_>
        <_>
          <internalNodes>
            0 -1 196 4.9423187738284469e-04</internalNodes>
          <leafValues>
            1.6257178783416748e-01 -4.6410208940505981e-01</leafValues></_>
        <_>
          <internalNodes>
            0 -1 492 -4.1636062087491155e-04</internalNodes>
          <leafValues>
            -5.6199181079864502e-01 8.8839769363403320e-02</leafValues></_>
        <_>
          <internalNodes>
            0 -1 668 -6.6646579653024673e-03</internalNodes>
          <leafValues>
            4.3558228015899658e-01 -1.1799976974725723e-01</leafValues></_>
        <_>
          <internalNodes>
            0 -1 349 3.2331058755517006e-03</internalNodes>
          <leafValues>
            -7.8486151993274689e-02 7.2513109445571899e-01</leafValues></_>
        <_>
          <internalNodes>
            0 -1 492 2.4004484293982387e-04</internalNodes>
          <leafValues>
            9.9165394902229309e-02 -4.9761512875556946e-01</leafValues></_>
        <_>
          <internalNodes>
            0 -1 720 -6.5364087931811810e-03</internalNodes>
          <leafValues>
            3.7041872739791870e-01 -1.4253827929496765e-01</leafValues></_>
        <_>
          <internalNodes>
            0 -1 663 -1.5848774928599596e-03</internalNodes>
          <leafValues>
            2.9862609505653381e-01 -1.6740968823432922e-01</leafValues></_>
        <_>
          <internalNodes>
            0 -1 708 -2.1346060093492270e-03</internalNodes>
          <leafValues>
            4.5987805724143982e-01 -1.3531775772571564e-01</leafValues></_>
        <_>
          <internalNodes>
            0 -1 292 -2.1424498409032822e-02</internalNodes>
          <leafValues>
            -5.1021230220794678e-01 9.5365934073925018e-02</leafValues></_>
        <_>
          <internalNodes>
            0 -1 305 6.2798578292131424e-03</internalNodes>
          <leafValues>
            6.8156115710735321e-02 -7.0451098680496216e-01</leafValues></_>
        <_>
          <internalNodes>
            0 -1 562 -6.1678967904299498e-04</internalNodes>
          <leafValues>
            -5.0849223136901855e-01 9.4457089900970459e-02</leafValues></_>
        <_>
          <internalNodes>
            0 -1 883 -2.7549657970666885e-03</internalNodes>
          <leafValues>
            3.3967950940132141e-01 -1.3365069031715393e-01</leafValues></_>
        <_>
          <internalNodes>
            0 -1 227 3.3060708083212376e-03</internalNodes>
          <leafValues>
            -1.4283151924610138e-01 3.2920661568641663e-01</leafValues></_>
        <_>
          <internalNodes>
            0 -1 787 2.5077862665057182e-04</internalNodes>
          <leafValues>
            1.1723478883504868e-01 -4.0605357289314270e-01</leafValues></_>
        <_>
          <internalNodes>
            0 -1 379 -2.2334307432174683e-03</internalNodes>
          <leafValues>
            2.0967212319374084e-01 -2.0667949318885803e-01</leafValues></_>
        <_>
          <internalNodes>
            0 -1 787 -1.7584286979399621e-04</internalNodes>
          <leafValues>
            -3.7988498806953430e-01 1.1342209577560425e-01</leafValues></_>
        <_>
          <internalNodes>
            0 -1 810 -2.0566925406455994e-02</internalNodes>
          <leafValues>
            4.8450613021850586e-01 -9.1726683080196381e-02</leafValues></_>
        <_>
          <internalNodes>
            0 -1 103 4.1066698031499982e-04</internalNodes>
          <leafValues>
            -2.2623658180236816e-01 1.9569541513919830e-01</leafValues></_>
        <_>
          <internalNodes>
            0 -1 161 2.7737193740904331e-03</internalNodes>
          <leafValues>
            -2.1840852499008179e-01 2.0853364467620850e-01</leafValues></_>
        <_>
          <internalNodes>
            0 -1 123 -7.4865996837615967e-02</internalNodes>
          <leafValues>
            -4.3507042527198792e-01 8.9807428419589996e-02</leafValues></_>
        <_>
          <internalNodes>
            0 -1 235 1.5819475054740906e-02</internalNodes>
          <leafValues>
            7.1368098258972168e-02 -5.6438922882080078e-01</leafValues></_>
        <_>
          <internalNodes>
            0 -1 571 -8.1781734479591250e-04</internalNodes>
          <leafValues>
            3.3816424012184143e-01 -1.3322882354259491e-01</leafValues></_>
        <_>
          <internalNodes>
            0 -1 1 -1.3930424756836146e-04</internalNodes>
          <leafValues>
            -3.3730918169021606e-01 1.3953991234302521e-01</leafValues></_>
        <_>
          <internalNodes>
            0 -1 337 1.8838123651221395e-03</internalNodes>
          <leafValues>
            -1.1793471127748489e-01 3.8422563672065735e-01</leafValues></_>
        <_>
          <internalNodes>
            0 -1 1 1.4995568199083209e-04</internalNodes>
          <leafValues>
            1.2707516551017761e-01 -3.5647112131118774e-01</leafValues></_>
        <_>
          <internalNodes>
            0 -1 453 -6.4504670444875956e-04</internalNodes>
          <leafValues>
            1.7666196823120117e-01 -2.4674759805202484e-01</leafValues></_>
        <_>
          <internalNodes>
            0 -1 342 -2.0343482028692961e-03</internalNodes>
          <leafValues>
            7.2227817773818970e-01 -5.7209327816963196e-02</leafValues></_>
        <_>
          <internalNodes>
            0 -1 448 -3.4705968573689461e-04</internalNodes>
          <leafValues>
            -5.5437260866165161e-01 8.1265456974506378e-02</leafValues></_>
        <_>
          <internalNodes>
            0 -1 392 3.8955337367951870e-03</internalNodes>
          <leafValues>
            -5.7324737310409546e-02 7.6932692527770996e-01</leafValues></_>
        <_>
          <internalNodes>
            0 -1 278 1.4327117241919041e-03</internalNodes>
          <leafValues>
            -1.0137534886598587e-01 3.7884509563446045e-01</leafValues></_>
        <_>
          <internalNodes>
            0 -1 242 5.3291398216970265e-05</internalNodes>
          <leafValues>
            -2.2020421922206879e-01 2.0858895778656006e-01</leafValues></_>
        <_>
          <internalNodes>
            0 -1 807 6.4611844718456268e-02</internalNodes>
          <leafValues>
            -9.3636728823184967e-02 4.4173958897590637e-01</leafValues></_>
        <_>
          <internalNodes>
            0 -1 839 -1.2863488867878914e-02</internalNodes>
          <leafValues>
            3.0713170766830444e-01 -1.3451796770095825e-01</leafValues></_>
        <_>
          <internalNodes>
            0 -1 5 -1.0833907872438431e-01</internalNodes>
          <leafValues>
            5.1805371046066284e-01 -8.0300949513912201e-02</leafValues></_>
        <_>
          <internalNodes>
            0 -1 457 2.4306480772793293e-03</internalNodes>
          <leafValues>
            -1.0813186317682266e-01 3.6543640494346619e-01</leafValues></_></weakClassifiers></_>
    <!-- stage 8 -->
    <_>
      <maxWeakCount>43</maxWeakCount>
      <stageThreshold>-1.6402591466903687e+00</stageThreshold>
      <weakClassifiers>
        <_>
          <internalNodes>
            0 -1 578 -1.9200010225176811e-02</internalNodes>
          <leafValues>
            1.4409722387790680e-01 -4.9406528472900391e-01</leafValues></_>
        <_>
          <internalNodes>
            0 -1 345 2.6253974065184593e-03</internalNodes>
          <leafValues>
            -3.2509064674377441e-01 2.0028617978096008e-01</leafValues></_>
        <_>
          <internalNodes>
            0 -1 626 5.2098053856752813e-05</internalNodes>
          <leafValues>
            -3.1826370954513550e-01 1.8606607615947723e-01</leafValues></_>
        <_>
          <internalNodes>
            0 -1 486 -2.0841476507484913e-03</internalNodes>
          <leafValues>
            -6.0052311420440674e-01 1.4143581688404083e-01</leafValues></_>
        <_>
          <internalNodes>
            0 -1 76 8.5493698716163635e-03</internalNodes>
          <leafValues>
            -2.0024643838405609e-01 2.7774742245674133e-01</leafValues></_>
        <_>
          <internalNodes>
            0 -1 556 -5.7786155957728624e-04</internalNodes>
          <leafValues>
            -5.6120944023132324e-01 1.0874239355325699e-01</leafValues></_>
        <_>
          <internalNodes>
            0 -1 344 -2.6639618445187807e-03</internalNodes>
          <leafValues>
            4.2885252833366394e-01 -1.3531562685966492e-01</leafValues></_>
        <_>
          <internalNodes>
            0 -1 392 1.9571259617805481e-03</internalNodes>
          <leafValues>
            -1.0187582671642303e-01 4.9532195925712585e-01</leafValues></_>
        <_>
          <internalNodes>
            0 -1 199 -2.7721676975488663e-02</internalNodes>
          <leafValues>
            4.4746601581573486e-01 -1.0988613963127136e-01</leafValues></_>
        <_>
          <internalNodes>
            0 -1 755 2.7782036922872066e-03</internalNodes>
          <leafValues>
            -1.3874034583568573e-01 3.2483842968940735e-01</leafValues></_>
        <_>
          <internalNodes>
            0 -1 531 3.6684875376522541e-03</internalNodes>
          <leafValues>
            9.7114913165569305e-02 -5.5463433265686035e-01</leafValues></_>
        <_>
          <internalNodes>
            0 -1 638 3.1331931240856647e-03</internalNodes>
          <leafValues>
            -1.6583549976348877e-01 2.6838824152946472e-01</leafValues></_>
        <_>
          <internalNodes>
            0 -1 658 6.3644256442785263e-04</internalNodes>
          <leafValues>
            -2.4401938915252686e-01 1.6033591330051422e-01</leafValues></_>
        <_>
          <internalNodes>
            0 -1 698 -1.0848527774214745e-02</internalNodes>
          <leafValues>
            3.6187931895256042e-01 -1.0486491024494171e-01</leafValues></_>
        <_>
          <internalNodes>
            0 -1 813 2.3175608366727829e-02</internalNodes>
          <leafValues>
            -1.4392013847827911e-01 3.1578978896141052e-01</leafValues></_>
        <_>
          <internalNodes>
            0 -1 618 -6.0309330001473427e-04</internalNodes>
          <leafValues>
            -3.7675443291664124e-01 1.1335152387619019e-01</leafValues></_>
        <_>
          <internalNodes>
            0 -1 373 -2.8163124807178974e-03</internalNodes>
          <leafValues>
            6.0639244318008423e-01 -7.8420676290988922e-02</leafValues></_>
        <_>
          <internalNodes>
            0 -1 212 1.1607761494815350e-02</internalNodes>
          <leafValues>
            1.3086968660354614e-01 -3.3320003747940063e-01</leafValues></_>
        <_>
          <internalNodes>
            0 -1 520 -9.1446921229362488e-02</internalNodes>
          <leafValues>
            -7.4833303689956665e-01 3.8685016334056854e-02</leafValues></_>
        <_>
          <internalNodes>
            0 -1 714 9.3705026665702462e-04</internalNodes>
          <leafValues>
            -1.0311567783355713e-01 4.1999486088752747e-01</leafValues></_>
        <_>
          <internalNodes>
            0 -1 129 1.3621503487229347e-02</internalNodes>
          <leafValues>
            7.0560380816459656e-02 -6.5050810575485229e-01</leafValues></_>
        <_>
          <internalNodes>
            0 -1 750 -6.0742918867617846e-04</internalNodes>
          <leafValues>
            2.1511466801166534e-01 -2.0878283679485321e-01</leafValues></_>
        <_>
          <internalNodes>
            0 -1 752 -4.2571598896756768e-04</internalNodes>
          <leafValues>
            2.4122036993503571e-01 -1.6629475355148315e-01</leafValues></_>
        <_>
          <internalNodes>
            0 -1 149 1.2846667959820479e-04</internalNodes>
          <leafValues>
            -2.7315232157707214e-01 1.5072368085384369e-01</leafValues></_>
        <_>
          <internalNodes>
            0 -1 898 2.2727102041244507e-03</internalNodes>
          <leafValues>
            -8.9068315923213959e-02 4.7173500061035156e-01</leafValues></_>
        <_>
          <internalNodes>
            0 -1 224 -5.5324460845440626e-04</internalNodes>
          <leafValues>
            -4.1245234012603760e-01 1.0617718100547791e-01</leafValues></_>
        <_>
          <internalNodes>
            0 -1 210 7.1740895509719849e-02</internalNodes>
          <leafValues>
            3.7594344466924667e-02 -8.0891042947769165e-01</leafValues></_>
        <_>
          <internalNodes>
            0 -1 10 2.0015024347230792e-04</internalNodes>
          <leafValues>
            8.1390835344791412e-02 -3.9829200506210327e-01</leafValues></_>
        <_>
          <internalNodes>
            0 -1 775 1.7361655831336975e-02</internalNodes>
          <leafValues>
            3.9291679859161377e-02 -8.9144998788833618e-01</leafValues></_>
        <_>
          <internalNodes>
            0 -1 563 2.3634376702830195e-04</internalNodes>
          <leafValues>
            9.3682400882244110e-02 -3.2604199647903442e-01</leafValues></_>
        <_>
          <internalNodes>
            0 -1 291 -1.0470768902450800e-03</internalNodes>
          <leafValues>
            2.2183330357074738e-01 -1.6657178103923798e-01</leafValues></_>
        <_>
          <internalNodes>
            0 -1 219 -1.0539859067648649e-03</internalNodes>
          <leafValues>
            2.2400031983852386e-01 -1.6712227463722229e-01</leafValues></_>
        <_>
          <internalNodes>
            0 -1 280 -7.1977614425122738e-04</internalNodes>
          <leafValues>
            2.3924954235553741e-01 -1.5468402206897736e-01</leafValues></_>
        <_>
          <internalNodes>
            0 -1 783 5.9209170285612345e-04</internalNodes>
          <leafValues>
            -2.1039429306983948e-01 1.7125570774078369e-01</leafValues></_>
        <_>
          <internalNodes>
            0 -1 734 2.3740418255329132e-03</internalNodes>
          <leafValues>
            -1.9467891752719879e-01 1.9537816941738129e-01</leafValues></_>
        <_>
          <internalNodes>
            0 -1 695 -8.4974598139524460e-03</internalNodes>
          <leafValues>
            5.4044514894485474e-01 -7.1072526276111603e-02</leafValues></_>
        <_>
          <internalNodes>
            0 -1 95 8.3572641015052795e-03</internalNodes>
          <leafValues>
            -1.4972324669361115e-01 2.6016804575920105e-01</leafValues></_>
        <_>
          <internalNodes>
            0 -1 10 -2.5828840443864465e-04</internalNodes>
          <leafValues>
            -3.6202460527420044e-01 1.0807452350854874e-01</leafValues></_>
        <_>
          <internalNodes>
            0 -1 382 3.2646660110913217e-04</internalNodes>
          <leafValues>
            -2.3263236880302429e-01 1.5437872707843781e-01</leafValues></_>
        <_>
          <internalNodes>
            0 -1 177 -3.0080918222665787e-02</internalNodes>
          <leafValues>
            2.5377634167671204e-01 -1.5674717724323273e-01</leafValues></_>
        <_>
          <internalNodes>
            0 -1 75 -1.1235745623707771e-02</internalNodes>
          <leafValues>
            4.6283236145973206e-01 -9.9344462156295776e-02</leafValues></_>
        <_>
          <internalNodes>
            0 -1 416 -6.3761108322069049e-04</internalNodes>
          <leafValues>
            -4.1110062599182129e-01 9.7312718629837036e-02</leafValues></_>
        <_>
          <internalNodes>
            0 -1 745 -2.4672471918165684e-03</internalNodes>
          <leafValues>
            5.0514835119247437e-01 -8.1529773771762848e-02</leafValues></_></weakClassifiers></_>
    <!-- stage 9 -->
    <_>
      <maxWeakCount>48</maxWeakCount>
      <stageThreshold>-1.5786833763122559e+00</stageThreshold>
      <weakClassifiers>
        <_>
          <internalNodes>
            0 -1 164 -2.1142680197954178e-02</internalNodes>
          <leafValues>
            4.9320943653583527e-02 -5.1680290699005127e-01</leafValues></_>
        <_>
          <internalNodes>
            0 -1 544 -3.4214265178889036e-04</internalNodes>
          <leafValues>
            1.9953803718090057e-01 -2.9765522480010986e-01</leafValues></_>
        <_>
          <internalNodes>
            0 -1 405 1.5571978874504566e-03</internalNodes>
          <leafValues>
            -3.1958428025245667e-01 1.7268793284893036e-01</leafValues></_>
        <_>
          <internalNodes>
            0 -1 590 -4.7257257392629981e-04</internalNodes>
          <leafValues>
            -5.1414793729782104e-01 1.5567132830619812e-01</leafValues></_>
        <_>
          <internalNodes>
            0 -1 439 6.5819462761282921e-03</internalNodes>
          <leafValues>
            7.4275553226470947e-02 -4.7336930036544800e-01</leafValues></_>
        <_>
          <internalNodes>
            0 -1 377 -3.4869737923145294e-02</internalNodes>
          <leafValues>
            6.6453307867050171e-01 -6.1730552464723587e-02</leafValues></_>
        <_>
          <internalNodes>
            0 -1 289 -4.1229040361940861e-03</internalNodes>
          <leafValues>
            5.5567938089370728e-01 -9.3726865947246552e-02</leafValues></_>
        <_>
          <internalNodes>
            0 -1 634 -5.7160470169037580e-04</internalNodes>
          <leafValues>
            -5.0066989660263062e-01 7.0419251918792725e-02</leafValues></_>
        <_>
          <internalNodes>
            0 -1 437 -9.7301183268427849e-04</internalNodes>
          <leafValues>
            1.5858665108680725e-01 -2.5118416547775269e-01</leafValues></_>
        <_>
          <internalNodes>
            0 -1 546 -5.0953228492289782e-04</internalNodes>
          <leafValues>
            1.9304306805133820e-01 -2.2487665712833405e-01</leafValues></_>
        <_>
          <internalNodes>
            0 -1 303 2.4070881772786379e-03</internalNodes>
          <leafValues>
            -1.5082143247127533e-01 2.8081890940666199e-01</leafValues></_>
        <_>
          <internalNodes>
            0 -1 855 -4.3913268018513918e-04</internalNodes>
          <leafValues>
            -3.3825659751892090e-01 1.1398079991340637e-01</leafValues></_>
        <_>
          <internalNodes>
            0 -1 855 2.7297105407342315e-04</internalNodes>
          <leafValues>
            1.2995545566082001e-01 -3.3340826630592346e-01</leafValues></_>
        <_>
          <internalNodes>
            0 -1 250 1.1139529524371028e-03</internalNodes>
          <leafValues>
            -1.4570386707782745e-01 2.7120000123977661e-01</leafValues></_>
        <_>
          <internalNodes>
            0 -1 889 -1.3057268224656582e-03</internalNodes>
          <leafValues>
            3.7287473678588867e-01 -1.1540769040584564e-01</leafValues></_>
        <_>
          <internalNodes>
            0 -1 566 -3.7391448859125376e-04</internalNodes>
          <leafValues>
            2.0128335058689117e-01 -1.7546512186527252e-01</leafValues></_>
        <_>
          <internalNodes>
            0 -1 822 6.4913777168840170e-04</internalNodes>
          <leafValues>
            8.9714258909225464e-02 -4.3509095907211304e-01</leafValues></_>
        <_>
          <internalNodes>
            0 -1 42 -2.7373484335839748e-03</internalNodes>
          <leafValues>
            2.4980989098548889e-01 -1.4892040193080902e-01</leafValues></_>
        <_>
          <internalNodes>
            0 -1 41 4.7306548804044724e-02</internalNodes>
          <leafValues>
            4.9532726407051086e-02 -8.0975830554962158e-01</leafValues></_>
        <_>
          <internalNodes>
            0 -1 422 -1.1998686008155346e-02</internalNodes>
          <leafValues>
            -4.1448888182640076e-01 7.3433659970760345e-02</leafValues></_>
        <_>
          <internalNodes>
            0 -1 645 9.9198031239211559e-04</internalNodes>
          <leafValues>
            -1.4601601660251617e-01 2.3184168338775635e-01</leafValues></_>
        <_>
          <internalNodes>
            0 -1 348 -1.8149259267374873e-03</internalNodes>
          <leafValues>
            2.0448945462703705e-01 -1.7158602178096771e-01</leafValues></_>
        <_>
          <internalNodes>
            0 -1 468 -3.1969517003744841e-03</internalNodes>
          <leafValues>
            -5.8502840995788574e-01 6.2985554337501526e-02</leafValues></_>
        <_>
          <internalNodes>
            0 -1 609 -8.4915076149627566e-04</internalNodes>
          <leafValues>
            2.6903858780860901e-01 -1.4211340248584747e-01</leafValues></_>
        <_>
          <internalNodes>
            0 -1 611 -7.6075748074799776e-04</internalNodes>
          <leafValues>
            2.8296011686325073e-01 -1.3861097395420074e-01</leafValues></_>
        <_>
          <internalNodes>
            0 -1 491 4.9897539429366589e-04</internalNodes>
          <leafValues>
            7.7847339212894440e-02 -5.3353089094161987e-01</leafValues></_>
        <_>
          <internalNodes>
            0 -1 389 -2.1792845800518990e-03</internalNodes>
          <leafValues>
            4.7970515489578247e-01 -8.1759259104728699e-02</leafValues></_>
        <_>
          <internalNodes>
            0 -1 472 3.2668549101799726e-04</internalNodes>
          <leafValues>
            9.8371028900146484e-02 -4.2060139775276184e-01</leafValues></_>
        <_>
          <internalNodes>
            0 -1 700 6.5581700764596462e-03</internalNodes>
          <leafValues>
            -8.2236975431442261e-02 4.7296768426895142e-01</leafValues></_>
        <_>
          <internalNodes>
            0 -1 653 -3.9900932461023331e-03</internalNodes>
          <leafValues>
            5.2930635213851929e-01 -6.9842129945755005e-02</leafValues></_>
        <_>
          <internalNodes>
            0 -1 805 1.4416372403502464e-02</internalNodes>
          <leafValues>
            -1.2532183527946472e-01 2.7728685736656189e-01</leafValues></_>
        <_>
          <internalNodes>
            0 -1 116 -2.1227304823696613e-03</internalNodes>
          <leafValues>
            2.2609594464302063e-01 -1.5280047059059143e-01</leafValues></_>
        <_>
          <internalNodes>
            0 -1 596 -8.2603264672798105e-06</internalNodes>
          <leafValues>
            1.6465400159358978e-01 -2.1402738988399506e-01</leafValues></_>
        <_>
          <internalNodes>
            0 -1 776 5.0312385428696871e-04</internalNodes>
          <leafValues>
            -2.5255882740020752e-01 1.3844259083271027e-01</leafValues></_>
        <_>
          <internalNodes>
            0 -1 54 1.9557215273380280e-03</internalNodes>
          <leafValues>
            -6.3608258962631226e-02 5.2582716941833496e-01</leafValues></_>
        <_>
          <internalNodes>
            0 -1 561 -5.6197559460997581e-03</internalNodes>
          <leafValues>
            2.5701320171356201e-01 -1.2268440425395966e-01</leafValues></_>
        <_>
          <internalNodes>
            0 -1 202 -3.3915665699169040e-04</internalNodes>
          <leafValues>
            -3.8622310757637024e-01 8.0014824867248535e-02</leafValues></_>
        <_>
          <internalNodes>
            0 -1 388 5.1186610944569111e-03</internalNodes>
          <leafValues>
            -4.2340360581874847e-02 7.9953849315643311e-01</leafValues></_>
        <_>
          <internalNodes>
            0 -1 364 -1.7570115160197020e-03</internalNodes>
          <leafValues>
            1.9026370346546173e-01 -1.6485361754894257e-01</leafValues></_>
        <_>
          <internalNodes>
            0 -1 879 -2.7554188854992390e-03</internalNodes>
          <leafValues>
            2.5144135951995850e-01 -1.2683056294918060e-01</leafValues></_>
        <_>
          <internalNodes>
            0 -1 535 -3.3771689049899578e-04</internalNodes>
          <leafValues>
            1.5029528737068176e-01 -2.1381083130836487e-01</leafValues></_>
        <_>
          <internalNodes>
            0 -1 7 -3.0531632900238037e-01</internalNodes>
          <leafValues>
            2.8984519839286804e-01 -1.1901016533374786e-01</leafValues></_>
        <_>
          <internalNodes>
            0 -1 203 -3.8338594138622284e-02</internalNodes>
          <leafValues>
            5.0363981723785400e-01 -7.0681221783161163e-02</leafValues></_>
        <_>
          <internalNodes>
            0 -1 407 3.0210465192794800e-03</internalNodes>
          <leafValues>
            -2.2036305069923401e-01 1.7485405504703522e-01</leafValues></_>
        <_>
          <internalNodes>
            0 -1 222 -1.1430593440309167e-03</internalNodes>
          <leafValues>
            2.2213917970657349e-01 -1.5673111379146576e-01</leafValues></_>
        <_>
          <internalNodes>
            0 -1 346 -1.8805670551955700e-03</internalNodes>
          <leafValues>
            4.2005819082260132e-01 -9.0732842683792114e-02</leafValues></_>
        <_>
          <internalNodes>
            0 -1 529 -2.0503917767200619e-05</internalNodes>
          <leafValues>
            1.9434374570846558e-01 -2.3381440341472626e-01</leafValues></_>
        <_>
          <internalNodes>
            0 -1 684 4.3400970753282309e-04</internalNodes>
          <leafValues>
            1.0041898488998413e-01 -3.3642607927322388e-01</leafValues></_></weakClassifiers></_>
    <!-- stage 10 -->
    <_>
      <maxWeakCount>54</maxWeakCount>
      <stageThreshold>-1.6449708938598633e+00</stageThreshold>
      <weakClassifiers>
        <_>
          <internalNodes>
            0 -1 192 -1.7583727836608887e-02</internalNodes>
          <leafValues>
            6.8471334874629974e-02 -4.7106108069419861e-01</leafValues></_>
        <_>
          <internalNodes>
            0 -1 715 -4.7178072854876518e-03</internalNodes>
          <leafValues>
            2.9212012887001038e-01 -2.0350213348865509e-01</leafValues></_>
        <_>
          <internalNodes>
            0 -1 584 -1.0361689055571333e-04</internalNodes>
          <leafValues>
            1.9447217881679535e-01 -2.4848341941833496e-01</leafValues></_>
        <_>
          <internalNodes>
            0 -1 594 3.1742767896503210e-04</internalNodes>
          <leafValues>
            8.4714956581592560e-02 -6.5434134006500244e-01</leafValues></_>
        <_>
          <internalNodes>
            0 -1 753 -1.4189502689987421e-03</internalNodes>
          <leafValues>
            2.7471566200256348e-01 -1.5597043931484222e-01</leafValues></_>
        <_>
          <internalNodes>
            0 -1 555 4.4233887456357479e-04</internalNodes>
          <leafValues>
            1.2178742140531540e-01 -4.3388840556144714e-01</leafValues></_>
        <_>
          <internalNodes>
            0 -1 671 -2.0342618227005005e-03</internalNodes>
          <leafValues>
            3.7793642282485962e-01 -1.4171668887138367e-01</leafValues></_>
        <_>
          <internalNodes>
            0 -1 527 -8.5963738456484862e-06</internalNodes>
          <leafValues>
            2.0548908412456512e-01 -2.1201291680335999e-01</leafValues></_>
        <_>
          <internalNodes>
            0 -1 894 4.0732370689511299e-03</internalNodes>
          <leafValues>
            -1.1463071405887604e-01 3.9634123444557190e-01</leafValues></_>
        <_>
          <internalNodes>
            0 -1 160 -1.5124106407165527e-01</internalNodes>
          <leafValues>
            -8.2495331764221191e-01 5.4545842111110687e-02</leafValues></_>
        <_>
          <internalNodes>
            0 -1 512 -1.2966146459802985e-03</internalNodes>
          <leafValues>
            2.0277707278728485e-01 -1.8511269986629486e-01</leafValues></_>
        <_>
          <internalNodes>
            0 -1 455 -3.0282037187134847e-05</internalNodes>
          <leafValues>
            1.5922543406486511e-01 -2.2577853500843048e-01</leafValues></_>
        <_>
          <internalNodes>
            0 -1 643 -3.1718476675450802e-03</internalNodes>
          <leafValues>
            1.7877823114395142e-01 -2.1353250741958618e-01</leafValues></_>
        <_>
          <internalNodes>
            0 -1 293 -2.1040630526840687e-03</internalNodes>
          <leafValues>
            2.6363253593444824e-01 -1.6262944042682648e-01</leafValues></_>
        <_>
          <internalNodes>
            0 -1 46 -2.5154447648674250e-03</internalNodes>
          <leafValues>
            3.1324177980422974e-01 -1.0484940558671951e-01</leafValues></_>
        <_>
          <internalNodes>
            0 -1 417 -4.0645879926159978e-04</internalNodes>
          <leafValues>
            -4.4604343175888062e-01 6.7810229957103729e-02</leafValues></_>
        <_>
          <internalNodes>
            0 -1 570 -1.5975874848663807e-03</internalNodes>
          <leafValues>
            2.8763061761856079e-01 -1.2771961092948914e-01</leafValues></_>
        <_>
          <internalNodes>
            0 -1 538 -9.5789488113950938e-05</internalNodes>
          <leafValues>
            1.5371142327785492e-01 -2.4269562959671021e-01</leafValues></_>
        <_>
          <internalNodes>
            0 -1 720 -7.7397776767611504e-03</internalNodes>
          <leafValues>
            3.2886418700218201e-01 -1.3280758261680603e-01</leafValues></_>
        <_>
          <internalNodes>
            0 -1 548 -2.9347522649914026e-04</internalNodes>
          <leafValues>
            -3.8790896534919739e-01 1.0584940016269684e-01</leafValues></_>
        <_>
          <internalNodes>
            0 -1 270 -8.3291027694940567e-03</internalNodes>
          <leafValues>
            3.1541699171066284e-01 -1.1263344436883926e-01</leafValues></_>
        <_>
          <internalNodes>
            0 -1 159 -6.8111345171928406e-02</internalNodes>
          <leafValues>
            -6.7615675926208496e-01 5.2996337413787842e-02</leafValues></_>
        <_>
          <internalNodes>
            0 -1 737 -6.7889573983848095e-03</internalNodes>
          <leafValues>
            -4.9051514267921448e-01 5.7485844939947128e-02</leafValues></_>
        <_>
          <internalNodes>
            0 -1 106 -3.0006792396306992e-02</internalNodes>
          <leafValues>
            -5.8022946119308472e-01 5.1717139780521393e-02</leafValues></_>
        <_>
          <internalNodes>
            0 -1 551 -1.3391723769018427e-05</internalNodes>
          <leafValues>
            1.4650824666023254e-01 -2.1287427842617035e-01</leafValues></_>
        <_>
          <internalNodes>
            0 -1 833 -1.0838846210390329e-03</internalNodes>
          <leafValues>
            2.2938512265682220e-01 -1.4639431238174438e-01</leafValues></_>
        <_>
          <internalNodes>
            0 -1 673 4.0127939428202808e-04</internalNodes>
          <leafValues>
            9.9037267267704010e-02 -3.3419981598854065e-01</leafValues></_>
        <_>
          <internalNodes>
            0 -1 81 -1.8840350676327944e-03</internalNodes>
          <leafValues>
            4.7257709503173828e-01 -7.2301588952541351e-02</leafValues></_>
        <_>
          <internalNodes>
            0 -1 110 2.0445010159164667e-04</internalNodes>
          <leafValues>
            9.7518950700759888e-02 -3.4773784875869751e-01</leafValues></_>
        <_>
          <internalNodes>
            0 -1 569 1.7423834651708603e-03</internalNodes>
          <leafValues>
            -1.1019414663314819e-01 2.9508209228515625e-01</leafValues></_>
        <_>
          <internalNodes>
            0 -1 128 3.1152427196502686e-02</internalNodes>
          <leafValues>
            5.0841137766838074e-02 -6.6790807247161865e-01</leafValues></_>
        <_>
          <internalNodes>
            0 -1 126 5.9541409427765757e-05</internalNodes>
          <leafValues>
            -2.3975399136543274e-01 1.4751540124416351e-01</leafValues></_>
        <_>
          <internalNodes>
            0 -1 463 -1.3798221480101347e-03</internalNodes>
          <leafValues>
            2.3560717701911926e-01 -1.4884969592094421e-01</leafValues></_>
        <_>
          <internalNodes>
            0 -1 185 -5.7607432827353477e-03</internalNodes>
          <leafValues>
            -6.9784557819366455e-01 4.6357616782188416e-02</leafValues></_>
        <_>
          <internalNodes>
            0 -1 256 -2.3950681497808546e-04</internalNodes>
          <leafValues>
            -3.2944330573081970e-01 9.0898305177688599e-02</leafValues></_>
        <_>
          <internalNodes>
            0 -1 80 -3.3088035881519318e-02</internalNodes>
          <leafValues>
            -5.1550287008285522e-01 5.9935212135314941e-02</leafValues></_>
        <_>
          <internalNodes>
            0 -1 273 -1.2891741935163736e-03</internalNodes>
          <leafValues>
            2.1293012797832489e-01 -1.4800411462783813e-01</leafValues></_>
        <_>
          <internalNodes>
            0 -1 120 -2.1981862373650074e-03</internalNodes>
          <leafValues>
            2.6055991649627686e-01 -1.2896236777305603e-01</leafValues></_>
        <_>
          <internalNodes>
            0 -1 773 9.1453373897820711e-05</internalNodes>
          <leafValues>
            -2.3993508517742157e-01 1.3285081088542938e-01</leafValues></_>
        <_>
          <internalNodes>
            0 -1 821 -7.4661162216216326e-04</internalNodes>
          <leafValues>
            -5.4671949148178101e-01 6.0225792229175568e-02</leafValues></_>
        <_>
          <internalNodes>
            0 -1 727 3.2758546876721084e-04</internalNodes>
          <leafValues>
            -1.5620431303977966e-01 2.1578855812549591e-01</leafValues></_>
        <_>
          <internalNodes>
            0 -1 18 -1.3454494997859001e-02</internalNodes>
          <leafValues>
            3.6388131976127625e-01 -9.2504955828189850e-02</leafValues></_>
        <_>
          <internalNodes>
            0 -1 24 -1.0258264373987913e-03</internalNodes>
          <leafValues>
            -4.2500817775726318e-01 7.7206410467624664e-02</leafValues></_>
        <_>
          <internalNodes>
            0 -1 295 -6.2697208486497402e-03</internalNodes>
          <leafValues>
            3.1191188097000122e-01 -1.0912334173917770e-01</leafValues></_>
        <_>
          <internalNodes>
            0 -1 814 -1.1178741697221994e-03</internalNodes>
          <leafValues>
            2.4542316794395447e-01 -1.4280714094638824e-01</leafValues></_>
        <_>
          <internalNodes>
            0 -1 838 1.9491156563162804e-02</internalNodes>
          <leafValues>
            -1.0740118473768234e-01 3.1190279126167297e-01</leafValues></_>
        <_>
          <internalNodes>
            0 -1 690 -2.3430062457919121e-02</internalNodes>
          <leafValues>
            3.6020258069038391e-01 -9.4782829284667969e-02</leafValues></_>
        <_>
          <internalNodes>
            0 -1 603 1.5366288425866514e-04</internalNodes>
          <leafValues>
            1.2328584492206573e-01 -2.8212720155715942e-01</leafValues></_>
        <_>
          <internalNodes>
            0 -1 830 -2.4709119461476803e-03</internalNodes>
          <leafValues>
            3.1404885649681091e-01 -1.0809985548257828e-01</leafValues></_>
        <_>
          <internalNodes>
            0 -1 304 3.6920112324878573e-04</internalNodes>
          <leafValues>
            -1.7571133375167847e-01 1.7661185562610626e-01</leafValues></_>
        <_>
          <internalNodes>
            0 -1 323 -5.3784321993589401e-02</internalNodes>
          <leafValues>
            -7.3227393627166748e-01 4.3291375041007996e-02</leafValues></_>
        <_>
          <internalNodes>
            0 -1 271 -1.8719095969572663e-03</internalNodes>
          <leafValues>
            1.7904280126094818e-01 -1.7256566882133484e-01</leafValues></_>
        <_>
          <internalNodes>
            0 -1 380 -2.7964930981397629e-02</internalNodes>
          <leafValues>
            -5.1363652944564819e-01 6.2506005167961121e-02</leafValues></_>
        <_>
          <internalNodes>
            0 -1 71 1.5750975580886006e-04</internalNodes>
          <leafValues>
            9.3089453876018524e-02 -3.2059961557388306e-01</leafValues></_></weakClassifiers></_>
    <!-- stage 11 -->
    <_>
      <maxWeakCount>60</maxWeakCount>
      <stageThreshold>-1.6060065031051636e+00</stageThreshold>
      <weakClassifiers>
        <_>
          <internalNodes>
            0 -1 406 6.7475868854671717e-04</internalNodes>
          <leafValues>
            -5.7469719648361206e-01 -4.1548091918230057e-02</leafValues></_>
        <_>
          <internalNodes>
            0 -1 580 8.9457427384331822e-04</internalNodes>
          <leafValues>
            -2.2333416342735291e-01 2.4809475243091583e-01</leafValues></_>
        <_>
          <internalNodes>
            0 -1 301 -8.4566342411562800e-04</internalNodes>
          <leafValues>
            2.7714672684669495e-01 -1.8126657605171204e-01</leafValues></_>
        <_>
          <internalNodes>
            0 -1 599 3.7535984301939607e-04</internalNodes>
          <leafValues>
            1.2859191000461578e-01 -5.0094377994537354e-01</leafValues></_>
        <_>
          <internalNodes>
            0 -1 835 -9.7517240792512894e-03</internalNodes>
          <leafValues>
            2.7267047762870789e-01 -1.7571868002414703e-01</leafValues></_>
        <_>
          <internalNodes>
            0 -1 535 -4.9072853289544582e-04</internalNodes>
          <leafValues>
            1.7661029100418091e-01 -2.2730943560600281e-01</leafValues></_>
        <_>
          <internalNodes>
            0 -1 354 9.3158113304525614e-04</internalNodes>
          <leafValues>
            -1.5968967974185944e-01 2.6344585418701172e-01</leafValues></_>
        <_>
          <internalNodes>
            0 -1 501 -8.6292822379618883e-04</internalNodes>
          <leafValues>
            -3.9021426439285278e-01 1.2786422669887543e-01</leafValues></_>
        <_>
          <internalNodes>
            0 -1 545 -1.9851769320666790e-03</internalNodes>
          <leafValues>
            3.8904166221618652e-01 -1.3537809252738953e-01</leafValues></_>
        <_>
          <internalNodes>
            0 -1 322 -3.8472462911158800e-03</internalNodes>
          <leafValues>
            2.4711924791336060e-01 -1.2686559557914734e-01</leafValues></_>
        <_>
          <internalNodes>
            0 -1 48 -6.1130952090024948e-03</internalNodes>
          <leafValues>
            1.8927899003028870e-01 -1.7765308916568756e-01</leafValues></_>
        <_>
          <internalNodes>
            0 -1 574 -1.0653341887518764e-03</internalNodes>
          <leafValues>
            -4.8998603224754333e-01 7.3484972119331360e-02</leafValues></_>
        <_>
          <internalNodes>
            0 -1 782 -3.4973467700183392e-03</internalNodes>
          <leafValues>
            -4.0461865067481995e-01 7.3152571916580200e-02</leafValues></_>
        <_>
          <internalNodes>
            0 -1 434 -1.5749874711036682e-01</internalNodes>
          <leafValues>
            -7.6781123876571655e-01 3.7112828344106674e-02</leafValues></_>
        <_>
          <internalNodes>
            0 -1 440 -6.0546742752194405e-03</internalNodes>
          <leafValues>
            1.6294127702713013e-01 -2.3563154041767120e-01</leafValues></_>
        <_>
          <internalNodes>
            0 -1 880 -1.7145286547020078e-03</internalNodes>
          <leafValues>
            4.2843326926231384e-01 -8.2754723727703094e-02</leafValues></_>
        <_>
          <internalNodes>
            0 -1 418 -3.0359515221789479e-04</internalNodes>
          <leafValues>
            -3.6045563220977783e-01 8.7210439145565033e-02</leafValues></_>
        <_>
          <internalNodes>
            0 -1 895 2.9792345594614744e-03</internalNodes>
          <leafValues>
            -8.8867731392383575e-02 3.6229020357131958e-01</leafValues></_>
        <_>
          <internalNodes>
            0 -1 350 -1.6984394751489162e-03</internalNodes>
          <leafValues>
            4.9989944696426392e-01 -6.3287146389484406e-02</leafValues></_>
        <_>
          <internalNodes>
            0 -1 710 -8.5918302647769451e-04</internalNodes>
          <leafValues>
            2.0701667666435242e-01 -1.4946891367435455e-01</leafValues></_>
        <_>
          <internalNodes>
            0 -1 554 4.2211293475702405e-04</internalNodes>
          <leafValues>
            6.8024434149265289e-02 -4.3018338084220886e-01</leafValues></_>
        <_>
          <internalNodes>
            0 -1 687 8.0745108425617218e-04</internalNodes>
          <leafValues>
            9.8895996809005737e-02 -2.9715296626091003e-01</leafValues></_>
        <_>
          <internalNodes>
            0 -1 510 1.1058731470257044e-03</internalNodes>
          <leafValues>
            -1.2399454414844513e-01 2.7463918924331665e-01</leafValues></_>
        <_>
          <internalNodes>
            0 -1 147 -1.6194645315408707e-02</internalNodes>
          <leafValues>
            -7.6351994276046753e-01 3.8431078195571899e-02</leafValues></_>
        <_>
          <internalNodes>
            0 -1 528 3.3855444053187966e-04</internalNodes>
          <leafValues>
            -1.9096027314662933e-01 1.5499100089073181e-01</leafValues></_>
        <_>
          <internalNodes>
            0 -1 530 -5.2037811838090420e-04</internalNodes>
          <leafValues>
            -3.4775823354721069e-01 9.0112797915935516e-02</leafValues></_>
        <_>
          <internalNodes>
            0 -1 141 -2.6352619752287865e-03</internalNodes>
          <leafValues>
            2.1240082383155823e-01 -1.4284034073352814e-01</leafValues></_>
        <_>
          <internalNodes>
            0 -1 347 -2.0991333294659853e-03</internalNodes>
          <leafValues>
            2.8361940383911133e-01 -1.1377035826444626e-01</leafValues></_>
        <_>
          <internalNodes>
            0 -1 423 3.5789478570222855e-02</internalNodes>
          <leafValues>
            8.8650047779083252e-02 -3.9260470867156982e-01</leafValues></_>
        <_>
          <internalNodes>
            0 -1 349 -1.4926790026947856e-03</internalNodes>
          <leafValues>
            3.6628681421279907e-01 -9.9170304834842682e-02</leafValues></_>
        <_>
          <internalNodes>
            0 -1 195 -6.8863766500726342e-04</internalNodes>
          <leafValues>
            -5.2588540315628052e-01 6.0773432254791260e-02</leafValues></_>
        <_>
          <internalNodes>
            0 -1 811 -1.3624252751469612e-03</internalNodes>
          <leafValues>
            2.4700255692005157e-01 -1.3049896061420441e-01</leafValues></_>
        <_>
          <internalNodes>
            0 -1 99 2.8801518492400646e-03</internalNodes>
          <leafValues>
            -1.0403499007225037e-01 2.9483827948570251e-01</leafValues></_>
        <_>
          <internalNodes>
            0 -1 681 1.0051092831417918e-03</internalNodes>
          <leafValues>
            -1.6916060447692871e-01 1.8078275024890900e-01</leafValues></_>
        <_>
          <internalNodes>
            0 -1 647 -6.9537060335278511e-03</internalNodes>
          <leafValues>
            2.6473522186279297e-01 -1.1754844337701797e-01</leafValues></_>
        <_>
          <internalNodes>
            0 -1 612 -2.2143702954053879e-02</internalNodes>
          <leafValues>
            4.0660285949707031e-01 -8.0863259732723236e-02</leafValues></_>
        <_>
          <internalNodes>
            0 -1 6 -2.5255170464515686e-01</internalNodes>
          <leafValues>
            3.1716009974479675e-01 -9.9326588213443756e-02</leafValues></_>
        <_>
          <internalNodes>
            0 -1 27 -7.6246425509452820e-02</internalNodes>
          <leafValues>
            -6.4788979291915894e-01 4.9418460577726364e-02</leafValues></_>
        <_>
          <internalNodes>
            0 -1 891 1.4122831635177135e-04</internalNodes>
          <leafValues>
            8.4516145288944244e-02 -3.3226990699768066e-01</leafValues></_>
        <_>
          <internalNodes>
            0 -1 759 6.6834754761657678e-06</internalNodes>
          <leafValues>
            -1.8879616260528564e-01 1.5048815310001373e-01</leafValues></_>
        <_>
          <internalNodes>
            0 -1 26 6.1860457062721252e-02</internalNodes>
          <leafValues>
            -1.2277404963970184e-01 2.4046906828880310e-01</leafValues></_>
        <_>
          <internalNodes>
            0 -1 124 2.9367404058575630e-03</internalNodes>
          <leafValues>
            -4.4793982058763504e-02 6.2000691890716553e-01</leafValues></_>
        <_>
          <internalNodes>
            0 -1 181 -2.2142836824059486e-03</internalNodes>
          <leafValues>
            2.3249796032905579e-01 -1.2346427887678146e-01</leafValues></_>
        <_>
          <internalNodes>
            0 -1 369 -1.7467865254729986e-03</internalNodes>
          <leafValues>
            3.3077788352966309e-01 -1.0414445400238037e-01</leafValues></_>
        <_>
          <internalNodes>
            0 -1 315 1.9770092330873013e-03</internalNodes>
          <leafValues>
            -1.7491592466831207e-01 1.7460860311985016e-01</leafValues></_>
        <_>
          <internalNodes>
            0 -1 77 1.9347009947523475e-04</internalNodes>
          <leafValues>
            8.9431151747703552e-02 -3.4080368280410767e-01</leafValues></_>
        <_>
          <internalNodes>
            0 -1 624 4.7795899445191026e-04</internalNodes>
          <leafValues>
            -1.7843253910541534e-01 1.6295811533927917e-01</leafValues></_>
        <_>
          <internalNodes>
            0 -1 64 3.3046104945242405e-03</internalNodes>
          <leafValues>
            -4.2668391019105911e-02 7.1295219659805298e-01</leafValues></_>
        <_>
          <internalNodes>
            0 -1 629 3.3945254981517792e-03</internalNodes>
          <leafValues>
            6.1593897640705109e-02 -5.0883471965789795e-01</leafValues></_>
        <_>
          <internalNodes>
            0 -1 180 -3.1755842268466949e-02</internalNodes>
          <leafValues>
            -7.1603822708129883e-01 3.0585741624236107e-02</leafValues></_>
        <_>
          <internalNodes>
            0 -1 269 -4.2956299148499966e-04</internalNodes>
          <leafValues>
            1.8670327961444855e-01 -1.5836863219738007e-01</leafValues></_>
        <_>
          <internalNodes>
            0 -1 329 1.0829324601218104e-03</internalNodes>
          <leafValues>
            -1.2536251544952393e-01 2.4648843705654144e-01</leafValues></_>
        <_>
          <internalNodes>
            0 -1 381 -1.0509430430829525e-03</internalNodes>
          <leafValues>
            1.5571692585945129e-01 -1.9575747847557068e-01</leafValues></_>
        <_>
          <internalNodes>
            0 -1 635 6.9641862064599991e-03</internalNodes>
          <leafValues>
            -8.7650768458843231e-02 3.4194275736808777e-01</leafValues></_>
        <_>
          <internalNodes>
            0 -1 466 -1.2687282264232635e-01</internalNodes>
          <leafValues>
            -7.3430395126342773e-01 4.3529011309146881e-02</leafValues></_>
        <_>
          <internalNodes>
            0 -1 560 1.8934058607555926e-04</internalNodes>
          <leafValues>
            -1.6754129528999329e-01 1.7783342301845551e-01</leafValues></_>
        <_>
          <internalNodes>
            0 -1 71 -2.1832340280525386e-04</internalNodes>
          <leafValues>
            -3.2828992605209351e-01 8.7050795555114746e-02</leafValues></_>
        <_>
          <internalNodes>
            0 -1 497 -8.1312373367836699e-06</internalNodes>
          <leafValues>
            1.2836748361587524e-01 -2.1762424707412720e-01</leafValues></_>
        <_>
          <internalNodes>
            0 -1 397 -6.8007830122951418e-06</internalNodes>
          <leafValues>
            1.4584371447563171e-01 -2.2870549559593201e-01</leafValues></_>
        <_>
          <internalNodes>
            0 -1 88 -1.0491168126463890e-02</internalNodes>
          <leafValues>
            -4.7509169578552246e-01 5.9843387454748154e-02</leafValues></_></weakClassifiers></_>
    <!-- stage 12 -->
    <_>
      <maxWeakCount>65</maxWeakCount>
      <stageThreshold>-1.6059424877166748e+00</stageThreshold>
      <weakClassifiers>
        <_>
          <internalNodes>
            0 -1 582 -2.3748325183987617e-02</internalNodes>
          <leafValues>
            8.7967641651630402e-02 -3.8848444819450378e-01</leafValues></_>
        <_>
          <internalNodes>
            0 -1 59 -1.3855232391506433e-03</internalNodes>
          <leafValues>
            3.8035440444946289e-01 -1.0982252657413483e-01</leafValues></_>
        <_>
          <internalNodes>
            0 -1 542 -3.4268532181158662e-04</internalNodes>
          <leafValues>
            1.9386787712574005e-01 -1.9012621045112610e-01</leafValues></_>
        <_>
          <internalNodes>
            0 -1 359 4.5076996320858598e-04</internalNodes>
          <leafValues>
            -3.4783676266670227e-01 1.1736977845430374e-01</leafValues></_>
        <_>
          <internalNodes>
            0 -1 548 2.6248459471389651e-04</internalNodes>
          <leafValues>
            8.2831397652626038e-02 -4.3862113356590271e-01</leafValues></_>
        <_>
          <internalNodes>
            0 -1 717 -1.9404191989451647e-03</internalNodes>
          <leafValues>
            3.2590442895889282e-01 -8.5440918803215027e-02</leafValues></_>
        <_>
          <internalNodes>
            0 -1 708 -2.1785190328955650e-03</internalNodes>
          <leafValues>
            2.8960168361663818e-01 -1.4903244376182556e-01</leafValues></_>
        <_>
          <internalNodes>
            0 -1 558 5.3296657279133797e-04</internalNodes>
          <leafValues>
            1.0649906098842621e-01 -3.9314728975296021e-01</leafValues></_>
        <_>
          <internalNodes>
            0 -1 652 -2.3196786642074585e-03</internalNodes>
          <leafValues>
            1.8792991340160370e-01 -1.7712292075157166e-01</leafValues></_>
        <_>
          <internalNodes>
            0 -1 436 3.6967429332435131e-03</internalNodes>
          <leafValues>
            -1.0898854583501816e-01 3.2421365380287170e-01</leafValues></_>
        <_>
          <internalNodes>
            0 -1 9 -9.2784807085990906e-02</internalNodes>
          <leafValues>
            2.7433314919471741e-01 -1.1295863986015320e-01</leafValues></_>
        <_>
          <internalNodes>
            0 -1 275 1.2094059493392706e-03</internalNodes>
          <leafValues>
            -2.4501675367355347e-01 1.2573003768920898e-01</leafValues></_>
        <_>
          <internalNodes>
            0 -1 38 3.5144775174558163e-03</internalNodes>
          <leafValues>
            -8.0351829528808594e-02 3.9607295393943787e-01</leafValues></_>
        <_>
          <internalNodes>
            0 -1 801 6.7797466181218624e-04</internalNodes>
          <leafValues>
            6.3516095280647278e-02 -4.5002672076225281e-01</leafValues></_>
        <_>
          <internalNodes>
            0 -1 827 -3.5052679479122162e-02</internalNodes>
          <leafValues>
            4.3769556283950806e-01 -6.7710854113101959e-02</leafValues></_>
        <_>
          <internalNodes>
            0 -1 114 -1.7566107213497162e-01</internalNodes>
          <leafValues>
            -7.6122248172760010e-01 4.5163333415985107e-02</leafValues></_>
        <_>
          <internalNodes>
            0 -1 268 -6.5271803177893162e-03</internalNodes>
          <leafValues>
            -3.9861881732940674e-01 6.5037570893764496e-02</leafValues></_>
        <_>
          <internalNodes>
            0 -1 648 -3.7561478093266487e-03</internalNodes>
          <leafValues>
            2.4331793189048767e-01 -1.2539398670196533e-01</leafValues></_>
        <_>
          <internalNodes>
            0 -1 431 -1.5128940343856812e-02</internalNodes>
          <leafValues>
            3.3012217283248901e-01 -8.5709474980831146e-02</leafValues></_>
        <_>
          <internalNodes>
            0 -1 679 8.6466781795024872e-04</internalNodes>
          <leafValues>
            -9.1454073786735535e-02 3.3961454033851624e-01</leafValues></_>
        <_>
          <internalNodes>
            0 -1 616 -6.9991732016205788e-04</internalNodes>
          <leafValues>
            -4.3818464875221252e-01 6.5490290522575378e-02</leafValues></_>
        <_>
          <internalNodes>
            0 -1 573 -2.9608266777358949e-04</internalNodes>
          <leafValues>
            -3.4845507144927979e-01 9.4644613564014435e-02</leafValues></_>
        <_>
          <internalNodes>
            0 -1 703 -1.5672137960791588e-03</internalNodes>
          <leafValues>
            3.0691701173782349e-01 -1.0065977275371552e-01</leafValues></_>
        <_>
          <internalNodes>
            0 -1 287 1.1935601942241192e-03</internalNodes>
          <leafValues>
            -7.3273457586765289e-02 4.0312600135803223e-01</leafValues></_>
        <_>
          <internalNodes>
            0 -1 341 -2.3938831873238087e-03</internalNodes>
          <leafValues>
            4.0259820222854614e-01 -6.5374284982681274e-02</leafValues></_>
        <_>
          <internalNodes>
            0 -1 107 -1.6273781657218933e-02</internalNodes>
          <leafValues>
            -6.6312694549560547e-01 5.0392918288707733e-02</leafValues></_>
        <_>
          <internalNodes>
            0 -1 597 -4.7887500841170549e-04</internalNodes>
          <leafValues>
            -3.5261636972427368e-01 7.2866171598434448e-02</leafValues></_>
        <_>
          <internalNodes>
            0 -1 623 -8.3368283230811357e-04</internalNodes>
          <leafValues>
            1.8826992809772491e-01 -1.5336649119853973e-01</leafValues></_>
        <_>
          <internalNodes>
            0 -1 433 -1.7590484023094177e-01</internalNodes>
          <leafValues>
            -6.1359113454818726e-01 4.0093585848808289e-02</leafValues></_>
        <_>
          <internalNodes>
            0 -1 108 3.8892574608325958e-02</internalNodes>
          <leafValues>
            -7.8880347311496735e-02 3.6509707570075989e-01</leafValues></_>
        <_>
          <internalNodes>
            0 -1 721 1.3826119247823954e-03</internalNodes>
          <leafValues>
            -1.2642866373062134e-01 2.1965882182121277e-01</leafValues></_>
        <_>
          <internalNodes>
            0 -1 502 -2.9112899210304022e-04</internalNodes>
          <leafValues>
            -4.5501664280891418e-01 6.8104833364486694e-02</leafValues></_>
        <_>
          <internalNodes>
            0 -1 229 -5.7813730090856552e-03</internalNodes>
          <leafValues>
            2.0949152112007141e-01 -1.3641382753849030e-01</leafValues></_>
        <_>
          <internalNodes>
            0 -1 866 -1.3406992657110095e-03</internalNodes>
          <leafValues>
            2.3382049798965454e-01 -1.1258459091186523e-01</leafValues></_>
        <_>
          <internalNodes>
            0 -1 134 6.7564032971858978e-02</internalNodes>
          <leafValues>
            -6.8287953734397888e-02 3.8484349846839905e-01</leafValues></_>
        <_>
          <internalNodes>
            0 -1 795 -1.2245289050042629e-02</internalNodes>
          <leafValues>
            -5.1479172706604004e-01 5.3819142282009125e-02</leafValues></_>
        <_>
          <internalNodes>
            0 -1 320 -3.3756073098629713e-03</internalNodes>
          <leafValues>
            3.7052804231643677e-01 -8.1462204456329346e-02</leafValues></_>
        <_>
          <internalNodes>
            0 -1 22 2.9502570396289229e-04</internalNodes>
          <leafValues>
            8.4431387484073639e-02 -3.5608860850334167e-01</leafValues></_>
        <_>
          <internalNodes>
            0 -1 567 8.7483756942674518e-04</internalNodes>
          <leafValues>
            -1.2600113451480865e-01 2.4038083851337433e-01</leafValues></_>
        <_>
          <internalNodes>
            0 -1 818 -5.8895716210827231e-04</internalNodes>
          <leafValues>
            2.7686306834220886e-01 -1.0573089122772217e-01</leafValues></_>
        <_>
          <internalNodes>
            0 -1 778 -4.3221898376941681e-03</internalNodes>
          <leafValues>
            4.1676130890846252e-01 -7.0838652551174164e-02</leafValues></_>
        <_>
          <internalNodes>
            0 -1 122 2.3425818653777242e-04</internalNodes>
          <leafValues>
            -1.4822594821453094e-01 1.7427720129489899e-01</leafValues></_>
        <_>
          <internalNodes>
            0 -1 390 1.8052154919132590e-03</internalNodes>
          <leafValues>
            -6.3966043293476105e-02 4.6387717127799988e-01</leafValues></_>
        <_>
          <internalNodes>
            0 -1 96 1.1636949056992307e-04</internalNodes>
          <leafValues>
            1.0395482927560806e-01 -2.6950195431709290e-01</leafValues></_>
        <_>
          <internalNodes>
            0 -1 882 -2.3391633294522762e-03</internalNodes>
          <leafValues>
            2.7613559365272522e-01 -9.9815256893634796e-02</leafValues></_>
        <_>
          <internalNodes>
            0 -1 650 1.6484465450048447e-02</internalNodes>
          <leafValues>
            4.0989048779010773e-02 -6.6606014966964722e-01</leafValues></_>
        <_>
          <internalNodes>
            0 -1 736 4.2100220918655396e-02</internalNodes>
          <leafValues>
            3.3669006079435349e-02 -6.3386106491088867e-01</leafValues></_>
        <_>
          <internalNodes>
            0 -1 20 -1.1290383990854025e-03</internalNodes>
          <leafValues>
            -3.4779733419418335e-01 7.0253469049930573e-02</leafValues></_>
        <_>
          <internalNodes>
            0 -1 857 -4.1230525821447372e-03</internalNodes>
          <leafValues>
            2.4626366794109344e-01 -1.0809192806482315e-01</leafValues></_>
        <_>
          <internalNodes>
            0 -1 685 -5.1663990598171949e-04</internalNodes>
          <leafValues>
            -3.7384960055351257e-01 7.2101138532161713e-02</leafValues></_>
        <_>
          <internalNodes>
            0 -1 197 1.0473390575498343e-03</internalNodes>
          <leafValues>
            -1.4687411487102509e-01 1.8186517059803009e-01</leafValues></_>
        <_>
          <internalNodes>
            0 -1 39 -1.1517067905515432e-03</internalNodes>
          <leafValues>
            1.9786716997623444e-01 -1.3574032485485077e-01</leafValues></_>
        <_>
          <internalNodes>
            0 -1 243 2.1652500145137310e-03</internalNodes>
          <leafValues>
            -6.9367207586765289e-02 3.9368653297424316e-01</leafValues></_>
        <_>
          <internalNodes>
            0 -1 84 -1.7123047728091478e-03</internalNodes>
          <leafValues>
            2.7971747517585754e-01 -9.3663387000560760e-02</leafValues></_>
        <_>
          <internalNodes>
            0 -1 171 -2.1262356312945485e-04</internalNodes>
          <leafValues>
            -3.0362421274185181e-01 9.4437301158905029e-02</leafValues></_>
        <_>
          <internalNodes>
            0 -1 507 -8.2402884800103493e-06</internalNodes>
          <leafValues>
            1.5200689435005188e-01 -1.7897813022136688e-01</leafValues></_>
        <_>
          <internalNodes>
            0 -1 415 2.4749251315370202e-04</internalNodes>
          <leafValues>
            9.2010192573070526e-02 -2.9109844565391541e-01</leafValues></_>
        <_>
          <internalNodes>
            0 -1 45 -2.1594730205833912e-03</internalNodes>
          <leafValues>
            3.7340676784515381e-01 -7.0166416466236115e-02</leafValues></_>
        <_>
          <internalNodes>
            0 -1 317 -8.4594621512223966e-06</internalNodes>
          <leafValues>
            1.6359584033489227e-01 -1.6884012520313263e-01</leafValues></_>
        <_>
          <internalNodes>
            0 -1 261 -2.6005020481534302e-04</internalNodes>
          <leafValues>
            1.8368367850780487e-01 -1.6078685224056244e-01</leafValues></_>
        <_>
          <internalNodes>
            0 -1 475 6.2293712981045246e-03</internalNodes>
          <leafValues>
            2.8337873518466949e-02 -8.8275307416915894e-01</leafValues></_>
        <_>
          <internalNodes>
            0 -1 285 -1.6007268568500876e-03</internalNodes>
          <leafValues>
            2.2381371259689331e-01 -1.2914928793907166e-01</leafValues></_>
        <_>
          <internalNodes>
            0 -1 855 -6.9385021924972534e-04</internalNodes>
          <leafValues>
            -3.6433407664299011e-01 7.7949255704879761e-02</leafValues></_>
        <_>
          <internalNodes>
            0 -1 368 2.8016042051604018e-05</internalNodes>
          <leafValues>
            -2.0945376157760620e-01 1.2382206320762634e-01</leafValues></_>
        <_>
          <internalNodes>
            0 -1 267 -2.0328937098383904e-03</internalNodes>
          <leafValues>
            2.9911684989929199e-01 -9.6024774014949799e-02</leafValues></_></weakClassifiers></_>
    <!-- stage 13 -->
    <_>
      <maxWeakCount>70</maxWeakCount>
      <stageThreshold>-1.4825364351272583e+00</stageThreshold>
      <weakClassifiers>
        <_>
          <internalNodes>
            0 -1 299 -7.1285441517829895e-03</internalNodes>
          <leafValues>
            1.9526627659797668e-01 -3.2250458002090454e-01</leafValues></_>
        <_>
          <internalNodes>
            0 -1 504 -7.9788756556808949e-04</internalNodes>
          <leafValues>
            1.1645933985710144e-01 -3.2653725147247314e-01</leafValues></_>
        <_>
          <internalNodes>
            0 -1 544 -4.0482397889718413e-04</internalNodes>
          <leafValues>
            1.6841320693492889e-01 -2.3050068318843842e-01</leafValues></_>
        <_>
          <internalNodes>
            0 -1 591 -4.6565296361222863e-04</internalNodes>
          <leafValues>
            -4.7901603579521179e-01 1.2227882444858551e-01</leafValues></_>
        <_>
          <internalNodes>
            0 -1 493 8.8253000285476446e-04</internalNodes>
          <leafValues>
            3.8292713463306427e-02 -5.4853188991546631e-01</leafValues></_>
        <_>
          <internalNodes>
            0 -1 330 -6.6911913454532623e-03</internalNodes>
          <leafValues>
            1.8993638455867767e-01 -1.7385816574096680e-01</leafValues></_>
        <_>
          <internalNodes>
            0 -1 66 -2.4288721382617950e-02</internalNodes>
          <leafValues>
            2.6730763912200928e-01 -1.2713462114334106e-01</leafValues></_>
        <_>
          <internalNodes>
            0 -1 573 7.6112069655209780e-04</internalNodes>
          <leafValues>
            4.4266238808631897e-02 -6.1794376373291016e-01</leafValues></_>
        <_>
          <internalNodes>
            0 -1 877 1.5819695545360446e-03</internalNodes>
          <leafValues>
            -5.9629824012517929e-02 5.5718582868576050e-01</leafValues></_>
        <_>
          <internalNodes>
            0 -1 664 -2.2389576770365238e-03</internalNodes>
          <leafValues>
            2.5030073523521423e-01 -1.2745574116706848e-01</leafValues></_>
        <_>
          <internalNodes>
            0 -1 722 -1.6812589019536972e-03</internalNodes>
          <leafValues>
            3.2873106002807617e-01 -1.2027344107627869e-01</leafValues></_>
        <_>
          <internalNodes>
            0 -1 460 -8.3417887799441814e-04</internalNodes>
          <leafValues>
            1.4753013849258423e-01 -2.2234070301055908e-01</leafValues></_>
        <_>
          <internalNodes>
            0 -1 757 1.2067712377756834e-03</internalNodes>
          <leafValues>
            -7.9530574381351471e-02 3.8310956954956055e-01</leafValues></_>
        <_>
          <internalNodes>
            0 -1 211 1.0134140960872173e-02</internalNodes>
          <leafValues>
