<?xml version="1.0"?>
<opencv_storage>
<cascade>
  <stageType>BOOST</stageType>
  <featureType>LBP</featureType>
  <height>24</height>
  <width>24</width>
  <stageParams>
    <boostType>GAB</boostType>
    <minHitRate>9.9900001287460327e-01</minHitRate>
    <maxFalseAlarm>5.0000000000000000e-01</maxFalseAlarm>
    <weightTrimRate>9.4999999999999996e-01</weightTrimRate>
    <maxDepth>1</maxDepth>
    <maxWeakCount>100</maxWeakCount></stageParams>
  <featureParams>
    <maxCatCount>256</maxCatCount>
    <featSize>1</featSize></featureParams>
  <stageNum>20</stageNum>
  <stages>
    <!-- stage 0 -->
    <_>
      <maxWeakCount>3</maxWeakCount>
      <stageThreshold>-1.2093211412429810e+00</stageThreshold>
      <weakClassifiers>
        <_>
          <internalNodes>
            0 -1 0 -103286817 -40906657 -778734607 -69216894 -1366630929
            -108297238 -57947905 2079063807</internalNodes>
          <leafValues>
            -8.8313120603561401e-01 6.7301231622695923e-01</leafValues></_>
        <_>
          <internalNodes>
            0 -1 21 -618412545 -204497409 -171767308 -99879650
            -360392260 -83771262 -85275651 2146431935</internalNodes>
          <leafValues>
            -8.8493597507476807e-01 5.9455460309982300e-01</leafValues></_>
        <_>
          <internalNodes>
            0 -1 46 -237775361 -8793769 -715583117 -553561705
            -1979530112 -1148616704 -671037360 -58134288</internalNodes>
          <leafValues>
            -9.1666579246520996e-01 5.5874603986740112e-01</leafValues></_></weakClassifiers></_>
    <!-- stage 1 -->
    <_>
      <maxWeakCount>3</maxWeakCount>
      <stageThreshold>-1.1715416908264160e+00</stageThreshold>
      <weakClassifiers>
        <_>
          <internalNodes>
            0 -1 86 -11938913 -107220975 1963053265 -75791979 -393299041
            -1081376567 -91580485 2143273983</internalNodes>
          <leafValues>
            -8.6298340559005737e-01 6.4916199445724487e-01</leafValues></_>
        <_>
          <internalNodes>
            0 -1 93 -610665505 -543623083 -787388171 -754855841
            -519320921 -56940406 -360463446 2146428891</internalNodes>
          <leafValues>
            -7.8016424179077148e-01 5.7813620567321777e-01</leafValues></_>
        <_>
          <internalNodes>
            0 -1 42 -532993 -619345789 -1878621871 -180317648 -931079974
            -912785344 -792690496 -585051392</internalNodes>
          <leafValues>
            -8.8669443130493164e-01 5.5448657274246216e-01</leafValues></_></weakClassifiers></_>
    <!-- stage 2 -->
    <_>
      <maxWeakCount>4</maxWeakCount>
      <stageThreshold>-6.8996149301528931e-01</stageThreshold>
      <weakClassifiers>
        <_>
          <internalNodes>
            0 -1 7 -108998144 -682765888 1350578192 -540847691
            -2096568310 -1968651767 -1995648897 -1054209</internalNodes>
          <leafValues>
            -8.1939798593521118e-01 5.9246957302093506e-01</leafValues></_>
        <_>
          <internalNodes>
            0 -1 93 -202115473 -1076632151 -649392089 -3292873
            -1719035715 -358383151 -542527553 2147475339</internalNodes>
          <leafValues>
            -8.1226933002471924e-01 4.6770256757736206e-01</leafValues></_>
        <_>
          <internalNodes>
            0 -1 40 -677187115 -578363330 -2097133040 -108998604
            -1995913519 -1207533156 -636402864 -14882008</internalNodes>
          <leafValues>
            -8.9928740262985229e-01 4.5147842168807983e-01</leafValues></_>
        <_>
          <internalNodes>
            0 -1 68 -801636336 -586481399 -2130653099 -787959547
            -1300215462 -888438652 1477968024 -35917265</internalNodes>
          <leafValues>
            -7.4759620428085327e-01 5.6102138757705688e-01</leafValues></_></weakClassifiers></_>
    <!-- stage 3 -->
    <_>
      <maxWeakCount>5</maxWeakCount>
      <stageThreshold>-1.3920892477035522e+00</stageThreshold>
      <weakClassifiers>
        <_>
          <internalNodes>
            0 -1 31 -11545635 -611587685 1460918599 -3696905 -1718622491
            -427578997 -206308391 2147482543</internalNodes>
          <leafValues>
            -8.1318682432174683e-01 6.0674154758453369e-01</leafValues></_>
        <_>
          <internalNodes>
            0 -1 6 -2087598046 -884237371 1681933338 -581872933
            -41871087 -104249191 -326131025 2143019771</internalNodes>
          <leafValues>
            -9.1809087991714478e-01 4.0764564275741577e-01</leafValues></_>
        <_>
          <internalNodes>
            0 -1 57 -609488047 -248278775 805540111 -741129977
            -643565296 -745860374 -236852672 -72483092</internalNodes>
          <leafValues>
            -7.3317003250122070e-01 5.2896237373352051e-01</leafValues></_>
        <_>
          <internalNodes>
            0 -1 0 -1109923961 -1014824427 293716725 -35394265
            -1550201943 -1719631743 -1062488117 2145381291</internalNodes>
          <leafValues>
            -8.8076096773147583e-01 4.7385039925575256e-01</leafValues></_>
        <_>
          <internalNodes>
            0 -1 80 -191640498 1460895790 1094897792 -263634559
            1387227648 -331317150 -2004287486 -1735407989</internalNodes>
          <leafValues>
            -7.4867975711822510e-01 6.2738293409347534e-01</leafValues></_></weakClassifiers></_>
    <!-- stage 4 -->
    <_>
      <maxWeakCount>5</maxWeakCount>
      <stageThreshold>-1.5167586803436279e+00</stageThreshold>
      <weakClassifiers>
        <_>
          <internalNodes>
            0 -1 1 -2113236864 -1970634750 1073946626 1493340290
            268681387 8454154 1912726179 2139090923</internalNodes>
          <leafValues>
            -8.7594938278198242e-01 4.8712870478630066e-01</leafValues></_>
        <_>
          <internalNodes>
            0 -1 19 -266339621 -645234541 1048578 -597260280 -519398691
            -917012085 -984001868 2143284154</internalNodes>
          <leafValues>
            -8.0580818653106689e-01 4.8007282614707947e-01</leafValues></_>
        <_>
          <internalNodes>
            0 -1 88 -234733568 -1878851489 2278419 -1018494717
            -401997822 -2147319808 -2147016638 2146425687</internalNodes>
          <leafValues>
            -8.6193937063217163e-01 4.6784973144531250e-01</leafValues></_>
        <_>
          <internalNodes>
            0 -1 8 -748952705 -460652021 1344357392 -217890366
            -712851313 -1419599232 -1727880789 2139867867</internalNodes>
          <leafValues>
            -7.7113234996795654e-01 5.3147929906845093e-01</leafValues></_>
        <_>
          <internalNodes>
            0 -1 55 -242746555 395576177 1610678512 1941996868
            -922605307 411697152 1895825920 -1232965568</internalNodes>
          <leafValues>
            -8.1113338470458984e-01 5.1218956708908081e-01</leafValues></_></weakClassifiers></_>
    <!-- stage 5 -->
    <_>
      <maxWeakCount>2</maxWeakCount>
      <stageThreshold>-3.5465168952941895e-01</stageThreshold>
      <weakClassifiers>
        <_>
          <internalNodes>
            0 -1 20 -61865985 -77787061 -788468513 -539012644
            -1614576673 -1087382901 -88409857 2145378299</internalNodes>
          <leafValues>
            -7.7004218101501465e-01 6.2206572294235229e-01</leafValues></_>
        <_>
          <internalNodes>
            0 -1 57 -234881707 -686451329 -1773941419 -115388018
            -81035760 -104077138 -1383470272 -51581716</internalNodes>
          <leafValues>
            -8.9764553308486938e-01 4.1539049148559570e-01</leafValues></_></weakClassifiers></_>
    <!-- stage 6 -->
    <_>
      <maxWeakCount>4</maxWeakCount>
      <stageThreshold>-8.3757668733596802e-01</stageThreshold>
      <weakClassifiers>
        <_>
          <internalNodes>
            0 -1 86 -111545345 -539669761 -907739297 -2100393 -608589313
            -74491737 -812910451 2142231039</internalNodes>
          <leafValues>
            -8.4782606363296509e-01 5.1646089553833008e-01</leafValues></_>
        <_>
          <internalNodes>
            0 -1 21 -707331201 -44436486 -668772432 -35141921 -643127321
            -1415584353 -73178151 2080112639</internalNodes>
          <leafValues>
            -8.3350300788879395e-01 3.6611139774322510e-01</leafValues></_>
        <_>
          <internalNodes>
            0 -1 60 -1164168716 -1815818095 -1722295843 1893742985
            -1914152718 656974240 1207972592 -22954416</internalNodes>
          <leafValues>
            -7.8560620546340942e-01 4.7711583971977234e-01</leafValues></_>
        <_>
          <internalNodes>
            0 -1 91 -607325399 -771036862 -1861641968 -1287064191
            -934567233 -375680893 -359676478 1854864318</internalNodes>
          <leafValues>
            -7.9397600889205933e-01 4.2974421381950378e-01</leafValues></_></weakClassifiers></_>
    <!-- stage 7 -->
    <_>
      <maxWeakCount>4</maxWeakCount>
      <stageThreshold>-7.0493513345718384e-01</stageThreshold>
      <weakClassifiers>
        <_>
          <internalNodes>
            0 -1 3 -796863296 -2147430400 -1072672512 1677737984
            -1844410237 -503218175 -2113173333 -3152165</internalNodes>
          <leafValues>
            -7.7911162376403809e-01 4.6432265639305115e-01</leafValues></_>
        <_>
          <internalNodes>
            0 -1 49 -649928538 1560428544 28944 -1841299424 1485308140
            -1711257590 1312948478 -622841182</internalNodes>
          <leafValues>
            -7.0360350608825684e-01 5.1413333415985107e-01</leafValues></_>
        <_>
          <internalNodes>
            0 -1 4 -2122053342 -1593764800 805331344 -184188788
            -251617046 -41943037 -1442800981 2072742618</internalNodes>
          <leafValues>
            -8.3465522527694702e-01 3.8287118077278137e-01</leafValues></_>
        <_>
          <internalNodes>
            0 -1 76 -771485668 -242890351 16814297 -16001919 -1073117039
            -843022198 -804599156 2058070666</internalNodes>
          <leafValues>
            -8.2202482223510742e-01 3.9490884542465210e-01</leafValues></_></weakClassifiers></_>
    <!-- stage 8 -->
    <_>
      <maxWeakCount>6</maxWeakCount>
      <stageThreshold>-7.6235693693161011e-01</stageThreshold>
      <weakClassifiers>
        <_>
          <internalNodes>
            0 -1 65 -1861759084 -1879046144 -2130548719 -1794048000
            -2146893824 -1602224000 -1996189200 -1870135088</internalNodes>
          <leafValues>
            -7.8923255205154419e-01 5.2750808000564575e-01</leafValues></_>
        <_>
          <internalNodes>
            0 -1 72 -796469102 -788299710 -2147467184 -1861677044
            -792583680 -2147450880 -2145222528 -1438507008</internalNodes>
          <leafValues>
            -6.9229382276535034e-01 5.6418168544769287e-01</leafValues></_>
        <_>
          <internalNodes>
            0 -1 24 -788268850 -804781808 1358976204 -699793402
            -1063747430 -2004877184 -1341488904 2113968728</internalNodes>
          <leafValues>
            -8.6653292179107666e-01 4.1041553020477295e-01</leafValues></_>
        <_>
          <internalNodes>
            0 -1 35 -246366070 1477447698 -1609564142 -788267008
            1895858208 279085058 268435674 -259262318</internalNodes>
          <leafValues>
            -6.0843926668167114e-01 6.2068873643875122e-01</leafValues></_>
        <_>
          <internalNodes>
            0 -1 74 -2134224608 -82804647 -2147281711 -611237887
            -2147432264 -1366687616 -2139061528 2073411728</internalNodes>
          <leafValues>
            -8.0184817314147949e-01 4.3047118186950684e-01</leafValues></_>
        <_>
          <internalNodes>
            0 -1 59 -1073085952 -938868720 -2130685867 352518144 1179664
            -1593802752 10485904 -1417539584</internalNodes>
          <leafValues>
            -7.2617393732070923e-01 5.3454238176345825e-01</leafValues></_></weakClassifiers></_>
    <!-- stage 9 -->
    <_>
      <maxWeakCount>4</maxWeakCount>
      <stageThreshold>-8.4385681152343750e-01</stageThreshold>
      <weakClassifiers>
        <_>
          <internalNodes>
            0 -1 25 -747640833 -607663767 -788473635 -177212985
            -129267237 -628578744 -493773873 2146433259</internalNodes>
          <leafValues>
            -8.0555558204650879e-01 5.2991455793380737e-01</leafValues></_>
        <_>
          <internalNodes>
            0 -1 23 -135012372 -624570240 847344356 -55576982 -120927812
            -1658254332 -58131975 2147417489</internalNodes>
          <leafValues>
            -8.7441504001617432e-01 3.3639737963676453e-01</leafValues></_>
        <_>
          <internalNodes>
            0 -1 51 -1593830096 -246365768 352622581 -183111652
            -653770596 -1681751917 -1970735109 2065431435</internalNodes>
          <leafValues>
            -7.4009490013122559e-01 3.9294973015785217e-01</leafValues></_>
        <_>
          <internalNodes>
            0 -1 71 -775440101 2089091286 -536573731 -182411008
            -2008944640 -1447001468 -536297472 -389227362</internalNodes>
          <leafValues>
            -7.3128795623779297e-01 4.4316405057907104e-01</leafValues></_></weakClassifiers></_>
    <!-- stage 10 -->
    <_>
      <maxWeakCount>5</maxWeakCount>
      <stageThreshold>-1.4155269861221313e+00</stageThreshold>
      <weakClassifiers>
        <_>
          <internalNodes>
            0 -1 8 -795883553 -617571941 -1877899905 -543894524
            -645143585 -75485049 -578034038 2079054763</internalNodes>
          <leafValues>
            -7.5277775526046753e-01 3.1666666269302368e-01</leafValues></_>
        <_>
          <internalNodes>
            0 -1 61 -249359528 -930213886 1229476112 -787447295 20975632
            -1999405024 -481808108 -1175928480</internalNodes>
          <leafValues>
            -7.8701990842819214e-01 3.8475149869918823e-01</leafValues></_>
        <_>
          <internalNodes>
            0 -1 50 -124595520 461898112 -1568669680 1912647696
            -1870135160 1082659353 -1978651512 -1238366208</internalNodes>
          <leafValues>
            -7.4331134557723999e-01 3.5330998897552490e-01</leafValues></_>
        <_>
          <internalNodes>
            0 -1 89 -1614482628 -611479523 -1862268205 -573063155
            -792013880 -2003139103 -905715576 2079056011</internalNodes>
          <leafValues>
            -7.8927969932556152e-01 3.8499960303306580e-01</leafValues></_>
        <_>
          <internalNodes>
            0 -1 41 -360578430 303693830 -1877847920 -736882431
            354623627 -1064828791 -854949744 -389645824</internalNodes>
          <leafValues>
            -6.1403882503509521e-01 5.3277105093002319e-01</leafValues></_></weakClassifiers></_>
    <!-- stage 11 -->
    <_>
      <maxWeakCount>5</maxWeakCount>
      <stageThreshold>-1.3472448587417603e+00</stageThreshold>
      <weakClassifiers>
        <_>
          <internalNodes>
            0 -1 85 -645927945 -739584381 1368451551 -42286185
            -217847585 -995135 -894765077 2079325103</internalNodes>
          <leafValues>
            -7.3856210708618164e-01 5.4195010662078857e-01</leafValues></_>
        <_>
          <internalNodes>
            0 -1 90 -61277448 -1136508654 -619855870 -752969142
            2114591284 -1447444216 1958750756 2146425603</internalNodes>
          <leafValues>
            -6.9196307659149170e-01 4.2386338114738464e-01</leafValues></_>
        <_>
          <internalNodes>
            0 -1 79 -50900914 -111703373 8422416 -264169402 -2136305660
            -912850943 -128727857 -729813253</internalNodes>
          <leafValues>
            -5.9222632646560669e-01 5.1649367809295654e-01</leafValues></_>
        <_>
          <internalNodes>
            0 -1 92 -1283648971 -75853800 361454983 -1525907125
            -123617102 -71175509 1850736270 2143289071</internalNodes>
          <leafValues>
            -7.8539824485778809e-01 4.5118671655654907e-01</leafValues></_>
        <_>
          <internalNodes>
            0 -1 2 -1431770208 -1593208638 -794567600 -1907916724
            -1448492672 -794319855 -930446949 738193283</internalNodes>
          <leafValues>
            -8.8327229022979736e-01 3.5218486189842224e-01</leafValues></_></weakClassifiers></_>
    <!-- stage 12 -->
    <_>
      <maxWeakCount>5</maxWeakCount>
      <stageThreshold>-1.5840991735458374e+00</stageThreshold>
      <weakClassifiers>
        <_>
          <internalNodes>
            0 -1 0 -136321025 -45366887 2070123933 -11680771 -104417381
            -282739572 -77988929 2146433775</internalNodes>
          <leafValues>
            -8.6666667461395264e-01 4.2857143282890320e-01</leafValues></_>
        <_>
          <internalNodes>
            0 -1 22 -1002973201 -631401965 -228826714 -3156802
            -619914883 -1158690680 -625410120 2145364971</internalNodes>
          <leafValues>
            -7.5245904922485352e-01 4.2238751053810120e-01</leafValues></_>
        <_>
          <internalNodes>
            0 -1 69 -57868972 319357009 1078563161 -613859185 -326592412
            -1072857077 -927401020 -103814177</internalNodes>
          <leafValues>
            -7.3313099145889282e-01 3.8929343223571777e-01</leafValues></_>
        <_>
          <internalNodes>
            0 -1 58 -2146557936 -1919646978 1213290737 -45284300
            -1333728228 -75380280 -1501459718 2128341480</internalNodes>
          <leafValues>
            -7.9259485006332397e-01 4.0369921922683716e-01</leafValues></_>
        <_>
          <internalNodes>
            0 -1 18 -678985104 -2096950011 -1071644602 -834501934
            -804791572 -867022678 -1827761532 2143282120</internalNodes>
          <leafValues>
            -8.3719986677169800e-01 3.6445832252502441e-01</leafValues></_></weakClassifiers></_>
    <!-- stage 13 -->
    <_>
      <maxWeakCount>7</maxWeakCount>
      <stageThreshold>-1.1915500164031982e+00</stageThreshold>
      <weakClassifiers>
        <_>
          <internalNodes>
            0 -1 81 -16532542 -429785076 545349696 -642930048 1919693730
            -92272512 -2138464000 -353391965</internalNodes>
          <leafValues>
            -5.6756758689880371e-01 4.5817726850509644e-01</leafValues></_>
        <_>
          <internalNodes>
            0 -1 43 -267790881 -263094253 -1072445957 -268332867
            -1039040316 -1600929728 -619126960 -17763360</internalNodes>
          <leafValues>
            -8.2164537906646729e-01 3.0801567435264587e-01</leafValues></_>
        <_>
          <internalNodes>
            0 -1 44 -119405546 -121470944 269500438 -243257334 309330090
            -2147331710 33824998 -387055358</internalNodes>
          <leafValues>
            -5.5101585388183594e-01 5.0219231843948364e-01</leafValues></_>
        <_>
          <internalNodes>
            0 -1 19 -440147497 -767500202 -2147466176 -791658484
            -1442151772 -1987944446 -1073457004 2147458808</internalNodes>
          <leafValues>
            -8.1821554899215698e-01 3.9082261919975281e-01</leafValues></_>
        <_>
          <internalNodes>
            0 -1 66 -171191330 -792584055 270601232 -989671212
            -796917216 -125268672 1164083712 -227570432</internalNodes>
          <leafValues>
            -5.4043799638748169e-01 5.4580211639404297e-01</leafValues></_>
        <_>
          <internalNodes>
            0 -1 30 -538968149 -403509577 -1367905552 -887001550
            591650786 1467146228 -1238040925 -698094149</internalNodes>
          <leafValues>
            -4.8024290800094604e-01 6.4524567127227783e-01</leafValues></_>
        <_>
          <internalNodes>
            0 -1 56 -1827606315 -665698288 830517780 -1727508413
            -1977298800 -628457464 1224779944 1841350859</internalNodes>
          <leafValues>
            -6.4517384767532349e-01 5.0862216949462891e-01</leafValues></_></weakClassifiers></_>
    <!-- stage 14 -->
    <_>
      <maxWeakCount>7</maxWeakCount>
      <stageThreshold>-1.6499289274215698e+00</stageThreshold>
      <weakClassifiers>
        <_>
          <internalNodes>
            0 -1 29 -788277439 -787037168 50545617 -183449600
            -1006518272 -1562329014 1090577313 -548339768</internalNodes>
          <leafValues>
            -8.5237258672714233e-01 2.3151908814907074e-01</leafValues></_>
        <_>
          <internalNodes>
            0 -1 68 -655331216 -746483609 -938751912 -49100693
            -919510710 -924791671 -2080287668 -68168709</internalNodes>
          <leafValues>
            -6.9059866666793823e-01 3.6446526646614075e-01</leafValues></_>
        <_>
          <internalNodes>
            0 -1 15 -1754270046 -351633408 -2143039360 -777973480
            -452729609 -1417535351 1896043217 -621292381</internalNodes>
          <leafValues>
            -4.7959440946578979e-01 5.2495771646499634e-01</leafValues></_>
        <_>
          <internalNodes>
            0 -1 67 -1314136748 463045076 1879261200 -1320576832
            1157672992 -1196899840 -1459068879 -651375616</internalNodes>
          <leafValues>
            -6.5306723117828369e-01 4.1147977113723755e-01</leafValues></_>
        <_>
          <internalNodes>
            0 -1 83 -250948928 -786955902 134234800 -16199364 -788356608
            -1971289812 -436197312 2146418844</internalNodes>
          <leafValues>
            -8.3419412374496460e-01 3.1335252523422241e-01</leafValues></_>
        <_>
          <internalNodes>
            0 -1 53 -1668558563 -2095972346 -2147254179 -250666988
            -2012893180 -1744807936 -1442051959 -361694328</internalNodes>
          <leafValues>
            -6.3483148813247681e-01 4.0722468495368958e-01</leafValues></_>
        <_>
          <internalNodes>
            0 -1 25 824681726 -215838569 50517269 -679236594 -1006458601
            956842145 -1207581285 1943001567</internalNodes>
          <leafValues>
            -8.7889111042022705e-01 2.6329123973846436e-01</leafValues></_></weakClassifiers></_>
    <!-- stage 15 -->
    <_>
      <maxWeakCount>6</maxWeakCount>
      <stageThreshold>-8.1481945514678955e-01</stageThreshold>
      <weakClassifiers>
        <_>
          <internalNodes>
            0 -1 84 -707735769 1935003861 -786835917 -111280885
            -1014768241 -608138511 -293029223 2130706143</internalNodes>
          <leafValues>
            -7.8159123659133911e-01 2.5970664620399475e-01</leafValues></_>
        <_>
          <internalNodes>
            0 -1 78 -92283813 -131073 -50397185 -8389310 1893705734
            -8388609 -1662878466 -52691317</internalNodes>
          <leafValues>
            -4.3408587574958801e-01 5.9666979312896729e-01</leafValues></_>
        <_>
          <internalNodes>
            0 -1 47 -681315371 -749574893 -1719221744 -138113864
            -1047997552 -1430224756 -494914080 670995952</internalNodes>
          <leafValues>
            -7.4254977703094482e-01 3.4594470262527466e-01</leafValues></_>
        <_>
          <internalNodes>
            0 -1 28 -605552925 -644749600 651392736 1093740528 661447584
            2054610932 1182127278 -510429485</internalNodes>
          <leafValues>
            -4.2646551132202148e-01 6.1083132028579712e-01</leafValues></_>
        <_>
          <internalNodes>
            0 -1 63 -15265032 -2130087728 672007601 -1357602687
            -670281272 -1323818904 -1073608024 -465295308</internalNodes>
          <leafValues>
            -7.1021890640258789e-01 3.1875914335250854e-01</leafValues></_>
        <_>
          <internalNodes>
            0 -1 93 -581053009 -799366863 -469728179 -749395557
            -527438933 -1839644646 -104740690 2141191998</internalNodes>
          <leafValues>
            -8.2093971967697144e-01 3.2637187838554382e-01</leafValues></_></weakClassifiers></_>
    <!-- stage 16 -->
    <_>
      <maxWeakCount>7</maxWeakCount>
      <stageThreshold>-9.3506121635437012e-01</stageThreshold>
      <weakClassifiers>
        <_>
          <internalNodes>
            0 -1 82 -736903102 -905911928 335544656 -120897397
            -1035925246 -1432977272 -2115555402 -72881233</internalNodes>
          <leafValues>
            -5.1844662427902222e-01 4.3376624584197998e-01</leafValues></_>
        <_>
          <internalNodes>
            0 -1 38 -1728048079 2063630592 1082130512 -1072214015
            -2138527744 -2146795388 -829896670 -369109302</internalNodes>
          <leafValues>
            -6.7250436544418335e-01 3.3349144458770752e-01</leafValues></_>
        <_>
          <internalNodes>
            0 -1 5 -1146957072 -213786480 -1056943972 -814916072
            -1742677791 -107872120 -1971287890 2141954514</internalNodes>
          <leafValues>
            -5.8103042840957642e-01 3.7815174460411072e-01</leafValues></_>
        <_>
          <internalNodes>
            0 -1 12 -6162736 1252032228 1068458496 821048368 -17598593
            -32770 -579418505 -1342714017</internalNodes>
          <leafValues>
            -4.8157367110252380e-01 5.1978236436843872e-01</leafValues></_>
        <_>
          <internalNodes>
            0 -1 17 -82 -228135029 -17387806 -1909203321 1154436864
            1142279812 -305203510 -451422453</internalNodes>
          <leafValues>
            -4.6295446157455444e-01 5.1562070846557617e-01</leafValues></_>
        <_>
          <internalNodes>
            0 -1 54 2147450236 -565377 -75563079 -577110276 -285302799
            -281053316 -731613281 -125655792</internalNodes>
          <leafValues>
            -4.6960279345512390e-01 5.2062356472015381e-01</leafValues></_>
        <_>
          <internalNodes>
            0 -1 27 -620240000 -647823104 1133432978 -714399696
            134332544 -267714037 -502239199 1806942721</internalNodes>
          <leafValues>
            -6.3891905546188354e-01 4.2661961913108826e-01</leafValues></_></weakClassifiers></_>
    <!-- stage 17 -->
    <_>
      <maxWeakCount>9</maxWeakCount>
      <stageThreshold>-1.3320839405059814e+00</stageThreshold>
      <weakClassifiers>
        <_>
          <internalNodes>
            0 -1 77 -117551088 -800208733 8921659 -610598661 -401936098
            -1031110645 -536739782 -17904725</internalNodes>
          <leafValues>
            -6.1298376321792603e-01 2.9129129648208618e-01</leafValues></_>
        <_>
          <internalNodes>
            0 -1 48 -1378536 -79264990 -1240006630 -742465312 1476515416
            1216873098 -356286278 2096067539</internalNodes>
          <leafValues>
            -6.1279612779617310e-01 3.3077594637870789e-01</leafValues></_>
        <_>
          <internalNodes>
            0 -1 73 -786459312 -12006020 806213900 -15560382 160078500
            -933125928 -1622632196 2147220952</internalNodes>
          <leafValues>
            -6.8724513053894043e-01 3.1491282582283020e-01</leafValues></_>
        <_>
          <internalNodes>
            0 -1 62 -750911728 -868200314 -1457429898 -1857809988
            1896093696 -926363430 -561724384 -926373276</internalNodes>
          <leafValues>
            -6.7275089025497437e-01 3.4470352530479431e-01</leafValues></_>
        <_>
          <internalNodes>
            0 -1 16 -580133365 232881800 2118745764 1411510080
            -866268084 -556277819 -842541098 -821830133</internalNodes>
          <leafValues>
            -4.1137492656707764e-01 6.3094377517700195e-01</leafValues></_>
        <_>
          <internalNodes>
            0 -1 33 -754927696 -946241408 -805026664 -652250608
            -1065246112 -1950351231 -265764724 1877860564</internalNodes>
          <leafValues>
            -6.7175191640853882e-01 3.9095881581306458e-01</leafValues></_>
        <_>
          <internalNodes>
            0 -1 26 -1690731404 -183959552 -460820850 1679360020
            -375314401 -1542941664 -863390822 -286605105</internalNodes>
          <leafValues>
            -5.6131607294082642e-01 5.2891588211059570e-01</leafValues></_>
        <_>
          <internalNodes>
            0 -1 45 -81999 -537985026 -287001327 -217032 -8978488
            -588972204 2146495658 -742720341</internalNodes>
          <leafValues>
            -4.6487349271774292e-01 5.4937523603439331e-01</leafValues></_>
        <_>
          <internalNodes>
            0 -1 37 -463148670 -1204677366 -1330531416 -2059369648
            1350674304 1115955219 -632774512 -121470822</internalNodes>
          <leafValues>
            -5.0445115566253662e-01 4.9992984533309937e-01</leafValues></_></weakClassifiers></_>
    <!-- stage 18 -->
    <_>
      <maxWeakCount>8</maxWeakCount>
      <stageThreshold>-1.6972365379333496e+00</stageThreshold>
      <weakClassifiers>
        <_>
          <internalNodes>
            0 -1 10 -1216087680 -2138598398 -2147450734 -725368320
            -117395061 -259456630 -1813837686 1339803863</internalNodes>
          <leafValues>
            -6.4721846580505371e-01 2.6058325171470642e-01</leafValues></_>
        <_>
          <internalNodes>
            0 -1 14 -544836847 -8109936 1880118401 12619812 290068736
            -1165350776 -1481883349 -52379112</internalNodes>
          <leafValues>
            -6.8408787250518799e-01 2.8271502256393433e-01</leafValues></_>
        <_>
          <internalNodes>
            0 -1 87 -691582692 -779975974 1342266565 -612154239
            -240606359 -376717118 -268385848 2079062666</internalNodes>
          <leafValues>
            -7.6851689815521240e-01 2.4605304002761841e-01</leafValues></_>
        <_>
          <internalNodes>
            0 -1 36 -1316370984 1964016000 1112031356 -107413247 231594
            672137290 8495236 -1601568607</internalNodes>
          <leafValues>
            -4.7965633869171143e-01 5.0318139791488647e-01</leafValues></_>
        <_>
          <internalNodes>
            0 -1 70 -42469372 -1877819384 -268415692 1675149840
            -1023328252 -770209759 -1409277948 -356293696</internalNodes>
          <leafValues>
            -5.9506118297576904e-01 4.0649020671844482e-01</leafValues></_>
        <_>
          <internalNodes>
            0 -1 13 -610012272 -1390208384 16826370 1409286208 302686371
            -904265714 38862858 -475807025</internalNodes>
          <leafValues>
            -4.8828235268592834e-01 4.6801480650901794e-01</leafValues></_>
        <_>
          <internalNodes>
            0 -1 52 2119727706 -242974384 1074286651 -108445456
            1686276267 -335331193 -1609834310 734488483</internalNodes>
          <leafValues>
            -5.7184165716171265e-01 3.9866462349891663e-01</leafValues></_>
        <_>
          <internalNodes>
            0 -1 34 -1722028705 -804093934 12582925 1496518154
            -1743216640 -131989504 -1844918001 -1976907351</internalNodes>
          <leafValues>
            -4.2709615826606750e-01 5.5605536699295044e-01</leafValues></_></weakClassifiers></_>
    <!-- stage 19 -->
    <_>
      <maxWeakCount>7</maxWeakCount>
      <stageThreshold>-1.6086753606796265e+00</stageThreshold>
      <weakClassifiers>
        <_>
          <internalNodes>
            0 -1 20 -356285284 -644315604 -653606628 -175491954
            -402028359 -91699104 -1924579284 2144336587</internalNodes>
          <leafValues>
            -8.6842107772827148e-01 1.4583332836627960e-01</leafValues></_>
        <_>
          <internalNodes>
            0 -1 64 -743747563 -781778787 -2113830591 -888499968
            -1010628784 -1266415450 -343374752 -320018296</internalNodes>
          <leafValues>
            -9.4157224893569946e-01 1.8648023903369904e-01</leafValues></_>
        <_>
          <internalNodes>
            0 -1 11 -1467492400 -1446805214 -532639708 -1191055360
            -930617199 -616562560 -394170237 1001906356</internalNodes>
          <leafValues>
            -6.4940458536148071e-01 2.9437255859375000e-01</leafValues></_>
        <_>
          <internalNodes>
            0 -1 39 -22368520 2024472358 481229296 -114016350 1181110270
            -1930545177 251597022 -860459966</internalNodes>
          <leafValues>
            -4.4275361299514771e-01 4.9257206916809082e-01</leafValues></_>
        <_>
          <internalNodes>
            0 -1 32 1158030662 -643366900 51544221 -266567166 -102178130
            -1610542077 -536510261 2062414571</internalNodes>
          <leafValues>
            -8.2180231809616089e-01 2.5738862156867981e-01</leafValues></_>
        <_>
          <internalNodes>
            0 -1 75 -100147630 -1785589616 25362608 -364445436 906919956
            -1080934266 -1602174960 -1673405404</internalNodes>
          <leafValues>
            -5.9642034769058228e-01 4.0879678726196289e-01</leafValues></_>
        <_>
          <internalNodes>
            0 -1 9 -627621067 -1786576384 -903741111 -1063763772
            -1434326526 -2103836600 -2037768158 -288448327</internalNodes>
          <leafValues>
            -5.0979900360107422e-01 4.4508209824562073e-01</leafValues></_></weakClassifiers></_></stages>
  <features>
    <_>
      <rect>
        0 0 1 1</rect></_>
    <_>
      <rect>
        0 0 1 5</rect></_>
    <_>
      <rect>
        0 0 2 3</rect></_>
    <_>
      <rect>
        0 0 3 7</rect></_>
    <_>
      <rect>
        0 0 4 1</rect></_>
    <_>
      <rect>
        0 0 4 2</rect></_>
    <_>
      <rect>
        0 0 8 1</rect></_>
    <_>
      <rect>
        0 0 8 5</rect></_>
    <_>
      <rect>
        0 1 1 1</rect></_>
    <_>
      <rect>
        0 1 6 4</rect></_>
    <_>
      <rect>
        0 2 1 4</rect></_>
    <_>
      <rect>
        0 2 2 3</rect></_>
    <_>
      <rect>
        0 2 3 3</rect></_>
    <_>
      <rect>
        0 4 2 4</rect></_>
    <_>
      <rect>
        0 4 5 4</rect></_>
    <_>
      <rect>
        0 5 2 2</rect></_>
    <_>
      <rect>
        0 7 2 4</rect></_>
    <_>
      <rect>
        0 11 2 2</rect></_>
    <_>
      <rect>
        0 16 1 2</rect></_>
    <_>
      <rect>
        0 18 1 2</rect></_>
    <_>
      <rect>
        0 20 1 1</rect></_>
    <_>
      <rect>
        0 21 1 1</rect></_>
    <_>
      <rect>
        0 21 2 1</rect></_>
    <_>
      <rect>
        0 21 3 1</rect></_>
    <_>
      <rect>
        0 21 5 1</rect></_>
    <_>
      <rect>
        1 0 1 1</rect></_>
    <_>
      <rect>
        1 0 5 3</rect></_>
    <_>
      <rect>
        1 6 1 1</rect></_>
    <_>
      <rect>
        1 6 2 3</rect></_>
    <_>
      <rect>
        1 7 4 5</rect></_>
    <_>
      <rect>
        1 8 2 3</rect></_>
    <_>
      <rect>
        1 21 1 1</rect></_>
    <_>
      <rect>
        2 0 1 1</rect></_>
    <_>
      <rect>
        2 2 1 2</rect></_>
    <_>
      <rect>
        2 4 5 2</rect></_>
    <_>
      <rect>
        2 11 2 1</rect></_>
    <_>
      <rect>
        3 4 2 2</rect></_>
    <_>
      <rect>
        3 10 1 1</rect></_>
    <_>
      <rect>
        4 0 5 4</rect></_>
    <_>
      <rect>
        4 7 1 1</rect></_>
    <_>
      <rect>
        4 7 5 4</rect></_>
    <_>
      <rect>
        4 8 1 1</rect></_>
    <_>
      <rect>
        4 12 3 4</rect></_>
    <_>
      <rect>
        4 12 6 4</rect></_>
    <_>
      <rect>
        5 7 1 1</rect></_>
    <_>
      <rect>
        5 9 3 2</rect></_>
    <_>
      <rect>
        5 9 6 5</rect></_>
    <_>
      <rect>
        5 10 4 2</rect></_>
    <_>
      <rect>
        6 7 3 2</rect></_>
    <_>
      <rect>
        6 10 2 1</rect></_>
    <_>
      <rect>
        6 15 1 1</rect></_>
    <_>
      <rect>
        7 0 4 2</rect></_>
    <_>
      <rect>
        7 7 2 2</rect></_>
    <_>
      <rect>
        7 15 4 3</rect></_>
    <_>
      <rect>
        7 16 1 1</rect></_>
    <_>
      <rect>
        8 11 2 1</rect></_>
    <_>
      <rect>
        9 0 2 1</rect></_>
    <_>
      <rect>
        9 12 5 4</rect></_>
    <_>
      <rect>
        10 0 4 1</rect></_>
    <_>
      <rect>
        10 6 1 1</rect></_>
    <_>
      <rect>
        10 10 1 1</rect></_>
    <_>
      <rect>
        11 11 1 1</rect></_>
    <_>
      <rect>
        11 12 1 1</rect></_>
    <_>
      <rect>
        11 15 1 1</rect></_>
    <_>
      <rect>
        12 9 4 5</rect></_>
    <_>
      <rect>
        12 14 1 1</rect></_>
    <_>
      <rect>
        14 7 1 1</rect></_>
    <_>
      <rect>
        14 13 1 1</rect></_>
    <_>
      <rect>
        15 0 3 4</rect></_>
    <_>
      <rect>
        15 0 3 7</rect></_>
    <_>
      <rect>
        15 8 1 1</rect></_>
    <_>
      <rect>
        15 8 3 3</rect></_>
    <_>
      <rect>
        15 9 1 1</rect></_>
    <_>
      <rect>
        15 21 3 1</rect></_>
    <_>
      <rect>
        16 0 2 1</rect></_>
    <_>
      <rect>
        17 10 1 1</rect></_>
    <_>
      <rect>
        18 0 2 1</rect></_>
    <_>
      <rect>
        18 1 2 4</rect></_>
    <_>
      <rect>
        18 4 2 3</rect></_>
    <_>
      <rect>
        18 6 2 2</rect></_>
    <_>
      <rect>
        18 8 2 2</rect></_>
    <_>
      <rect>
        18 12 2 2</rect></_>
    <_>
      <rect>
        18 14 2 1</rect></_>
    <_>
      <rect>
        18 18 2 2</rect></_>
    <_>
      <rect>
        20 0 1 1</rect></_>
    <_>
      <rect>
        20 21 1 1</rect></_>
    <_>
      <rect>
        21 0 1 1</rect></_>
    <_>
      <rect>
        21 0 1 2</rect></_>
    <_>
      <rect>
        21 0 1 5</rect></_>
    <_>
      <rect>
        21 1 1 1</rect></_>
    <_>
      <rect>
        21 13 1 3</rect></_>
    <_>
      <rect>
        21 18 1 2</rect></_>
    <_>
      <rect>
        21 20 1 1</rect></_>
    <_>
      <rect>
        21 21 1 1</rect></_></features></cascade>
</opencv_storage>
